<GAP_2022_2_23_60_14_2_51_919>
<Potential label="GAP_2022_2_23_60_14_2_51_919" init_args="IP GAP label=GAP_2022_2_23_60_14_2_51_919"/>
<GAP_params label="GAP_2022_2_23_60_14_2_51_919" gap_version="1631710424">
  <GAP_data do_core="F">
    <e0 Z="1" value=".00000000000000000E+000"/>
    <e0 Z="2" value=".00000000000000000E+000"/>
    <e0 Z="3" value=".00000000000000000E+000"/>
    <e0 Z="4" value=".00000000000000000E+000"/>
    <e0 Z="5" value=".00000000000000000E+000"/>
    <e0 Z="6" value=".00000000000000000E+000"/>
    <e0 Z="7" value=".00000000000000000E+000"/>
    <e0 Z="8" value=".00000000000000000E+000"/>
    <e0 Z="9" value=".00000000000000000E+000"/>
    <e0 Z="10" value=".00000000000000000E+000"/>
    <e0 Z="11" value=".00000000000000000E+000"/>
    <e0 Z="12" value=".00000000000000000E+000"/>
    <e0 Z="13" value=".00000000000000000E+000"/>
    <e0 Z="14" value=".00000000000000000E+000"/>
    <e0 Z="15" value=".00000000000000000E+000"/>
    <e0 Z="16" value=".00000000000000000E+000"/>
    <e0 Z="17" value=".00000000000000000E+000"/>
    <e0 Z="18" value=".00000000000000000E+000"/>
    <e0 Z="19" value=".00000000000000000E+000"/>
    <e0 Z="20" value=".00000000000000000E+000"/>
    <e0 Z="21" value=".00000000000000000E+000"/>
    <e0 Z="22" value=".00000000000000000E+000"/>
    <e0 Z="23" value=".00000000000000000E+000"/>
    <e0 Z="24" value=".00000000000000000E+000"/>
    <e0 Z="25" value=".00000000000000000E+000"/>
    <e0 Z="26" value="-3455.6995339000000"/>
    <e0 Z="27" value=".00000000000000000E+000"/>
    <e0 Z="28" value=".00000000000000000E+000"/>
    <e0 Z="29" value=".00000000000000000E+000"/>
    <e0 Z="30" value=".00000000000000000E+000"/>
    <e0 Z="31" value=".00000000000000000E+000"/>
    <e0 Z="32" value=".00000000000000000E+000"/>
    <e0 Z="33" value=".00000000000000000E+000"/>
    <e0 Z="34" value=".00000000000000000E+000"/>
    <e0 Z="35" value=".00000000000000000E+000"/>
    <e0 Z="36" value=".00000000000000000E+000"/>
    <e0 Z="37" value=".00000000000000000E+000"/>
    <e0 Z="38" value=".00000000000000000E+000"/>
    <e0 Z="39" value=".00000000000000000E+000"/>
    <e0 Z="40" value=".00000000000000000E+000"/>
    <e0 Z="41" value=".00000000000000000E+000"/>
    <e0 Z="42" value=".00000000000000000E+000"/>
    <e0 Z="43" value=".00000000000000000E+000"/>
    <e0 Z="44" value=".00000000000000000E+000"/>
    <e0 Z="45" value=".00000000000000000E+000"/>
    <e0 Z="46" value=".00000000000000000E+000"/>
    <e0 Z="47" value=".00000000000000000E+000"/>
    <e0 Z="48" value=".00000000000000000E+000"/>
    <e0 Z="49" value=".00000000000000000E+000"/>
    <e0 Z="50" value=".00000000000000000E+000"/>
    <e0 Z="51" value=".00000000000000000E+000"/>
    <e0 Z="52" value=".00000000000000000E+000"/>
    <e0 Z="53" value=".00000000000000000E+000"/>
    <e0 Z="54" value=".00000000000000000E+000"/>
    <e0 Z="55" value=".00000000000000000E+000"/>
    <e0 Z="56" value=".00000000000000000E+000"/>
    <e0 Z="57" value=".00000000000000000E+000"/>
    <e0 Z="58" value=".00000000000000000E+000"/>
    <e0 Z="59" value=".00000000000000000E+000"/>
    <e0 Z="60" value=".00000000000000000E+000"/>
    <e0 Z="61" value=".00000000000000000E+000"/>
    <e0 Z="62" value=".00000000000000000E+000"/>
    <e0 Z="63" value=".00000000000000000E+000"/>
    <e0 Z="64" value=".00000000000000000E+000"/>
    <e0 Z="65" value=".00000000000000000E+000"/>
    <e0 Z="66" value=".00000000000000000E+000"/>
    <e0 Z="67" value=".00000000000000000E+000"/>
    <e0 Z="68" value=".00000000000000000E+000"/>
    <e0 Z="69" value=".00000000000000000E+000"/>
    <e0 Z="70" value=".00000000000000000E+000"/>
    <e0 Z="71" value=".00000000000000000E+000"/>
    <e0 Z="72" value=".00000000000000000E+000"/>
    <e0 Z="73" value=".00000000000000000E+000"/>
    <e0 Z="74" value=".00000000000000000E+000"/>
    <e0 Z="75" value=".00000000000000000E+000"/>
    <e0 Z="76" value=".00000000000000000E+000"/>
    <e0 Z="77" value=".00000000000000000E+000"/>
    <e0 Z="78" value=".00000000000000000E+000"/>
    <e0 Z="79" value=".00000000000000000E+000"/>
    <e0 Z="80" value=".00000000000000000E+000"/>
    <e0 Z="81" value=".00000000000000000E+000"/>
    <e0 Z="82" value=".00000000000000000E+000"/>
    <e0 Z="83" value=".00000000000000000E+000"/>
    <e0 Z="84" value=".00000000000000000E+000"/>
    <e0 Z="85" value=".00000000000000000E+000"/>
    <e0 Z="86" value=".00000000000000000E+000"/>
    <e0 Z="87" value=".00000000000000000E+000"/>
    <e0 Z="88" value=".00000000000000000E+000"/>
    <e0 Z="89" value=".00000000000000000E+000"/>
    <e0 Z="90" value=".00000000000000000E+000"/>
    <e0 Z="91" value=".00000000000000000E+000"/>
    <e0 Z="92" value=".00000000000000000E+000"/>
    <e0 Z="93" value=".00000000000000000E+000"/>
    <e0 Z="94" value=".00000000000000000E+000"/>
    <e0 Z="95" value=".00000000000000000E+000"/>
    <e0 Z="96" value=".00000000000000000E+000"/>
    <e0 Z="97" value=".00000000000000000E+000"/>
    <e0 Z="98" value=".00000000000000000E+000"/>
    <e0 Z="99" value=".00000000000000000E+000"/>
    <e0 Z="100" value=".00000000000000000E+000"/>
    <e0 Z="101" value=".00000000000000000E+000"/>
    <e0 Z="102" value=".00000000000000000E+000"/>
    <e0 Z="103" value=".00000000000000000E+000"/>
    <e0 Z="104" value=".00000000000000000E+000"/>
    <e0 Z="105" value=".00000000000000000E+000"/>
    <e0 Z="106" value=".00000000000000000E+000"/>
    <e0 Z="107" value=".00000000000000000E+000"/>
    <e0 Z="108" value=".00000000000000000E+000"/>
    <e0 Z="109" value=".00000000000000000E+000"/>
    <e0 Z="110" value=".00000000000000000E+000"/>
    <e0 Z="111" value=".00000000000000000E+000"/>
    <e0 Z="112" value=".00000000000000000E+000"/>
    <e0 Z="113" value=".00000000000000000E+000"/>
    <e0 Z="114" value=".00000000000000000E+000"/>
    <e0 Z="115" value=".00000000000000000E+000"/>
    <e0 Z="116" value=".00000000000000000E+000"/>
    <e0 Z="117" value=".00000000000000000E+000"/>
    <e0 Z="118" value=".00000000000000000E+000"/>
  </GAP_data>
  <gpSparse label="GAP_2022_2_23_60_14_2_51_919" n_coordinate="3">
    <gpCoordinates label="GAP_2022_2_23_60_14_2_51_9191" dimensions="1" signal_variance="1.0000000000000000" signal_mean=".00000000000000000E+000" sparsified="T" n_permutations="2" covariance_type="1" n_sparseX="25" sparseX_filename="gap_Fe_test.xml.sparseX.GAP_2022_2_23_60_14_2_51_9191" sparseX_md5sum="3454227464dad827f35c72caabb7e16d">
      <theta>  0.25000000000000000E+001 </theta>
      <descriptor> distance_Nb order=2 cutoff=5.0 n_sparse=25 covariance_type=ard_se delta=1.0 theta_uniform=2.5 sparse_method=uniform compact_clusters=True Z={26 26 }</descriptor>
      <permutation i="1">1  </permutation>
      <permutation i="2">1  </permutation>
      <sparseX i="1" alpha="-190745.91266227074" sparseCutoff=".60589070852613081"/>
      <sparseX i="2" alpha="41169.125511990511" sparseCutoff="1.0000000000000000"/>
      <sparseX i="3" alpha="-385447.22323513631" sparseCutoff=".53446494464095273E-001"/>
      <sparseX i="4" alpha="-41060.496358940101" sparseCutoff="1.0000000000000000"/>
      <sparseX i="5" alpha="-103004.57652897223" sparseCutoff="1.0000000000000000"/>
      <sparseX i="6" alpha="-133063.20972089056" sparseCutoff="1.0000000000000000"/>
      <sparseX i="7" alpha="42621.077698439658" sparseCutoff="1.0000000000000000"/>
      <sparseX i="8" alpha="-77784.977834326579" sparseCutoff="1.0000000000000000"/>
      <sparseX i="9" alpha="-60818.616455246069" sparseCutoff=".54391676900119590E-002"/>
      <sparseX i="10" alpha="209986.93433350936" sparseCutoff=".84957732336093439"/>
      <sparseX i="11" alpha="-72391.640916376724" sparseCutoff="1.0000000000000000"/>
      <sparseX i="12" alpha="-50257.149039698277" sparseCutoff="1.0000000000000000"/>
      <sparseX i="13" alpha="63798.355430929652" sparseCutoff="1.0000000000000000"/>
      <sparseX i="14" alpha="-25894.115437320761" sparseCutoff="1.0000000000000000"/>
      <sparseX i="15" alpha="131425.51124263645" sparseCutoff="1.0000000000000000"/>
      <sparseX i="16" alpha="50010.365216083825" sparseCutoff="1.0000000000000000"/>
      <sparseX i="17" alpha="156484.98611328006" sparseCutoff="1.0000000000000000"/>
      <sparseX i="18" alpha="-48019.445791285885" sparseCutoff="1.0000000000000000"/>
      <sparseX i="19" alpha="-43813.082138025908" sparseCutoff="1.0000000000000000"/>
      <sparseX i="20" alpha="174951.89744638221" sparseCutoff="1.0000000000000000"/>
      <sparseX i="21" alpha="-135995.75974511748" sparseCutoff="1.0000000000000000"/>
      <sparseX i="22" alpha="-3147.2901043461234" sparseCutoff="1.0000000000000000"/>
      <sparseX i="23" alpha="109.01143320107717" sparseCutoff="1.0000000000000000"/>
      <sparseX i="24" alpha="-38888.152520721778" sparseCutoff="1.0000000000000000"/>
      <sparseX i="25" alpha="70892.412698518543" sparseCutoff="1.0000000000000000"/>
    </gpCoordinates>
    <gpCoordinates label="GAP_2022_2_23_60_14_2_51_9192" dimensions="547" signal_variance=".50000000000000000" signal_mean=".00000000000000000E+000" sparsified="T" n_permutations="1" covariance_type="2" zeta="4.0000000000000000" n_sparseX="2350" sparseX_filename="gap_Fe_test.xml.sparseX.GAP_2022_2_23_60_14_2_51_9192" sparseX_md5sum="f0227f40e0466e7578b343cdb6e80b15">
      <descriptor>soap l_max=6 n_max=12 atom_sigma=0.25 zeta=4 delta=0.5 cutoff=3 cutoff_transition_width=0.5 covariance_type=dot_product config_type_n_sparse=slice_sample_high:250:phonons_54_high:250:phonons_128_high:250:prim_random:100:default:1500 sparse_method=cur_points n_species=1 Z=26 species_Z={26 }</descriptor>
      <permutation i="1">1  </permutation>
      <sparseX i="1" alpha="-158473.04878611004" sparseCutoff="1.0000000000000000"/>
      <sparseX i="2" alpha="-337118.09542872250" sparseCutoff="1.0000000000000000"/>
      <sparseX i="3" alpha="3748697.3791077826" sparseCutoff="1.0000000000000000"/>
      <sparseX i="4" alpha="-147581.82749961328" sparseCutoff="1.0000000000000000"/>
      <sparseX i="5" alpha="294473.04674565064" sparseCutoff="1.0000000000000000"/>
      <sparseX i="6" alpha="138887.44486870000" sparseCutoff="1.0000000000000000"/>
      <sparseX i="7" alpha="-393089.19185120281" sparseCutoff="1.0000000000000000"/>
      <sparseX i="8" alpha="209166.07850263969" sparseCutoff="1.0000000000000000"/>
      <sparseX i="9" alpha="695426.63769633393" sparseCutoff="1.0000000000000000"/>
      <sparseX i="10" alpha="-543699.41502008867" sparseCutoff="1.0000000000000000"/>
      <sparseX i="11" alpha="439539.89663120353" sparseCutoff="1.0000000000000000"/>
      <sparseX i="12" alpha="-3038.6743972815229" sparseCutoff="1.0000000000000000"/>
      <sparseX i="13" alpha="308879.69743883930" sparseCutoff="1.0000000000000000"/>
      <sparseX i="14" alpha="242700.02966103354" sparseCutoff="1.0000000000000000"/>
      <sparseX i="15" alpha="127963.01426495623" sparseCutoff="1.0000000000000000"/>
      <sparseX i="16" alpha="-76759.852915538941" sparseCutoff="1.0000000000000000"/>
      <sparseX i="17" alpha="160339.59510711374" sparseCutoff="1.0000000000000000"/>
      <sparseX i="18" alpha="360524.91560995666" sparseCutoff="1.0000000000000000"/>
      <sparseX i="19" alpha="-2401.5224782651067" sparseCutoff="1.0000000000000000"/>
      <sparseX i="20" alpha="203469.23954610291" sparseCutoff="1.0000000000000000"/>
      <sparseX i="21" alpha="-615473.31453762914" sparseCutoff="1.0000000000000000"/>
      <sparseX i="22" alpha="-27531.891382873251" sparseCutoff="1.0000000000000000"/>
      <sparseX i="23" alpha="-90378.725260781284" sparseCutoff="1.0000000000000000"/>
      <sparseX i="24" alpha="255123.71242792657" sparseCutoff="1.0000000000000000"/>
      <sparseX i="25" alpha="30006.211950755653" sparseCutoff="1.0000000000000000"/>
      <sparseX i="26" alpha="-219994.28116078660" sparseCutoff="1.0000000000000000"/>
      <sparseX i="27" alpha="-90179.403073299749" sparseCutoff="1.0000000000000000"/>
      <sparseX i="28" alpha="157921.77701847148" sparseCutoff="1.0000000000000000"/>
      <sparseX i="29" alpha="15597.061987647478" sparseCutoff="1.0000000000000000"/>
      <sparseX i="30" alpha="134928.50506348768" sparseCutoff="1.0000000000000000"/>
      <sparseX i="31" alpha="-12285.575867043428" sparseCutoff="1.0000000000000000"/>
      <sparseX i="32" alpha="-721457.55939803238" sparseCutoff="1.0000000000000000"/>
      <sparseX i="33" alpha="-52940.584694269513" sparseCutoff="1.0000000000000000"/>
      <sparseX i="34" alpha="-98392.157655097384" sparseCutoff="1.0000000000000000"/>
      <sparseX i="35" alpha="1563935.4286264402" sparseCutoff="1.0000000000000000"/>
      <sparseX i="36" alpha="143627.36232081748" sparseCutoff="1.0000000000000000"/>
      <sparseX i="37" alpha="-56095.548162438841" sparseCutoff="1.0000000000000000"/>
      <sparseX i="38" alpha="-685436.30464287149" sparseCutoff="1.0000000000000000"/>
      <sparseX i="39" alpha="-46043.914265583269" sparseCutoff="1.0000000000000000"/>
      <sparseX i="40" alpha="-63819.464498726164" sparseCutoff="1.0000000000000000"/>
      <sparseX i="41" alpha="-97203.121414944006" sparseCutoff="1.0000000000000000"/>
      <sparseX i="42" alpha="68989.696401463108" sparseCutoff="1.0000000000000000"/>
      <sparseX i="43" alpha="-187395.13125189778" sparseCutoff="1.0000000000000000"/>
      <sparseX i="44" alpha="926076.26959102508" sparseCutoff="1.0000000000000000"/>
      <sparseX i="45" alpha="-697363.70816580649" sparseCutoff="1.0000000000000000"/>
      <sparseX i="46" alpha="-1678060.7148083097" sparseCutoff="1.0000000000000000"/>
      <sparseX i="47" alpha="-3833405.5935510439" sparseCutoff="1.0000000000000000"/>
      <sparseX i="48" alpha="-298360.59880253469" sparseCutoff="1.0000000000000000"/>
      <sparseX i="49" alpha="-480532.94217880099" sparseCutoff="1.0000000000000000"/>
      <sparseX i="50" alpha="-234247.44923006275" sparseCutoff="1.0000000000000000"/>
      <sparseX i="51" alpha="296538.52945732750" sparseCutoff="1.0000000000000000"/>
      <sparseX i="52" alpha="451709.10685634578" sparseCutoff="1.0000000000000000"/>
      <sparseX i="53" alpha="726040.27267067321" sparseCutoff="1.0000000000000000"/>
      <sparseX i="54" alpha="218430.49228166172" sparseCutoff="1.0000000000000000"/>
      <sparseX i="55" alpha="268692.71969564894" sparseCutoff="1.0000000000000000"/>
      <sparseX i="56" alpha="-816370.93324328552" sparseCutoff="1.0000000000000000"/>
      <sparseX i="57" alpha="3231.2140441784536" sparseCutoff="1.0000000000000000"/>
      <sparseX i="58" alpha="24220.670936822582" sparseCutoff="1.0000000000000000"/>
      <sparseX i="59" alpha="-156509.26134337776" sparseCutoff="1.0000000000000000"/>
      <sparseX i="60" alpha="201820.17758295234" sparseCutoff="1.0000000000000000"/>
      <sparseX i="61" alpha="-41116.176774111198" sparseCutoff="1.0000000000000000"/>
      <sparseX i="62" alpha="-3559.9305043953841" sparseCutoff="1.0000000000000000"/>
      <sparseX i="63" alpha="-421047.84900105261" sparseCutoff="1.0000000000000000"/>
      <sparseX i="64" alpha="-539062.55566225376" sparseCutoff="1.0000000000000000"/>
      <sparseX i="65" alpha="4896.4077834551490" sparseCutoff="1.0000000000000000"/>
      <sparseX i="66" alpha="1429542.8368819193" sparseCutoff="1.0000000000000000"/>
      <sparseX i="67" alpha="-63531.853933059858" sparseCutoff="1.0000000000000000"/>
      <sparseX i="68" alpha="520115.89870894857" sparseCutoff="1.0000000000000000"/>
      <sparseX i="69" alpha="-697610.32702756301" sparseCutoff="1.0000000000000000"/>
      <sparseX i="70" alpha="330937.24068993051" sparseCutoff="1.0000000000000000"/>
      <sparseX i="71" alpha="1411091.4600558365" sparseCutoff="1.0000000000000000"/>
      <sparseX i="72" alpha="455123.99122408760" sparseCutoff="1.0000000000000000"/>
      <sparseX i="73" alpha="-313133.00935818552" sparseCutoff="1.0000000000000000"/>
      <sparseX i="74" alpha="-514688.52470360725" sparseCutoff="1.0000000000000000"/>
      <sparseX i="75" alpha="-964926.53454103367" sparseCutoff="1.0000000000000000"/>
      <sparseX i="76" alpha="-76343.339439394651" sparseCutoff="1.0000000000000000"/>
      <sparseX i="77" alpha="-458466.44579435681" sparseCutoff="1.0000000000000000"/>
      <sparseX i="78" alpha="360472.48102891882" sparseCutoff="1.0000000000000000"/>
      <sparseX i="79" alpha="-4704325.8804639038" sparseCutoff="1.0000000000000000"/>
      <sparseX i="80" alpha="-494387.75139428634" sparseCutoff="1.0000000000000000"/>
      <sparseX i="81" alpha="-70955.903219626154" sparseCutoff="1.0000000000000000"/>
      <sparseX i="82" alpha="20627.906172123330" sparseCutoff="1.0000000000000000"/>
      <sparseX i="83" alpha="-43194.028385569960" sparseCutoff="1.0000000000000000"/>
      <sparseX i="84" alpha="-187763.77085517030" sparseCutoff="1.0000000000000000"/>
      <sparseX i="85" alpha="-18991.967089051155" sparseCutoff="1.0000000000000000"/>
      <sparseX i="86" alpha="-62081.786395568903" sparseCutoff="1.0000000000000000"/>
      <sparseX i="87" alpha="32714.492844149208" sparseCutoff="1.0000000000000000"/>
      <sparseX i="88" alpha="18801.464856364048" sparseCutoff="1.0000000000000000"/>
      <sparseX i="89" alpha="-129587.76369497711" sparseCutoff="1.0000000000000000"/>
      <sparseX i="90" alpha="58153.140727665217" sparseCutoff="1.0000000000000000"/>
      <sparseX i="91" alpha="-182841.68975545204" sparseCutoff="1.0000000000000000"/>
      <sparseX i="92" alpha="8958.8712642531827" sparseCutoff="1.0000000000000000"/>
      <sparseX i="93" alpha="5799.6980665700194" sparseCutoff="1.0000000000000000"/>
      <sparseX i="94" alpha="-151708.76372716352" sparseCutoff="1.0000000000000000"/>
      <sparseX i="95" alpha="327091.40786604898" sparseCutoff="1.0000000000000000"/>
      <sparseX i="96" alpha="6152.6031435527693" sparseCutoff="1.0000000000000000"/>
      <sparseX i="97" alpha="-65366.061768654457" sparseCutoff="1.0000000000000000"/>
      <sparseX i="98" alpha="34513.912317541508" sparseCutoff="1.0000000000000000"/>
      <sparseX i="99" alpha="-23831.657701440130" sparseCutoff="1.0000000000000000"/>
      <sparseX i="100" alpha="52902.274069978354" sparseCutoff="1.0000000000000000"/>
      <sparseX i="101" alpha="-35802.634869622336" sparseCutoff="1.0000000000000000"/>
      <sparseX i="102" alpha="-5320.9734413254082" sparseCutoff="1.0000000000000000"/>
      <sparseX i="103" alpha="-3088.4674575318486" sparseCutoff="1.0000000000000000"/>
      <sparseX i="104" alpha="147672.42207178744" sparseCutoff="1.0000000000000000"/>
      <sparseX i="105" alpha="37384.603903796109" sparseCutoff="1.0000000000000000"/>
      <sparseX i="106" alpha="-39949.162666645883" sparseCutoff="1.0000000000000000"/>
      <sparseX i="107" alpha="789.18536142285564" sparseCutoff="1.0000000000000000"/>
      <sparseX i="108" alpha="74918.492579690457" sparseCutoff="1.0000000000000000"/>
      <sparseX i="109" alpha="-94885.683886192899" sparseCutoff="1.0000000000000000"/>
      <sparseX i="110" alpha="4407.6491380424895" sparseCutoff="1.0000000000000000"/>
      <sparseX i="111" alpha="-576720.97244829149" sparseCutoff="1.0000000000000000"/>
      <sparseX i="112" alpha="1208620.8688399752" sparseCutoff="1.0000000000000000"/>
      <sparseX i="113" alpha="-64224.840943447722" sparseCutoff="1.0000000000000000"/>
      <sparseX i="114" alpha="55059.093549946898" sparseCutoff="1.0000000000000000"/>
      <sparseX i="115" alpha="105635.08467112610" sparseCutoff="1.0000000000000000"/>
      <sparseX i="116" alpha="-3255.0173576454008" sparseCutoff="1.0000000000000000"/>
      <sparseX i="117" alpha="48468.725804667636" sparseCutoff="1.0000000000000000"/>
      <sparseX i="118" alpha="-703560.63041018229" sparseCutoff="1.0000000000000000"/>
      <sparseX i="119" alpha="15855.903829872685" sparseCutoff="1.0000000000000000"/>
      <sparseX i="120" alpha="-39336.043176738152" sparseCutoff="1.0000000000000000"/>
      <sparseX i="121" alpha="2628128.4326494336" sparseCutoff="1.0000000000000000"/>
      <sparseX i="122" alpha="7318.9864338275665" sparseCutoff="1.0000000000000000"/>
      <sparseX i="123" alpha="70373.435762048874" sparseCutoff="1.0000000000000000"/>
      <sparseX i="124" alpha="312137.86434484884" sparseCutoff="1.0000000000000000"/>
      <sparseX i="125" alpha="-23433.956846517838" sparseCutoff="1.0000000000000000"/>
      <sparseX i="126" alpha="47873.395991199526" sparseCutoff="1.0000000000000000"/>
      <sparseX i="127" alpha="-401274.44554138737" sparseCutoff="1.0000000000000000"/>
      <sparseX i="128" alpha="490632.52097787982" sparseCutoff="1.0000000000000000"/>
      <sparseX i="129" alpha="239229.65500816505" sparseCutoff="1.0000000000000000"/>
      <sparseX i="130" alpha="473881.34314952686" sparseCutoff="1.0000000000000000"/>
      <sparseX i="131" alpha="41478.141793147486" sparseCutoff="1.0000000000000000"/>
      <sparseX i="132" alpha="-194669.97700683743" sparseCutoff="1.0000000000000000"/>
      <sparseX i="133" alpha="-197907.05926139851" sparseCutoff="1.0000000000000000"/>
      <sparseX i="134" alpha="2988001.0028260248" sparseCutoff="1.0000000000000000"/>
      <sparseX i="135" alpha="869328.05291500175" sparseCutoff="1.0000000000000000"/>
      <sparseX i="136" alpha="-105741.69403432390" sparseCutoff="1.0000000000000000"/>
      <sparseX i="137" alpha="1271058.9130276754" sparseCutoff="1.0000000000000000"/>
      <sparseX i="138" alpha="-1163217.1055889016" sparseCutoff="1.0000000000000000"/>
      <sparseX i="139" alpha="-527522.27099093643" sparseCutoff="1.0000000000000000"/>
      <sparseX i="140" alpha="-117090.08987315516" sparseCutoff="1.0000000000000000"/>
      <sparseX i="141" alpha="357019.65717323264" sparseCutoff="1.0000000000000000"/>
      <sparseX i="142" alpha="988859.22298535984" sparseCutoff="1.0000000000000000"/>
      <sparseX i="143" alpha="162155.13471389146" sparseCutoff="1.0000000000000000"/>
      <sparseX i="144" alpha="-272425.74177554640" sparseCutoff="1.0000000000000000"/>
      <sparseX i="145" alpha="-11879.194460848639" sparseCutoff="1.0000000000000000"/>
      <sparseX i="146" alpha="-84929.613105717712" sparseCutoff="1.0000000000000000"/>
      <sparseX i="147" alpha="1779.9946843236382" sparseCutoff="1.0000000000000000"/>
      <sparseX i="148" alpha="-174913.69499309998" sparseCutoff="1.0000000000000000"/>
      <sparseX i="149" alpha="-11055.742680154071" sparseCutoff="1.0000000000000000"/>
      <sparseX i="150" alpha="-13923.629303523023" sparseCutoff="1.0000000000000000"/>
      <sparseX i="151" alpha="45039.530229085853" sparseCutoff="1.0000000000000000"/>
      <sparseX i="152" alpha="48763.189703222801" sparseCutoff="1.0000000000000000"/>
      <sparseX i="153" alpha="960921.76504572190" sparseCutoff="1.0000000000000000"/>
      <sparseX i="154" alpha="630790.59194097901" sparseCutoff="1.0000000000000000"/>
      <sparseX i="155" alpha="12842.848733440029" sparseCutoff="1.0000000000000000"/>
      <sparseX i="156" alpha="57044.415684875254" sparseCutoff="1.0000000000000000"/>
      <sparseX i="157" alpha="1827967.9172644117" sparseCutoff="1.0000000000000000"/>
      <sparseX i="158" alpha="-116313.83500989579" sparseCutoff="1.0000000000000000"/>
      <sparseX i="159" alpha="664126.01589412615" sparseCutoff="1.0000000000000000"/>
      <sparseX i="160" alpha="79028.848412513078" sparseCutoff="1.0000000000000000"/>
      <sparseX i="161" alpha="5819317.9743592674" sparseCutoff="1.0000000000000000"/>
      <sparseX i="162" alpha="929207.51118381089" sparseCutoff="1.0000000000000000"/>
      <sparseX i="163" alpha="-18678.822551874149" sparseCutoff="1.0000000000000000"/>
      <sparseX i="164" alpha="72893.932934042023" sparseCutoff="1.0000000000000000"/>
      <sparseX i="165" alpha="-60675.111664031028" sparseCutoff="1.0000000000000000"/>
      <sparseX i="166" alpha="85676.850424945704" sparseCutoff="1.0000000000000000"/>
      <sparseX i="167" alpha="465161.64447305130" sparseCutoff="1.0000000000000000"/>
      <sparseX i="168" alpha="43919.169268682279" sparseCutoff="1.0000000000000000"/>
      <sparseX i="169" alpha="243198.07750838442" sparseCutoff="1.0000000000000000"/>
      <sparseX i="170" alpha="-27059.891431733504" sparseCutoff="1.0000000000000000"/>
      <sparseX i="171" alpha="-210514.01231780520" sparseCutoff="1.0000000000000000"/>
      <sparseX i="172" alpha="381.18754515905226" sparseCutoff="1.0000000000000000"/>
      <sparseX i="173" alpha="-81532.895430683027" sparseCutoff="1.0000000000000000"/>
      <sparseX i="174" alpha="126345.65479013062" sparseCutoff="1.0000000000000000"/>
      <sparseX i="175" alpha="355599.19913861231" sparseCutoff="1.0000000000000000"/>
      <sparseX i="176" alpha="141188.69083292986" sparseCutoff="1.0000000000000000"/>
      <sparseX i="177" alpha="-142650.10002469068" sparseCutoff="1.0000000000000000"/>
      <sparseX i="178" alpha="3456.6911032020339" sparseCutoff="1.0000000000000000"/>
      <sparseX i="179" alpha="-233355.32606813975" sparseCutoff="1.0000000000000000"/>
      <sparseX i="180" alpha="82512.777367419651" sparseCutoff="1.0000000000000000"/>
      <sparseX i="181" alpha="-129376.46347138708" sparseCutoff="1.0000000000000000"/>
      <sparseX i="182" alpha="-190890.74129385763" sparseCutoff="1.0000000000000000"/>
      <sparseX i="183" alpha="131533.37337316957" sparseCutoff="1.0000000000000000"/>
      <sparseX i="184" alpha="81610.815523025813" sparseCutoff="1.0000000000000000"/>
      <sparseX i="185" alpha="-356050.52373521455" sparseCutoff="1.0000000000000000"/>
      <sparseX i="186" alpha="274608.25941528718" sparseCutoff="1.0000000000000000"/>
      <sparseX i="187" alpha="-62332.995190546040" sparseCutoff="1.0000000000000000"/>
      <sparseX i="188" alpha="37414.736494043435" sparseCutoff="1.0000000000000000"/>
      <sparseX i="189" alpha="-303.79123013032643" sparseCutoff="1.0000000000000000"/>
      <sparseX i="190" alpha="-88786.850735910542" sparseCutoff="1.0000000000000000"/>
      <sparseX i="191" alpha="-189247.72289120796" sparseCutoff="1.0000000000000000"/>
      <sparseX i="192" alpha="273012.63533309713" sparseCutoff="1.0000000000000000"/>
      <sparseX i="193" alpha="14036.303666286984" sparseCutoff="1.0000000000000000"/>
      <sparseX i="194" alpha="-33214.445107537154" sparseCutoff="1.0000000000000000"/>
      <sparseX i="195" alpha="88707.635357184190" sparseCutoff="1.0000000000000000"/>
      <sparseX i="196" alpha="30388.231500463899" sparseCutoff="1.0000000000000000"/>
      <sparseX i="197" alpha="-205018.24775965605" sparseCutoff="1.0000000000000000"/>
      <sparseX i="198" alpha="2972.4127070183367" sparseCutoff="1.0000000000000000"/>
      <sparseX i="199" alpha="-14738.616643787176" sparseCutoff="1.0000000000000000"/>
      <sparseX i="200" alpha="93463.706680160234" sparseCutoff="1.0000000000000000"/>
      <sparseX i="201" alpha="-82219.096648219609" sparseCutoff="1.0000000000000000"/>
      <sparseX i="202" alpha="66899.055683133760" sparseCutoff="1.0000000000000000"/>
      <sparseX i="203" alpha="42716.792718038058" sparseCutoff="1.0000000000000000"/>
      <sparseX i="204" alpha="-50486.032637085555" sparseCutoff="1.0000000000000000"/>
      <sparseX i="205" alpha="-34286.837269119460" sparseCutoff="1.0000000000000000"/>
      <sparseX i="206" alpha="-67239.211742215120" sparseCutoff="1.0000000000000000"/>
      <sparseX i="207" alpha="-29919.240336946259" sparseCutoff="1.0000000000000000"/>
      <sparseX i="208" alpha="78349.809337317682" sparseCutoff="1.0000000000000000"/>
      <sparseX i="209" alpha="-10031.794780074777" sparseCutoff="1.0000000000000000"/>
      <sparseX i="210" alpha="48798.646042508037" sparseCutoff="1.0000000000000000"/>
      <sparseX i="211" alpha="71929.236636745758" sparseCutoff="1.0000000000000000"/>
      <sparseX i="212" alpha="-1274213.3115630264" sparseCutoff="1.0000000000000000"/>
      <sparseX i="213" alpha="-139896.28151871456" sparseCutoff="1.0000000000000000"/>
      <sparseX i="214" alpha="40085.853229384251" sparseCutoff="1.0000000000000000"/>
      <sparseX i="215" alpha="-18752.252274376402" sparseCutoff="1.0000000000000000"/>
      <sparseX i="216" alpha="12998.958246955666" sparseCutoff="1.0000000000000000"/>
      <sparseX i="217" alpha="34837.302577432216" sparseCutoff="1.0000000000000000"/>
      <sparseX i="218" alpha="30409.675273603378" sparseCutoff="1.0000000000000000"/>
      <sparseX i="219" alpha="26758.532326101533" sparseCutoff="1.0000000000000000"/>
      <sparseX i="220" alpha="-45747.295399736831" sparseCutoff="1.0000000000000000"/>
      <sparseX i="221" alpha="-76502.418778055406" sparseCutoff="1.0000000000000000"/>
      <sparseX i="222" alpha="48965.223333010617" sparseCutoff="1.0000000000000000"/>
      <sparseX i="223" alpha="192916.80534901060" sparseCutoff="1.0000000000000000"/>
      <sparseX i="224" alpha="-415860.17614313238" sparseCutoff="1.0000000000000000"/>
      <sparseX i="225" alpha="12664.591379436817" sparseCutoff="1.0000000000000000"/>
      <sparseX i="226" alpha="-28313.406550717285" sparseCutoff="1.0000000000000000"/>
      <sparseX i="227" alpha="-59477.429135319500" sparseCutoff="1.0000000000000000"/>
      <sparseX i="228" alpha="-479852.65393257310" sparseCutoff="1.0000000000000000"/>
      <sparseX i="229" alpha="-124418.98465297368" sparseCutoff="1.0000000000000000"/>
      <sparseX i="230" alpha="54369.414057348797" sparseCutoff="1.0000000000000000"/>
      <sparseX i="231" alpha="18813.031091065208" sparseCutoff="1.0000000000000000"/>
      <sparseX i="232" alpha="288258.12545136584" sparseCutoff="1.0000000000000000"/>
      <sparseX i="233" alpha="-435514.59410399490" sparseCutoff="1.0000000000000000"/>
      <sparseX i="234" alpha="-2109683.3048805431" sparseCutoff="1.0000000000000000"/>
      <sparseX i="235" alpha="-171507.37068993712" sparseCutoff="1.0000000000000000"/>
      <sparseX i="236" alpha="364214.71894715255" sparseCutoff="1.0000000000000000"/>
      <sparseX i="237" alpha="1992714.7421769402" sparseCutoff="1.0000000000000000"/>
      <sparseX i="238" alpha="-483567.04521384090" sparseCutoff="1.0000000000000000"/>
      <sparseX i="239" alpha="313479.26453479374" sparseCutoff="1.0000000000000000"/>
      <sparseX i="240" alpha="960.69702796416880" sparseCutoff="1.0000000000000000"/>
      <sparseX i="241" alpha="68324.363160616151" sparseCutoff="1.0000000000000000"/>
      <sparseX i="242" alpha="-66973.692268240629" sparseCutoff="1.0000000000000000"/>
      <sparseX i="243" alpha="534540.00592139270" sparseCutoff="1.0000000000000000"/>
      <sparseX i="244" alpha="167310.31386986258" sparseCutoff="1.0000000000000000"/>
      <sparseX i="245" alpha="-92127.965520217811" sparseCutoff="1.0000000000000000"/>
      <sparseX i="246" alpha="-6539186.4610372102" sparseCutoff="1.0000000000000000"/>
      <sparseX i="247" alpha="-38318.186961044637" sparseCutoff="1.0000000000000000"/>
      <sparseX i="248" alpha="-30770.472209153762" sparseCutoff="1.0000000000000000"/>
      <sparseX i="249" alpha="-311940.04382270214" sparseCutoff="1.0000000000000000"/>
      <sparseX i="250" alpha="216681.60006852896" sparseCutoff="1.0000000000000000"/>
      <sparseX i="251" alpha="1213881.4799482774" sparseCutoff="1.0000000000000000"/>
      <sparseX i="252" alpha="-200544.44140575395" sparseCutoff="1.0000000000000000"/>
      <sparseX i="253" alpha="-165283.23353256876" sparseCutoff="1.0000000000000000"/>
      <sparseX i="254" alpha="119299.00138505518" sparseCutoff="1.0000000000000000"/>
      <sparseX i="255" alpha="-124188.16825345065" sparseCutoff="1.0000000000000000"/>
      <sparseX i="256" alpha="266108.07033371506" sparseCutoff="1.0000000000000000"/>
      <sparseX i="257" alpha="-36020.130634273053" sparseCutoff="1.0000000000000000"/>
      <sparseX i="258" alpha="130656.96630537906" sparseCutoff="1.0000000000000000"/>
      <sparseX i="259" alpha="137104.70046230571" sparseCutoff="1.0000000000000000"/>
      <sparseX i="260" alpha="130037.55757961508" sparseCutoff="1.0000000000000000"/>
      <sparseX i="261" alpha="-116625.26724446300" sparseCutoff="1.0000000000000000"/>
      <sparseX i="262" alpha="-14269.637351540508" sparseCutoff="1.0000000000000000"/>
      <sparseX i="263" alpha="-17977.057270075180" sparseCutoff="1.0000000000000000"/>
      <sparseX i="264" alpha="-216392.80787038401" sparseCutoff="1.0000000000000000"/>
      <sparseX i="265" alpha="-118073.17609906707" sparseCutoff="1.0000000000000000"/>
      <sparseX i="266" alpha="-261747.22004816844" sparseCutoff="1.0000000000000000"/>
      <sparseX i="267" alpha="9450.6821741220028" sparseCutoff="1.0000000000000000"/>
      <sparseX i="268" alpha="-612.25695318831447" sparseCutoff="1.0000000000000000"/>
      <sparseX i="269" alpha="5598.3806816627257" sparseCutoff="1.0000000000000000"/>
      <sparseX i="270" alpha="-182398.69131406126" sparseCutoff="1.0000000000000000"/>
      <sparseX i="271" alpha="58049.862926062407" sparseCutoff="1.0000000000000000"/>
      <sparseX i="272" alpha="48022.921287514997" sparseCutoff="1.0000000000000000"/>
      <sparseX i="273" alpha="-18479.984382610630" sparseCutoff="1.0000000000000000"/>
      <sparseX i="274" alpha="7052.9525152627939" sparseCutoff="1.0000000000000000"/>
      <sparseX i="275" alpha="-809.49902069307575" sparseCutoff="1.0000000000000000"/>
      <sparseX i="276" alpha="-29277.705702270410" sparseCutoff="1.0000000000000000"/>
      <sparseX i="277" alpha="-177020.19964693658" sparseCutoff="1.0000000000000000"/>
      <sparseX i="278" alpha="296.04925317984498" sparseCutoff="1.0000000000000000"/>
      <sparseX i="279" alpha="64788.895640744646" sparseCutoff="1.0000000000000000"/>
      <sparseX i="280" alpha="-8103.1865148088091" sparseCutoff="1.0000000000000000"/>
      <sparseX i="281" alpha="14814.598025980060" sparseCutoff="1.0000000000000000"/>
      <sparseX i="282" alpha="-80687.013665282750" sparseCutoff="1.0000000000000000"/>
      <sparseX i="283" alpha="43983.137479370140" sparseCutoff="1.0000000000000000"/>
      <sparseX i="284" alpha="9516.9678861165139" sparseCutoff="1.0000000000000000"/>
      <sparseX i="285" alpha="-22820.715773764601" sparseCutoff="1.0000000000000000"/>
      <sparseX i="286" alpha="38430.234721164146" sparseCutoff="1.0000000000000000"/>
      <sparseX i="287" alpha="8104.7072311411721" sparseCutoff="1.0000000000000000"/>
      <sparseX i="288" alpha="-131742.13922786934" sparseCutoff="1.0000000000000000"/>
      <sparseX i="289" alpha="-39164.322178441762" sparseCutoff="1.0000000000000000"/>
      <sparseX i="290" alpha="5200.7906179886004" sparseCutoff="1.0000000000000000"/>
      <sparseX i="291" alpha="24674.067919741341" sparseCutoff="1.0000000000000000"/>
      <sparseX i="292" alpha="-54889.923243402925" sparseCutoff="1.0000000000000000"/>
      <sparseX i="293" alpha="-23795.699253408871" sparseCutoff="1.0000000000000000"/>
      <sparseX i="294" alpha="-956.07547133773994" sparseCutoff="1.0000000000000000"/>
      <sparseX i="295" alpha="-21935.924361152545" sparseCutoff="1.0000000000000000"/>
      <sparseX i="296" alpha="-2467.1602654811204" sparseCutoff="1.0000000000000000"/>
      <sparseX i="297" alpha="8357.7163267335818" sparseCutoff="1.0000000000000000"/>
      <sparseX i="298" alpha="10834.534172652431" sparseCutoff="1.0000000000000000"/>
      <sparseX i="299" alpha="-1813.3908363857067" sparseCutoff="1.0000000000000000"/>
      <sparseX i="300" alpha="30999.525312790251" sparseCutoff="1.0000000000000000"/>
      <sparseX i="301" alpha="65811.062810672316" sparseCutoff="1.0000000000000000"/>
      <sparseX i="302" alpha="11459.957223518975" sparseCutoff="1.0000000000000000"/>
      <sparseX i="303" alpha="-7768.0100440518454" sparseCutoff="1.0000000000000000"/>
      <sparseX i="304" alpha="-9004.4133239024668" sparseCutoff="1.0000000000000000"/>
      <sparseX i="305" alpha="-21288.208038814799" sparseCutoff="1.0000000000000000"/>
      <sparseX i="306" alpha="90942.044967955109" sparseCutoff="1.0000000000000000"/>
      <sparseX i="307" alpha="-52640.422791727404" sparseCutoff="1.0000000000000000"/>
      <sparseX i="308" alpha="36060.227486105752" sparseCutoff="1.0000000000000000"/>
      <sparseX i="309" alpha="-1349825.0133970608" sparseCutoff="1.0000000000000000"/>
      <sparseX i="310" alpha="-24158.462859399122" sparseCutoff="1.0000000000000000"/>
      <sparseX i="311" alpha="1642788.5306406287" sparseCutoff="1.0000000000000000"/>
      <sparseX i="312" alpha="107784.30399679689" sparseCutoff="1.0000000000000000"/>
      <sparseX i="313" alpha="18804.726411304793" sparseCutoff="1.0000000000000000"/>
      <sparseX i="314" alpha="1048014.0960438146" sparseCutoff="1.0000000000000000"/>
      <sparseX i="315" alpha="948624.77486939868" sparseCutoff="1.0000000000000000"/>
      <sparseX i="316" alpha="157972.26072705688" sparseCutoff="1.0000000000000000"/>
      <sparseX i="317" alpha="7045.7724847819309" sparseCutoff="1.0000000000000000"/>
      <sparseX i="318" alpha="18953.164736488692" sparseCutoff="1.0000000000000000"/>
      <sparseX i="319" alpha="85226.849129447248" sparseCutoff="1.0000000000000000"/>
      <sparseX i="320" alpha="-41951.053303685978" sparseCutoff="1.0000000000000000"/>
      <sparseX i="321" alpha="12413.911859959999" sparseCutoff="1.0000000000000000"/>
      <sparseX i="322" alpha="-9376.8694694460155" sparseCutoff="1.0000000000000000"/>
      <sparseX i="323" alpha="-126326.69456751345" sparseCutoff="1.0000000000000000"/>
      <sparseX i="324" alpha="68760.394559231412" sparseCutoff="1.0000000000000000"/>
      <sparseX i="325" alpha="23288.596612799018" sparseCutoff="1.0000000000000000"/>
      <sparseX i="326" alpha="-73854.986838789162" sparseCutoff="1.0000000000000000"/>
      <sparseX i="327" alpha="-104751.15436510443" sparseCutoff="1.0000000000000000"/>
      <sparseX i="328" alpha="6174.5896552785398" sparseCutoff="1.0000000000000000"/>
      <sparseX i="329" alpha="4319.9953361702983" sparseCutoff="1.0000000000000000"/>
      <sparseX i="330" alpha="-21838.160784132750" sparseCutoff="1.0000000000000000"/>
      <sparseX i="331" alpha="10992.484219513215" sparseCutoff="1.0000000000000000"/>
      <sparseX i="332" alpha="91448.913570167148" sparseCutoff="1.0000000000000000"/>
      <sparseX i="333" alpha="26527.453799264855" sparseCutoff="1.0000000000000000"/>
      <sparseX i="334" alpha="-2240.5409061932910" sparseCutoff="1.0000000000000000"/>
      <sparseX i="335" alpha="48232.370689129799" sparseCutoff="1.0000000000000000"/>
      <sparseX i="336" alpha="59154.463203832929" sparseCutoff="1.0000000000000000"/>
      <sparseX i="337" alpha="-9887.0909111087276" sparseCutoff="1.0000000000000000"/>
      <sparseX i="338" alpha="9803.5690031647609" sparseCutoff="1.0000000000000000"/>
      <sparseX i="339" alpha="32886.933006711035" sparseCutoff="1.0000000000000000"/>
      <sparseX i="340" alpha="-11766.518070273292" sparseCutoff="1.0000000000000000"/>
      <sparseX i="341" alpha="11227.421281133260" sparseCutoff="1.0000000000000000"/>
      <sparseX i="342" alpha="938.93566522299648" sparseCutoff="1.0000000000000000"/>
      <sparseX i="343" alpha="-90619.286961710808" sparseCutoff="1.0000000000000000"/>
      <sparseX i="344" alpha="67616.992528451854" sparseCutoff="1.0000000000000000"/>
      <sparseX i="345" alpha="33527.784993632202" sparseCutoff="1.0000000000000000"/>
      <sparseX i="346" alpha="-15439.809734792536" sparseCutoff="1.0000000000000000"/>
      <sparseX i="347" alpha="12122.899213556830" sparseCutoff="1.0000000000000000"/>
      <sparseX i="348" alpha="90558.984931264727" sparseCutoff="1.0000000000000000"/>
      <sparseX i="349" alpha="5755.6539272813698" sparseCutoff="1.0000000000000000"/>
      <sparseX i="350" alpha="-8639.0454996953595" sparseCutoff="1.0000000000000000"/>
      <sparseX i="351" alpha="10918.375201780114" sparseCutoff="1.0000000000000000"/>
      <sparseX i="352" alpha="-3492.4350660013802" sparseCutoff="1.0000000000000000"/>
      <sparseX i="353" alpha="79969.697712335575" sparseCutoff="1.0000000000000000"/>
      <sparseX i="354" alpha="36825.373625483408" sparseCutoff="1.0000000000000000"/>
      <sparseX i="355" alpha="-8673.8037780027898" sparseCutoff="1.0000000000000000"/>
      <sparseX i="356" alpha="40420.513818126718" sparseCutoff="1.0000000000000000"/>
      <sparseX i="357" alpha="12769.231250955327" sparseCutoff="1.0000000000000000"/>
      <sparseX i="358" alpha="50006.453416504984" sparseCutoff="1.0000000000000000"/>
      <sparseX i="359" alpha="-249.69179072703466" sparseCutoff="1.0000000000000000"/>
      <sparseX i="360" alpha="32448.016835820854" sparseCutoff="1.0000000000000000"/>
      <sparseX i="361" alpha="-742.83615472211704" sparseCutoff="1.0000000000000000"/>
      <sparseX i="362" alpha="7680.6249986417415" sparseCutoff="1.0000000000000000"/>
      <sparseX i="363" alpha="-5549.8382477661189" sparseCutoff="1.0000000000000000"/>
      <sparseX i="364" alpha="-13612.716544674817" sparseCutoff="1.0000000000000000"/>
      <sparseX i="365" alpha="13995.947139511056" sparseCutoff="1.0000000000000000"/>
      <sparseX i="366" alpha="-786236.08686910768" sparseCutoff="1.0000000000000000"/>
      <sparseX i="367" alpha="100664.29733601079" sparseCutoff="1.0000000000000000"/>
      <sparseX i="368" alpha="107106.99177749119" sparseCutoff="1.0000000000000000"/>
      <sparseX i="369" alpha="952633.72467098478" sparseCutoff="1.0000000000000000"/>
      <sparseX i="370" alpha="-10977.191315980925" sparseCutoff="1.0000000000000000"/>
      <sparseX i="371" alpha="140992.62372960924" sparseCutoff="1.0000000000000000"/>
      <sparseX i="372" alpha="922075.20453911519" sparseCutoff="1.0000000000000000"/>
      <sparseX i="373" alpha="-713999.86214507255" sparseCutoff="1.0000000000000000"/>
      <sparseX i="374" alpha="-115225.58380814377" sparseCutoff="1.0000000000000000"/>
      <sparseX i="375" alpha="195928.11468038816" sparseCutoff="1.0000000000000000"/>
      <sparseX i="376" alpha="180605.62078904384" sparseCutoff="1.0000000000000000"/>
      <sparseX i="377" alpha="-65671.714178341135" sparseCutoff="1.0000000000000000"/>
      <sparseX i="378" alpha="652405.77977053309" sparseCutoff="1.0000000000000000"/>
      <sparseX i="379" alpha="140922.61968436654" sparseCutoff="1.0000000000000000"/>
      <sparseX i="380" alpha="-132879.26432155512" sparseCutoff="1.0000000000000000"/>
      <sparseX i="381" alpha="599152.78630218259" sparseCutoff="1.0000000000000000"/>
      <sparseX i="382" alpha="124595.65693600209" sparseCutoff="1.0000000000000000"/>
      <sparseX i="383" alpha="-325228.04431025090" sparseCutoff="1.0000000000000000"/>
      <sparseX i="384" alpha="-7894.5135225699078" sparseCutoff="1.0000000000000000"/>
      <sparseX i="385" alpha="7438.0034107025431" sparseCutoff="1.0000000000000000"/>
      <sparseX i="386" alpha="-1745.4577269356157" sparseCutoff="1.0000000000000000"/>
      <sparseX i="387" alpha="-24432.441920910031" sparseCutoff="1.0000000000000000"/>
      <sparseX i="388" alpha="-185034.24110512287" sparseCutoff="1.0000000000000000"/>
      <sparseX i="389" alpha="76034.872240077690" sparseCutoff="1.0000000000000000"/>
      <sparseX i="390" alpha="-19390.664399767731" sparseCutoff="1.0000000000000000"/>
      <sparseX i="391" alpha="-209953.49528395871" sparseCutoff="1.0000000000000000"/>
      <sparseX i="392" alpha="-46769.607476481840" sparseCutoff="1.0000000000000000"/>
      <sparseX i="393" alpha="44412.728817490861" sparseCutoff="1.0000000000000000"/>
      <sparseX i="394" alpha="-102627.82091906441" sparseCutoff="1.0000000000000000"/>
      <sparseX i="395" alpha="-31732.257504302437" sparseCutoff="1.0000000000000000"/>
      <sparseX i="396" alpha="10684.312550896884" sparseCutoff="1.0000000000000000"/>
      <sparseX i="397" alpha="7450.6511359477536" sparseCutoff="1.0000000000000000"/>
      <sparseX i="398" alpha="25198.503179547177" sparseCutoff="1.0000000000000000"/>
      <sparseX i="399" alpha="-25492.567807557578" sparseCutoff="1.0000000000000000"/>
      <sparseX i="400" alpha="-7599.9248628391024" sparseCutoff="1.0000000000000000"/>
      <sparseX i="401" alpha="1125.4253150877178" sparseCutoff="1.0000000000000000"/>
      <sparseX i="402" alpha="28979.362544510950" sparseCutoff="1.0000000000000000"/>
      <sparseX i="403" alpha="34742.089616005564" sparseCutoff="1.0000000000000000"/>
      <sparseX i="404" alpha="-22102.647390756792" sparseCutoff="1.0000000000000000"/>
      <sparseX i="405" alpha="-72357.613459463668" sparseCutoff="1.0000000000000000"/>
      <sparseX i="406" alpha="12660.335430814288" sparseCutoff="1.0000000000000000"/>
      <sparseX i="407" alpha="14175.852878466127" sparseCutoff="1.0000000000000000"/>
      <sparseX i="408" alpha="-53867.004919561150" sparseCutoff="1.0000000000000000"/>
      <sparseX i="409" alpha="-5953.9220130171861" sparseCutoff="1.0000000000000000"/>
      <sparseX i="410" alpha="116859.57692771428" sparseCutoff="1.0000000000000000"/>
      <sparseX i="411" alpha="20448.828871278161" sparseCutoff="1.0000000000000000"/>
      <sparseX i="412" alpha="-3410.6587953502712" sparseCutoff="1.0000000000000000"/>
      <sparseX i="413" alpha="-13470.581853180161" sparseCutoff="1.0000000000000000"/>
      <sparseX i="414" alpha="58057.206597022909" sparseCutoff="1.0000000000000000"/>
      <sparseX i="415" alpha="-31336.231499671394" sparseCutoff="1.0000000000000000"/>
      <sparseX i="416" alpha="10091.093251882487" sparseCutoff="1.0000000000000000"/>
      <sparseX i="417" alpha="-34096.820595163925" sparseCutoff="1.0000000000000000"/>
      <sparseX i="418" alpha="-48248.238919962452" sparseCutoff="1.0000000000000000"/>
      <sparseX i="419" alpha="-1633.8265221028869" sparseCutoff="1.0000000000000000"/>
      <sparseX i="420" alpha="19838.095891587691" sparseCutoff="1.0000000000000000"/>
      <sparseX i="421" alpha="-75115.840935665547" sparseCutoff="1.0000000000000000"/>
      <sparseX i="422" alpha="-152497.90678175943" sparseCutoff="1.0000000000000000"/>
      <sparseX i="423" alpha="29621.143071738839" sparseCutoff="1.0000000000000000"/>
      <sparseX i="424" alpha="22205.002505836008" sparseCutoff="1.0000000000000000"/>
      <sparseX i="425" alpha="26468.704798473529" sparseCutoff="1.0000000000000000"/>
      <sparseX i="426" alpha="-161247.73474141053" sparseCutoff="1.0000000000000000"/>
      <sparseX i="427" alpha="-2563.0828512422381" sparseCutoff="1.0000000000000000"/>
      <sparseX i="428" alpha="5445.6851555380026" sparseCutoff="1.0000000000000000"/>
      <sparseX i="429" alpha="15146.545412589086" sparseCutoff="1.0000000000000000"/>
      <sparseX i="430" alpha="-39089.622805093313" sparseCutoff="1.0000000000000000"/>
      <sparseX i="431" alpha="48940.729112424124" sparseCutoff="1.0000000000000000"/>
      <sparseX i="432" alpha="-147308.88326133889" sparseCutoff="1.0000000000000000"/>
      <sparseX i="433" alpha="59995.567134249497" sparseCutoff="1.0000000000000000"/>
      <sparseX i="434" alpha="6637.9159388238904" sparseCutoff="1.0000000000000000"/>
      <sparseX i="435" alpha="-6102.9272140653529" sparseCutoff="1.0000000000000000"/>
      <sparseX i="436" alpha="8829.2593816165754" sparseCutoff="1.0000000000000000"/>
      <sparseX i="437" alpha="-20573.558876300882" sparseCutoff="1.0000000000000000"/>
      <sparseX i="438" alpha="-16559.694138554976" sparseCutoff="1.0000000000000000"/>
      <sparseX i="439" alpha="-28384.017740809821" sparseCutoff="1.0000000000000000"/>
      <sparseX i="440" alpha="-789157.90035369224" sparseCutoff="1.0000000000000000"/>
      <sparseX i="441" alpha="8053.4136700451081" sparseCutoff="1.0000000000000000"/>
      <sparseX i="442" alpha="-227926.76723193403" sparseCutoff="1.0000000000000000"/>
      <sparseX i="443" alpha="-2126922.1063542510" sparseCutoff="1.0000000000000000"/>
      <sparseX i="444" alpha="49271.323377365727" sparseCutoff="1.0000000000000000"/>
      <sparseX i="445" alpha="525248.83204165637" sparseCutoff="1.0000000000000000"/>
      <sparseX i="446" alpha="243813.41759884736" sparseCutoff="1.0000000000000000"/>
      <sparseX i="447" alpha="156660.78869692612" sparseCutoff="1.0000000000000000"/>
      <sparseX i="448" alpha="120174.31340555198" sparseCutoff="1.0000000000000000"/>
      <sparseX i="449" alpha="-38187.219038125826" sparseCutoff="1.0000000000000000"/>
      <sparseX i="450" alpha="455458.22151514509" sparseCutoff="1.0000000000000000"/>
      <sparseX i="451" alpha="-145075.61005887415" sparseCutoff="1.0000000000000000"/>
      <sparseX i="452" alpha="245448.27645064038" sparseCutoff="1.0000000000000000"/>
      <sparseX i="453" alpha="287577.70635261823" sparseCutoff="1.0000000000000000"/>
      <sparseX i="454" alpha="-20338.927022960510" sparseCutoff="1.0000000000000000"/>
      <sparseX i="455" alpha="13565.936475530145" sparseCutoff="1.0000000000000000"/>
      <sparseX i="456" alpha="15481.832308248411" sparseCutoff="1.0000000000000000"/>
      <sparseX i="457" alpha="-49316.981993897694" sparseCutoff="1.0000000000000000"/>
      <sparseX i="458" alpha="46344.733237875393" sparseCutoff="1.0000000000000000"/>
      <sparseX i="459" alpha="-29862.192253772559" sparseCutoff="1.0000000000000000"/>
      <sparseX i="460" alpha="35006.243504982092" sparseCutoff="1.0000000000000000"/>
      <sparseX i="461" alpha="19404.393131411704" sparseCutoff="1.0000000000000000"/>
      <sparseX i="462" alpha="-150743.06902037066" sparseCutoff="1.0000000000000000"/>
      <sparseX i="463" alpha="-3571.2470976237319" sparseCutoff="1.0000000000000000"/>
      <sparseX i="464" alpha="-8697.1119689635598" sparseCutoff="1.0000000000000000"/>
      <sparseX i="465" alpha="33272.828033778649" sparseCutoff="1.0000000000000000"/>
      <sparseX i="466" alpha="491380.29786771332" sparseCutoff="1.0000000000000000"/>
      <sparseX i="467" alpha="33985.545371814704" sparseCutoff="1.0000000000000000"/>
      <sparseX i="468" alpha="-5436.3168020943258" sparseCutoff="1.0000000000000000"/>
      <sparseX i="469" alpha="50481.877008149255" sparseCutoff="1.0000000000000000"/>
      <sparseX i="470" alpha="-88253.614700453472" sparseCutoff="1.0000000000000000"/>
      <sparseX i="471" alpha="-34076.378491122508" sparseCutoff="1.0000000000000000"/>
      <sparseX i="472" alpha="4451.5374940393185" sparseCutoff="1.0000000000000000"/>
      <sparseX i="473" alpha="-47126.260720516810" sparseCutoff="1.0000000000000000"/>
      <sparseX i="474" alpha="-12545.633943627105" sparseCutoff="1.0000000000000000"/>
      <sparseX i="475" alpha="67799.328119395490" sparseCutoff="1.0000000000000000"/>
      <sparseX i="476" alpha="-8392.3874159970965" sparseCutoff="1.0000000000000000"/>
      <sparseX i="477" alpha="11431.495726186287" sparseCutoff="1.0000000000000000"/>
      <sparseX i="478" alpha="24967.445728566083" sparseCutoff="1.0000000000000000"/>
      <sparseX i="479" alpha="-27473.850728307061" sparseCutoff="1.0000000000000000"/>
      <sparseX i="480" alpha="-214339.50404736065" sparseCutoff="1.0000000000000000"/>
      <sparseX i="481" alpha="18248.621705098478" sparseCutoff="1.0000000000000000"/>
      <sparseX i="482" alpha="4828.5372463708518" sparseCutoff="1.0000000000000000"/>
      <sparseX i="483" alpha="27324.430474266323" sparseCutoff="1.0000000000000000"/>
      <sparseX i="484" alpha="21442.198987875792" sparseCutoff="1.0000000000000000"/>
      <sparseX i="485" alpha="22697.232356688339" sparseCutoff="1.0000000000000000"/>
      <sparseX i="486" alpha="4385.8995488962282" sparseCutoff="1.0000000000000000"/>
      <sparseX i="487" alpha="-98065.047548923569" sparseCutoff="1.0000000000000000"/>
      <sparseX i="488" alpha="-143202.57121103883" sparseCutoff="1.0000000000000000"/>
      <sparseX i="489" alpha="-24846.510067341744" sparseCutoff="1.0000000000000000"/>
      <sparseX i="490" alpha="-6723.9857426136959" sparseCutoff="1.0000000000000000"/>
      <sparseX i="491" alpha="4876.1779445937791" sparseCutoff="1.0000000000000000"/>
      <sparseX i="492" alpha="85522.713897716225" sparseCutoff="1.0000000000000000"/>
      <sparseX i="493" alpha="26429.272443385064" sparseCutoff="1.0000000000000000"/>
      <sparseX i="494" alpha="-9572.2874334918415" sparseCutoff="1.0000000000000000"/>
      <sparseX i="495" alpha="11657.048055706115" sparseCutoff="1.0000000000000000"/>
      <sparseX i="496" alpha="58771.655106130900" sparseCutoff="1.0000000000000000"/>
      <sparseX i="497" alpha="-15830.319099171973" sparseCutoff="1.0000000000000000"/>
      <sparseX i="498" alpha="-14268.451725678138" sparseCutoff="1.0000000000000000"/>
      <sparseX i="499" alpha="-39374.860209937673" sparseCutoff="1.0000000000000000"/>
      <sparseX i="500" alpha="-128458.59224923309" sparseCutoff="1.0000000000000000"/>
      <sparseX i="501" alpha="-70703.093208077626" sparseCutoff="1.0000000000000000"/>
      <sparseX i="502" alpha="-73850.544335694256" sparseCutoff="1.0000000000000000"/>
      <sparseX i="503" alpha="45407.841923459884" sparseCutoff="1.0000000000000000"/>
      <sparseX i="504" alpha="-79322.295420622293" sparseCutoff="1.0000000000000000"/>
      <sparseX i="505" alpha="-51102.441237415267" sparseCutoff="1.0000000000000000"/>
      <sparseX i="506" alpha="109362.29469883254" sparseCutoff="1.0000000000000000"/>
      <sparseX i="507" alpha="-33198.264185538603" sparseCutoff="1.0000000000000000"/>
      <sparseX i="508" alpha="-424833.79463396658" sparseCutoff="1.0000000000000000"/>
      <sparseX i="509" alpha="230297.91956250463" sparseCutoff="1.0000000000000000"/>
      <sparseX i="510" alpha="-148105.19767267871" sparseCutoff="1.0000000000000000"/>
      <sparseX i="511" alpha="-431035.53030934598" sparseCutoff="1.0000000000000000"/>
      <sparseX i="512" alpha="-921917.59752090368" sparseCutoff="1.0000000000000000"/>
      <sparseX i="513" alpha="79156.727724866520" sparseCutoff="1.0000000000000000"/>
      <sparseX i="514" alpha="153413.90676212872" sparseCutoff="1.0000000000000000"/>
      <sparseX i="515" alpha="-342390.55511319975" sparseCutoff="1.0000000000000000"/>
      <sparseX i="516" alpha="-59769.769538371598" sparseCutoff="1.0000000000000000"/>
      <sparseX i="517" alpha="-16149.193178028043" sparseCutoff="1.0000000000000000"/>
      <sparseX i="518" alpha="496758.25201553712" sparseCutoff="1.0000000000000000"/>
      <sparseX i="519" alpha="371158.48708461004" sparseCutoff="1.0000000000000000"/>
      <sparseX i="520" alpha="-552798.02015796769" sparseCutoff="1.0000000000000000"/>
      <sparseX i="521" alpha="-346269.48005231278" sparseCutoff="1.0000000000000000"/>
      <sparseX i="522" alpha="-246782.82132583598" sparseCutoff="1.0000000000000000"/>
      <sparseX i="523" alpha="318429.64793776954" sparseCutoff="1.0000000000000000"/>
      <sparseX i="524" alpha="134394.57290859727" sparseCutoff="1.0000000000000000"/>
      <sparseX i="525" alpha="278433.95369002805" sparseCutoff="1.0000000000000000"/>
      <sparseX i="526" alpha="-191511.76956896234" sparseCutoff="1.0000000000000000"/>
      <sparseX i="527" alpha="-636383.95008726406" sparseCutoff="1.0000000000000000"/>
      <sparseX i="528" alpha="-102998.18863061255" sparseCutoff="1.0000000000000000"/>
      <sparseX i="529" alpha="161154.29012049746" sparseCutoff="1.0000000000000000"/>
      <sparseX i="530" alpha="239884.72745749296" sparseCutoff="1.0000000000000000"/>
      <sparseX i="531" alpha="121432.58534019710" sparseCutoff="1.0000000000000000"/>
      <sparseX i="532" alpha="-195187.67121890205" sparseCutoff="1.0000000000000000"/>
      <sparseX i="533" alpha="-325238.48548031069" sparseCutoff="1.0000000000000000"/>
      <sparseX i="534" alpha="-357186.66812859068" sparseCutoff="1.0000000000000000"/>
      <sparseX i="535" alpha="-660298.63180598232" sparseCutoff="1.0000000000000000"/>
      <sparseX i="536" alpha="6356.7125499661333" sparseCutoff="1.0000000000000000"/>
      <sparseX i="537" alpha="60836.566268689829" sparseCutoff="1.0000000000000000"/>
      <sparseX i="538" alpha="238300.20122807613" sparseCutoff="1.0000000000000000"/>
      <sparseX i="539" alpha="-1031203.2141192111" sparseCutoff="1.0000000000000000"/>
      <sparseX i="540" alpha="392115.76840311888" sparseCutoff="1.0000000000000000"/>
      <sparseX i="541" alpha="7073.6910381568805" sparseCutoff="1.0000000000000000"/>
      <sparseX i="542" alpha="528936.57625833084" sparseCutoff="1.0000000000000000"/>
      <sparseX i="543" alpha="-430368.54262353573" sparseCutoff="1.0000000000000000"/>
      <sparseX i="544" alpha="-217361.42616845481" sparseCutoff="1.0000000000000000"/>
      <sparseX i="545" alpha="-155691.14548992016" sparseCutoff="1.0000000000000000"/>
      <sparseX i="546" alpha="-812714.87921388284" sparseCutoff="1.0000000000000000"/>
      <sparseX i="547" alpha="-233183.83372908467" sparseCutoff="1.0000000000000000"/>
      <sparseX i="548" alpha="258279.47778291241" sparseCutoff="1.0000000000000000"/>
      <sparseX i="549" alpha="684831.72738684388" sparseCutoff="1.0000000000000000"/>
      <sparseX i="550" alpha="80418.487170847467" sparseCutoff="1.0000000000000000"/>
      <sparseX i="551" alpha="12044.832465020541" sparseCutoff="1.0000000000000000"/>
      <sparseX i="552" alpha="187981.93963209516" sparseCutoff="1.0000000000000000"/>
      <sparseX i="553" alpha="38410.173578938804" sparseCutoff="1.0000000000000000"/>
      <sparseX i="554" alpha="263680.66849234572" sparseCutoff="1.0000000000000000"/>
      <sparseX i="555" alpha="-10275.277470731209" sparseCutoff="1.0000000000000000"/>
      <sparseX i="556" alpha="-74058.185649960331" sparseCutoff="1.0000000000000000"/>
      <sparseX i="557" alpha="-9314.3890877918366" sparseCutoff="1.0000000000000000"/>
      <sparseX i="558" alpha="-73256.141726501213" sparseCutoff="1.0000000000000000"/>
      <sparseX i="559" alpha="-219392.70100794153" sparseCutoff="1.0000000000000000"/>
      <sparseX i="560" alpha="237127.72521000382" sparseCutoff="1.0000000000000000"/>
      <sparseX i="561" alpha="-260882.77687002468" sparseCutoff="1.0000000000000000"/>
      <sparseX i="562" alpha="79338.247057066939" sparseCutoff="1.0000000000000000"/>
      <sparseX i="563" alpha="33244.933791070274" sparseCutoff="1.0000000000000000"/>
      <sparseX i="564" alpha="-184070.09510331298" sparseCutoff="1.0000000000000000"/>
      <sparseX i="565" alpha="82244.594201038504" sparseCutoff="1.0000000000000000"/>
      <sparseX i="566" alpha="-197839.98946739765" sparseCutoff="1.0000000000000000"/>
      <sparseX i="567" alpha="871417.80271871667" sparseCutoff="1.0000000000000000"/>
      <sparseX i="568" alpha="69125.068064640102" sparseCutoff="1.0000000000000000"/>
      <sparseX i="569" alpha="5629.4705583459317" sparseCutoff="1.0000000000000000"/>
      <sparseX i="570" alpha="-211753.09239223198" sparseCutoff="1.0000000000000000"/>
      <sparseX i="571" alpha="121739.46637378825" sparseCutoff="1.0000000000000000"/>
      <sparseX i="572" alpha="-271849.25961719517" sparseCutoff="1.0000000000000000"/>
      <sparseX i="573" alpha="1190186.7089262495" sparseCutoff="1.0000000000000000"/>
      <sparseX i="574" alpha="15829.162260086627" sparseCutoff="1.0000000000000000"/>
      <sparseX i="575" alpha="-323768.11408611992" sparseCutoff="1.0000000000000000"/>
      <sparseX i="576" alpha="-182107.74832369285" sparseCutoff="1.0000000000000000"/>
      <sparseX i="577" alpha="-39026.196263995480" sparseCutoff="1.0000000000000000"/>
      <sparseX i="578" alpha="49318.643297378141" sparseCutoff="1.0000000000000000"/>
      <sparseX i="579" alpha="239757.95775685069" sparseCutoff="1.0000000000000000"/>
      <sparseX i="580" alpha="-46847.620396591192" sparseCutoff="1.0000000000000000"/>
      <sparseX i="581" alpha="379338.49961148063" sparseCutoff="1.0000000000000000"/>
      <sparseX i="582" alpha="96323.505537488527" sparseCutoff="1.0000000000000000"/>
      <sparseX i="583" alpha="76184.716749185391" sparseCutoff="1.0000000000000000"/>
      <sparseX i="584" alpha="113578.89746947651" sparseCutoff="1.0000000000000000"/>
      <sparseX i="585" alpha="87387.776650334883" sparseCutoff="1.0000000000000000"/>
      <sparseX i="586" alpha="84464.065450125403" sparseCutoff="1.0000000000000000"/>
      <sparseX i="587" alpha="112955.96543579751" sparseCutoff="1.0000000000000000"/>
      <sparseX i="588" alpha="-191970.63033556647" sparseCutoff="1.0000000000000000"/>
      <sparseX i="589" alpha="-9331.7795742936596" sparseCutoff="1.0000000000000000"/>
      <sparseX i="590" alpha="86939.089629288210" sparseCutoff="1.0000000000000000"/>
      <sparseX i="591" alpha="103798.47871112147" sparseCutoff="1.0000000000000000"/>
      <sparseX i="592" alpha="-58198.860408646411" sparseCutoff="1.0000000000000000"/>
      <sparseX i="593" alpha="222314.32004296890" sparseCutoff="1.0000000000000000"/>
      <sparseX i="594" alpha="-625380.44338351034" sparseCutoff="1.0000000000000000"/>
      <sparseX i="595" alpha="108953.94854856774" sparseCutoff="1.0000000000000000"/>
      <sparseX i="596" alpha="-305121.23981493607" sparseCutoff="1.0000000000000000"/>
      <sparseX i="597" alpha="-37728.969355879155" sparseCutoff="1.0000000000000000"/>
      <sparseX i="598" alpha="-91422.430067916124" sparseCutoff="1.0000000000000000"/>
      <sparseX i="599" alpha="89431.153595751239" sparseCutoff="1.0000000000000000"/>
      <sparseX i="600" alpha="22326.892671697002" sparseCutoff="1.0000000000000000"/>
      <sparseX i="601" alpha="79069.198031502281" sparseCutoff="1.0000000000000000"/>
      <sparseX i="602" alpha="11512.342552019505" sparseCutoff="1.0000000000000000"/>
      <sparseX i="603" alpha="-93016.191805491006" sparseCutoff="1.0000000000000000"/>
      <sparseX i="604" alpha="214548.51642345396" sparseCutoff="1.0000000000000000"/>
      <sparseX i="605" alpha="149329.52150667048" sparseCutoff="1.0000000000000000"/>
      <sparseX i="606" alpha="2364.3804205725223" sparseCutoff="1.0000000000000000"/>
      <sparseX i="607" alpha="217045.35064805360" sparseCutoff="1.0000000000000000"/>
      <sparseX i="608" alpha="-68373.306881190394" sparseCutoff="1.0000000000000000"/>
      <sparseX i="609" alpha="105482.08669647422" sparseCutoff="1.0000000000000000"/>
      <sparseX i="610" alpha="97173.536576463142" sparseCutoff="1.0000000000000000"/>
      <sparseX i="611" alpha="-158914.89531502532" sparseCutoff="1.0000000000000000"/>
      <sparseX i="612" alpha="105492.40800093823" sparseCutoff="1.0000000000000000"/>
      <sparseX i="613" alpha="17831.377207851794" sparseCutoff="1.0000000000000000"/>
      <sparseX i="614" alpha="122563.48060558608" sparseCutoff="1.0000000000000000"/>
      <sparseX i="615" alpha="-14276.869717530417" sparseCutoff="1.0000000000000000"/>
      <sparseX i="616" alpha="120510.44667225950" sparseCutoff="1.0000000000000000"/>
      <sparseX i="617" alpha="-42257.861009454675" sparseCutoff="1.0000000000000000"/>
      <sparseX i="618" alpha="-2068.2085854982447" sparseCutoff="1.0000000000000000"/>
      <sparseX i="619" alpha="-18553.644941528531" sparseCutoff="1.0000000000000000"/>
      <sparseX i="620" alpha="-157829.10454583325" sparseCutoff="1.0000000000000000"/>
      <sparseX i="621" alpha="136436.49941530728" sparseCutoff="1.0000000000000000"/>
      <sparseX i="622" alpha="-129092.13546871443" sparseCutoff="1.0000000000000000"/>
      <sparseX i="623" alpha="-37807.527886256488" sparseCutoff="1.0000000000000000"/>
      <sparseX i="624" alpha="37757.010437086465" sparseCutoff="1.0000000000000000"/>
      <sparseX i="625" alpha="91060.711061342488" sparseCutoff="1.0000000000000000"/>
      <sparseX i="626" alpha="-297022.16952887684" sparseCutoff="1.0000000000000000"/>
      <sparseX i="627" alpha="-127262.31028139534" sparseCutoff="1.0000000000000000"/>
      <sparseX i="628" alpha="108052.05416045617" sparseCutoff="1.0000000000000000"/>
      <sparseX i="629" alpha="-880013.99451384600" sparseCutoff="1.0000000000000000"/>
      <sparseX i="630" alpha="-135976.86726942300" sparseCutoff="1.0000000000000000"/>
      <sparseX i="631" alpha="415068.17648389062" sparseCutoff="1.0000000000000000"/>
      <sparseX i="632" alpha="27442.803874145360" sparseCutoff="1.0000000000000000"/>
      <sparseX i="633" alpha="-367435.97620380239" sparseCutoff="1.0000000000000000"/>
      <sparseX i="634" alpha="61810.365560458587" sparseCutoff="1.0000000000000000"/>
      <sparseX i="635" alpha="-49826.588066550648" sparseCutoff="1.0000000000000000"/>
      <sparseX i="636" alpha="93660.963720643354" sparseCutoff="1.0000000000000000"/>
      <sparseX i="637" alpha="-324396.45626432035" sparseCutoff="1.0000000000000000"/>
      <sparseX i="638" alpha="-54424.794718444798" sparseCutoff="1.0000000000000000"/>
      <sparseX i="639" alpha="283462.38433643966" sparseCutoff="1.0000000000000000"/>
      <sparseX i="640" alpha="-185135.24081406431" sparseCutoff="1.0000000000000000"/>
      <sparseX i="641" alpha="-78136.981935339703" sparseCutoff="1.0000000000000000"/>
      <sparseX i="642" alpha="-211785.17115984976" sparseCutoff="1.0000000000000000"/>
      <sparseX i="643" alpha="-365683.19801026920" sparseCutoff="1.0000000000000000"/>
      <sparseX i="644" alpha="-15010.866186857780" sparseCutoff="1.0000000000000000"/>
      <sparseX i="645" alpha="-90234.646827307428" sparseCutoff="1.0000000000000000"/>
      <sparseX i="646" alpha="43375.420286410728" sparseCutoff="1.0000000000000000"/>
      <sparseX i="647" alpha="114203.39189174873" sparseCutoff="1.0000000000000000"/>
      <sparseX i="648" alpha="-160276.85895579305" sparseCutoff="1.0000000000000000"/>
      <sparseX i="649" alpha="234715.31541353717" sparseCutoff="1.0000000000000000"/>
      <sparseX i="650" alpha="-284676.92216660985" sparseCutoff="1.0000000000000000"/>
      <sparseX i="651" alpha="-37314.789545766005" sparseCutoff="1.0000000000000000"/>
      <sparseX i="652" alpha="56585.257553377523" sparseCutoff="1.0000000000000000"/>
      <sparseX i="653" alpha="65133.744586452623" sparseCutoff="1.0000000000000000"/>
      <sparseX i="654" alpha="59835.675551284898" sparseCutoff="1.0000000000000000"/>
      <sparseX i="655" alpha="423541.11631746223" sparseCutoff="1.0000000000000000"/>
      <sparseX i="656" alpha="-35955.369370466542" sparseCutoff="1.0000000000000000"/>
      <sparseX i="657" alpha="278695.16268573038" sparseCutoff="1.0000000000000000"/>
      <sparseX i="658" alpha="2689.3715991862623" sparseCutoff="1.0000000000000000"/>
      <sparseX i="659" alpha="24713.628038558087" sparseCutoff="1.0000000000000000"/>
      <sparseX i="660" alpha="-148634.26704705178" sparseCutoff="1.0000000000000000"/>
      <sparseX i="661" alpha="-146261.42662325394" sparseCutoff="1.0000000000000000"/>
      <sparseX i="662" alpha="-14241.745857137734" sparseCutoff="1.0000000000000000"/>
      <sparseX i="663" alpha="34647.823214109689" sparseCutoff="1.0000000000000000"/>
      <sparseX i="664" alpha="450840.30756333575" sparseCutoff="1.0000000000000000"/>
      <sparseX i="665" alpha="-106223.80394284251" sparseCutoff="1.0000000000000000"/>
      <sparseX i="666" alpha="-100181.80421998569" sparseCutoff="1.0000000000000000"/>
      <sparseX i="667" alpha="86525.028341047800" sparseCutoff="1.0000000000000000"/>
      <sparseX i="668" alpha="-326161.75346190709" sparseCutoff="1.0000000000000000"/>
      <sparseX i="669" alpha="1540396.6633613489" sparseCutoff="1.0000000000000000"/>
      <sparseX i="670" alpha="150996.27124058385" sparseCutoff="1.0000000000000000"/>
      <sparseX i="671" alpha="-15441.913884483651" sparseCutoff="1.0000000000000000"/>
      <sparseX i="672" alpha="308509.93612570729" sparseCutoff="1.0000000000000000"/>
      <sparseX i="673" alpha="159836.11371519201" sparseCutoff="1.0000000000000000"/>
      <sparseX i="674" alpha="-124042.79552592954" sparseCutoff="1.0000000000000000"/>
      <sparseX i="675" alpha="58742.473794897131" sparseCutoff="1.0000000000000000"/>
      <sparseX i="676" alpha="305106.41341464361" sparseCutoff="1.0000000000000000"/>
      <sparseX i="677" alpha="8742.0596403221061" sparseCutoff="1.0000000000000000"/>
      <sparseX i="678" alpha="-23725.598882909140" sparseCutoff="1.0000000000000000"/>
      <sparseX i="679" alpha="-151539.39406447363" sparseCutoff="1.0000000000000000"/>
      <sparseX i="680" alpha="-89046.695950155743" sparseCutoff="1.0000000000000000"/>
      <sparseX i="681" alpha="180631.88780744566" sparseCutoff="1.0000000000000000"/>
      <sparseX i="682" alpha="-215857.42733286659" sparseCutoff="1.0000000000000000"/>
      <sparseX i="683" alpha="-400643.79531134659" sparseCutoff="1.0000000000000000"/>
      <sparseX i="684" alpha="-122775.31349770150" sparseCutoff="1.0000000000000000"/>
      <sparseX i="685" alpha="74931.866360659464" sparseCutoff="1.0000000000000000"/>
      <sparseX i="686" alpha="322409.71669517428" sparseCutoff="1.0000000000000000"/>
      <sparseX i="687" alpha="145983.26648369018" sparseCutoff="1.0000000000000000"/>
      <sparseX i="688" alpha="-163816.98451182383" sparseCutoff="1.0000000000000000"/>
      <sparseX i="689" alpha="-143507.15715975643" sparseCutoff="1.0000000000000000"/>
      <sparseX i="690" alpha="-413921.87640809501" sparseCutoff="1.0000000000000000"/>
      <sparseX i="691" alpha="-144066.86857373393" sparseCutoff="1.0000000000000000"/>
      <sparseX i="692" alpha="-586167.22622835776" sparseCutoff="1.0000000000000000"/>
      <sparseX i="693" alpha="-2685975.9208202730" sparseCutoff="1.0000000000000000"/>
      <sparseX i="694" alpha="-309371.83780358901" sparseCutoff="1.0000000000000000"/>
      <sparseX i="695" alpha="262941.00740035227" sparseCutoff="1.0000000000000000"/>
      <sparseX i="696" alpha="95521.426050065216" sparseCutoff="1.0000000000000000"/>
      <sparseX i="697" alpha="70499.974494998780" sparseCutoff="1.0000000000000000"/>
      <sparseX i="698" alpha="269810.04354738496" sparseCutoff="1.0000000000000000"/>
      <sparseX i="699" alpha="-457816.65481070802" sparseCutoff="1.0000000000000000"/>
      <sparseX i="700" alpha="-47486.590991730729" sparseCutoff="1.0000000000000000"/>
      <sparseX i="701" alpha="-629025.64144650707" sparseCutoff="1.0000000000000000"/>
      <sparseX i="702" alpha="268415.96198705275" sparseCutoff="1.0000000000000000"/>
      <sparseX i="703" alpha="35817.433711143683" sparseCutoff="1.0000000000000000"/>
      <sparseX i="704" alpha="-142664.76370604403" sparseCutoff="1.0000000000000000"/>
      <sparseX i="705" alpha="-251112.48364392051" sparseCutoff="1.0000000000000000"/>
      <sparseX i="706" alpha="-50408.926771096085" sparseCutoff="1.0000000000000000"/>
      <sparseX i="707" alpha="8446.3712457156362" sparseCutoff="1.0000000000000000"/>
      <sparseX i="708" alpha="50401.103229203778" sparseCutoff="1.0000000000000000"/>
      <sparseX i="709" alpha="-390053.63193341397" sparseCutoff="1.0000000000000000"/>
      <sparseX i="710" alpha="-41538.306789633032" sparseCutoff="1.0000000000000000"/>
      <sparseX i="711" alpha="-257548.03155232177" sparseCutoff="1.0000000000000000"/>
      <sparseX i="712" alpha="-1026608.0648650011" sparseCutoff="1.0000000000000000"/>
      <sparseX i="713" alpha="349005.90959969797" sparseCutoff="1.0000000000000000"/>
      <sparseX i="714" alpha="-543232.04291841295" sparseCutoff="1.0000000000000000"/>
      <sparseX i="715" alpha="155831.11675955111" sparseCutoff="1.0000000000000000"/>
      <sparseX i="716" alpha="89185.263266212118" sparseCutoff="1.0000000000000000"/>
      <sparseX i="717" alpha="36697.304505082117" sparseCutoff="1.0000000000000000"/>
      <sparseX i="718" alpha="-76469.512417201418" sparseCutoff="1.0000000000000000"/>
      <sparseX i="719" alpha="24741.640360283847" sparseCutoff="1.0000000000000000"/>
      <sparseX i="720" alpha="1234949.9629175358" sparseCutoff="1.0000000000000000"/>
      <sparseX i="721" alpha="35741.546458632823" sparseCutoff="1.0000000000000000"/>
      <sparseX i="722" alpha="-150230.93550520326" sparseCutoff="1.0000000000000000"/>
      <sparseX i="723" alpha="18927.034565158472" sparseCutoff="1.0000000000000000"/>
      <sparseX i="724" alpha="129449.29885175551" sparseCutoff="1.0000000000000000"/>
      <sparseX i="725" alpha="-43195.042581912712" sparseCutoff="1.0000000000000000"/>
      <sparseX i="726" alpha="-249412.69005079308" sparseCutoff="1.0000000000000000"/>
      <sparseX i="727" alpha="226493.28179198434" sparseCutoff="1.0000000000000000"/>
      <sparseX i="728" alpha="-34460.455199717828" sparseCutoff="1.0000000000000000"/>
      <sparseX i="729" alpha="-159941.93376412906" sparseCutoff="1.0000000000000000"/>
      <sparseX i="730" alpha="-97707.899985990516" sparseCutoff="1.0000000000000000"/>
      <sparseX i="731" alpha="149133.20956742440" sparseCutoff="1.0000000000000000"/>
      <sparseX i="732" alpha="-331207.62173683714" sparseCutoff="1.0000000000000000"/>
      <sparseX i="733" alpha="103643.40550804496" sparseCutoff="1.0000000000000000"/>
      <sparseX i="734" alpha="-88001.379886561728" sparseCutoff="1.0000000000000000"/>
      <sparseX i="735" alpha="1462959.9435557348" sparseCutoff="1.0000000000000000"/>
      <sparseX i="736" alpha="-267797.83418090054" sparseCutoff="1.0000000000000000"/>
      <sparseX i="737" alpha="235826.57945709079" sparseCutoff="1.0000000000000000"/>
      <sparseX i="738" alpha="191998.87959240586" sparseCutoff="1.0000000000000000"/>
      <sparseX i="739" alpha="127824.78904591729" sparseCutoff="1.0000000000000000"/>
      <sparseX i="740" alpha="-139963.17886171816" sparseCutoff="1.0000000000000000"/>
      <sparseX i="741" alpha="-33475.012945961396" sparseCutoff="1.0000000000000000"/>
      <sparseX i="742" alpha="689077.97609195428" sparseCutoff="1.0000000000000000"/>
      <sparseX i="743" alpha="-675524.84157734772" sparseCutoff="1.0000000000000000"/>
      <sparseX i="744" alpha="145630.12226589705" sparseCutoff="1.0000000000000000"/>
      <sparseX i="745" alpha="129993.01473800643" sparseCutoff="1.0000000000000000"/>
      <sparseX i="746" alpha="-116270.58361324627" sparseCutoff="1.0000000000000000"/>
      <sparseX i="747" alpha="-310072.31496123580" sparseCutoff="1.0000000000000000"/>
      <sparseX i="748" alpha="20999.773446155807" sparseCutoff="1.0000000000000000"/>
      <sparseX i="749" alpha="-102405.22639212012" sparseCutoff="1.0000000000000000"/>
      <sparseX i="750" alpha="544267.26141986554" sparseCutoff="1.0000000000000000"/>
      <sparseX i="751" alpha="151633.74830964816" sparseCutoff="1.0000000000000000"/>
      <sparseX i="752" alpha="-304407.97422484128" sparseCutoff="1.0000000000000000"/>
      <sparseX i="753" alpha="275592.98250245932" sparseCutoff="1.0000000000000000"/>
      <sparseX i="754" alpha="646115.56195496279" sparseCutoff="1.0000000000000000"/>
      <sparseX i="755" alpha="-458501.41830716038" sparseCutoff="1.0000000000000000"/>
      <sparseX i="756" alpha="948396.44554536184" sparseCutoff="1.0000000000000000"/>
      <sparseX i="757" alpha="-124252.93261405696" sparseCutoff="1.0000000000000000"/>
      <sparseX i="758" alpha="610845.78635232267" sparseCutoff="1.0000000000000000"/>
      <sparseX i="759" alpha="335057.92392398993" sparseCutoff="1.0000000000000000"/>
      <sparseX i="760" alpha="-413634.69494734862" sparseCutoff="1.0000000000000000"/>
      <sparseX i="761" alpha="985150.60861890623" sparseCutoff="1.0000000000000000"/>
      <sparseX i="762" alpha="-1155331.5333869900" sparseCutoff="1.0000000000000000"/>
      <sparseX i="763" alpha="718519.18543645286" sparseCutoff="1.0000000000000000"/>
      <sparseX i="764" alpha="90579.474228915264" sparseCutoff="1.0000000000000000"/>
      <sparseX i="765" alpha="-1102861.7492448583" sparseCutoff="1.0000000000000000"/>
      <sparseX i="766" alpha="-74316.048024881413" sparseCutoff="1.0000000000000000"/>
      <sparseX i="767" alpha="108868.87700065436" sparseCutoff="1.0000000000000000"/>
      <sparseX i="768" alpha="175662.81520219706" sparseCutoff="1.0000000000000000"/>
      <sparseX i="769" alpha="1111594.9618015194" sparseCutoff="1.0000000000000000"/>
      <sparseX i="770" alpha="51487.572051435192" sparseCutoff="1.0000000000000000"/>
      <sparseX i="771" alpha="-934178.92172762635" sparseCutoff="1.0000000000000000"/>
      <sparseX i="772" alpha="165848.80904700002" sparseCutoff="1.0000000000000000"/>
      <sparseX i="773" alpha="-9685.3908496233944" sparseCutoff="1.0000000000000000"/>
      <sparseX i="774" alpha="242165.33405716071" sparseCutoff="1.0000000000000000"/>
      <sparseX i="775" alpha="-71490.937152197526" sparseCutoff="1.0000000000000000"/>
      <sparseX i="776" alpha="-441000.92099390260" sparseCutoff="1.0000000000000000"/>
      <sparseX i="777" alpha="4894.0790851330657" sparseCutoff="1.0000000000000000"/>
      <sparseX i="778" alpha="674396.98713357304" sparseCutoff="1.0000000000000000"/>
      <sparseX i="779" alpha="38849.816965408936" sparseCutoff="1.0000000000000000"/>
      <sparseX i="780" alpha="36473.466036414298" sparseCutoff="1.0000000000000000"/>
      <sparseX i="781" alpha="-39183.182270740806" sparseCutoff="1.0000000000000000"/>
      <sparseX i="782" alpha="13448.539871139765" sparseCutoff="1.0000000000000000"/>
      <sparseX i="783" alpha="238566.32670105170" sparseCutoff="1.0000000000000000"/>
      <sparseX i="784" alpha="-132936.74318014714" sparseCutoff="1.0000000000000000"/>
      <sparseX i="785" alpha="-15034.478599994707" sparseCutoff="1.0000000000000000"/>
      <sparseX i="786" alpha="43907.234116660031" sparseCutoff="1.0000000000000000"/>
      <sparseX i="787" alpha="-44515.274800048785" sparseCutoff="1.0000000000000000"/>
      <sparseX i="788" alpha="-26756.107172585660" sparseCutoff="1.0000000000000000"/>
      <sparseX i="789" alpha="73596.579713210856" sparseCutoff="1.0000000000000000"/>
      <sparseX i="790" alpha="-48771.987805590477" sparseCutoff="1.0000000000000000"/>
      <sparseX i="791" alpha="55368.719095115492" sparseCutoff="1.0000000000000000"/>
      <sparseX i="792" alpha="236964.34952918268" sparseCutoff="1.0000000000000000"/>
      <sparseX i="793" alpha="-22889.073162329129" sparseCutoff="1.0000000000000000"/>
      <sparseX i="794" alpha="-164529.23293285561" sparseCutoff="1.0000000000000000"/>
      <sparseX i="795" alpha="-77309.512920822977" sparseCutoff="1.0000000000000000"/>
      <sparseX i="796" alpha="-3252.2649005232570" sparseCutoff="1.0000000000000000"/>
      <sparseX i="797" alpha="-39860.845256221255" sparseCutoff="1.0000000000000000"/>
      <sparseX i="798" alpha="-10993.592490392562" sparseCutoff="1.0000000000000000"/>
      <sparseX i="799" alpha="-38765.308837097735" sparseCutoff="1.0000000000000000"/>
      <sparseX i="800" alpha="160772.24043913255" sparseCutoff="1.0000000000000000"/>
      <sparseX i="801" alpha="-103609.80530432065" sparseCutoff="1.0000000000000000"/>
      <sparseX i="802" alpha="28494.886972474498" sparseCutoff="1.0000000000000000"/>
      <sparseX i="803" alpha="-13.822264437303240" sparseCutoff="1.0000000000000000"/>
      <sparseX i="804" alpha="121022.61751241937" sparseCutoff="1.0000000000000000"/>
      <sparseX i="805" alpha="-1447535.5216547991" sparseCutoff="1.0000000000000000"/>
      <sparseX i="806" alpha="-63762.097426215943" sparseCutoff="1.0000000000000000"/>
      <sparseX i="807" alpha="2002650.1572888086" sparseCutoff="1.0000000000000000"/>
      <sparseX i="808" alpha="20360.834640816862" sparseCutoff="1.0000000000000000"/>
      <sparseX i="809" alpha="100615.99663133985" sparseCutoff="1.0000000000000000"/>
      <sparseX i="810" alpha="-62244.469108365527" sparseCutoff="1.0000000000000000"/>
      <sparseX i="811" alpha="-23805.615198336949" sparseCutoff="1.0000000000000000"/>
      <sparseX i="812" alpha="131803.58138607143" sparseCutoff="1.0000000000000000"/>
      <sparseX i="813" alpha="267143.62832698552" sparseCutoff="1.0000000000000000"/>
      <sparseX i="814" alpha="-206322.00269713468" sparseCutoff="1.0000000000000000"/>
      <sparseX i="815" alpha="-132925.21857763539" sparseCutoff="1.0000000000000000"/>
      <sparseX i="816" alpha="407178.63266296103" sparseCutoff="1.0000000000000000"/>
      <sparseX i="817" alpha="239479.15358522197" sparseCutoff="1.0000000000000000"/>
      <sparseX i="818" alpha="-190642.65950291205" sparseCutoff="1.0000000000000000"/>
      <sparseX i="819" alpha="31364.090590190634" sparseCutoff="1.0000000000000000"/>
      <sparseX i="820" alpha="198155.43746617710" sparseCutoff="1.0000000000000000"/>
      <sparseX i="821" alpha="-157431.21272829469" sparseCutoff="1.0000000000000000"/>
      <sparseX i="822" alpha="319912.24487413827" sparseCutoff="1.0000000000000000"/>
      <sparseX i="823" alpha="-574476.91452492040" sparseCutoff="1.0000000000000000"/>
      <sparseX i="824" alpha="-31984.558656772828" sparseCutoff="1.0000000000000000"/>
      <sparseX i="825" alpha="100841.43632849715" sparseCutoff="1.0000000000000000"/>
      <sparseX i="826" alpha="51535.294765977640" sparseCutoff="1.0000000000000000"/>
      <sparseX i="827" alpha="-101099.91208065764" sparseCutoff="1.0000000000000000"/>
      <sparseX i="828" alpha="-26972.846121528135" sparseCutoff="1.0000000000000000"/>
      <sparseX i="829" alpha="86967.839192775209" sparseCutoff="1.0000000000000000"/>
      <sparseX i="830" alpha="26763.936848043366" sparseCutoff="1.0000000000000000"/>
      <sparseX i="831" alpha="-24371.139492257171" sparseCutoff="1.0000000000000000"/>
      <sparseX i="832" alpha="-186073.53747576059" sparseCutoff="1.0000000000000000"/>
      <sparseX i="833" alpha="43669.690253877212" sparseCutoff="1.0000000000000000"/>
      <sparseX i="834" alpha="135388.09555359907" sparseCutoff="1.0000000000000000"/>
      <sparseX i="835" alpha="-332942.24270772317" sparseCutoff="1.0000000000000000"/>
      <sparseX i="836" alpha="53754.202851877293" sparseCutoff="1.0000000000000000"/>
      <sparseX i="837" alpha="-24304.334770171652" sparseCutoff="1.0000000000000000"/>
      <sparseX i="838" alpha="131729.93836752311" sparseCutoff="1.0000000000000000"/>
      <sparseX i="839" alpha="-127823.73449894035" sparseCutoff="1.0000000000000000"/>
      <sparseX i="840" alpha="-9365.2677028850358" sparseCutoff="1.0000000000000000"/>
      <sparseX i="841" alpha="-75743.979767210170" sparseCutoff="1.0000000000000000"/>
      <sparseX i="842" alpha="650113.19301825028" sparseCutoff="1.0000000000000000"/>
      <sparseX i="843" alpha="18002.547420066217" sparseCutoff="1.0000000000000000"/>
      <sparseX i="844" alpha="-128366.70674788543" sparseCutoff="1.0000000000000000"/>
      <sparseX i="845" alpha="65861.729965521808" sparseCutoff="1.0000000000000000"/>
      <sparseX i="846" alpha="-80140.602670225082" sparseCutoff="1.0000000000000000"/>
      <sparseX i="847" alpha="-17185.339379288842" sparseCutoff="1.0000000000000000"/>
      <sparseX i="848" alpha="-163508.53376212993" sparseCutoff="1.0000000000000000"/>
      <sparseX i="849" alpha="-30973.791910577409" sparseCutoff="1.0000000000000000"/>
      <sparseX i="850" alpha="-496113.53472221270" sparseCutoff="1.0000000000000000"/>
      <sparseX i="851" alpha="-17645.312028440760" sparseCutoff="1.0000000000000000"/>
      <sparseX i="852" alpha="-45518.204232101205" sparseCutoff="1.0000000000000000"/>
      <sparseX i="853" alpha="25275.091113065668" sparseCutoff="1.0000000000000000"/>
      <sparseX i="854" alpha="-248397.26188116148" sparseCutoff="1.0000000000000000"/>
      <sparseX i="855" alpha="80681.290056975224" sparseCutoff="1.0000000000000000"/>
      <sparseX i="856" alpha="-113806.83767130499" sparseCutoff="1.0000000000000000"/>
      <sparseX i="857" alpha="-45332.894675768825" sparseCutoff="1.0000000000000000"/>
      <sparseX i="858" alpha="-132231.76094469096" sparseCutoff="1.0000000000000000"/>
      <sparseX i="859" alpha="58561.395552197835" sparseCutoff="1.0000000000000000"/>
      <sparseX i="860" alpha="-26475.557686208092" sparseCutoff="1.0000000000000000"/>
      <sparseX i="861" alpha="132105.81199196927" sparseCutoff="1.0000000000000000"/>
      <sparseX i="862" alpha="-39781.133308384349" sparseCutoff="1.0000000000000000"/>
      <sparseX i="863" alpha="272596.28860165691" sparseCutoff="1.0000000000000000"/>
      <sparseX i="864" alpha="12552.555090900558" sparseCutoff="1.0000000000000000"/>
      <sparseX i="865" alpha="-16866.645635347624" sparseCutoff="1.0000000000000000"/>
      <sparseX i="866" alpha="20785.904562603046" sparseCutoff="1.0000000000000000"/>
      <sparseX i="867" alpha="56552.785679478518" sparseCutoff="1.0000000000000000"/>
      <sparseX i="868" alpha="1120.9404345649496" sparseCutoff="1.0000000000000000"/>
      <sparseX i="869" alpha="-37570.975509294345" sparseCutoff="1.0000000000000000"/>
      <sparseX i="870" alpha="-17061.821341293347" sparseCutoff="1.0000000000000000"/>
      <sparseX i="871" alpha="-13485.201566164664" sparseCutoff="1.0000000000000000"/>
      <sparseX i="872" alpha="-50316.215880973272" sparseCutoff="1.0000000000000000"/>
      <sparseX i="873" alpha="-69650.088098710505" sparseCutoff="1.0000000000000000"/>
      <sparseX i="874" alpha="44916.214639718884" sparseCutoff="1.0000000000000000"/>
      <sparseX i="875" alpha="-8051.6972828038806" sparseCutoff="1.0000000000000000"/>
      <sparseX i="876" alpha="2570.8774751729156" sparseCutoff="1.0000000000000000"/>
      <sparseX i="877" alpha="-4016.4853081769838" sparseCutoff="1.0000000000000000"/>
      <sparseX i="878" alpha="-41213.572213020132" sparseCutoff="1.0000000000000000"/>
      <sparseX i="879" alpha="-82679.774277747230" sparseCutoff="1.0000000000000000"/>
      <sparseX i="880" alpha="-98684.561567252400" sparseCutoff="1.0000000000000000"/>
      <sparseX i="881" alpha="173804.14312913534" sparseCutoff="1.0000000000000000"/>
      <sparseX i="882" alpha="3796.6502576145299" sparseCutoff="1.0000000000000000"/>
      <sparseX i="883" alpha="463.67195340587119" sparseCutoff="1.0000000000000000"/>
      <sparseX i="884" alpha="-89027.216830207995" sparseCutoff="1.0000000000000000"/>
      <sparseX i="885" alpha="53833.963452136471" sparseCutoff="1.0000000000000000"/>
      <sparseX i="886" alpha="-493172.36124018009" sparseCutoff="1.0000000000000000"/>
      <sparseX i="887" alpha="-359734.11689930159" sparseCutoff="1.0000000000000000"/>
      <sparseX i="888" alpha="1117.2337874447510" sparseCutoff="1.0000000000000000"/>
      <sparseX i="889" alpha="719512.25754407910" sparseCutoff="1.0000000000000000"/>
      <sparseX i="890" alpha="62261.624613453409" sparseCutoff="1.0000000000000000"/>
      <sparseX i="891" alpha="-190220.79326978722" sparseCutoff="1.0000000000000000"/>
      <sparseX i="892" alpha="297456.17834651459" sparseCutoff="1.0000000000000000"/>
      <sparseX i="893" alpha="988504.75431110803" sparseCutoff="1.0000000000000000"/>
      <sparseX i="894" alpha="-206148.94614923460" sparseCutoff="1.0000000000000000"/>
      <sparseX i="895" alpha="-32890.710721651565" sparseCutoff="1.0000000000000000"/>
      <sparseX i="896" alpha="807769.34817806620" sparseCutoff="1.0000000000000000"/>
      <sparseX i="897" alpha="-36255.249590437408" sparseCutoff="1.0000000000000000"/>
      <sparseX i="898" alpha="34197.489596428954" sparseCutoff="1.0000000000000000"/>
      <sparseX i="899" alpha="-195771.86664134447" sparseCutoff="1.0000000000000000"/>
      <sparseX i="900" alpha="-134849.00641281399" sparseCutoff="1.0000000000000000"/>
      <sparseX i="901" alpha="-207648.23639915805" sparseCutoff="1.0000000000000000"/>
      <sparseX i="902" alpha="-228123.67418659877" sparseCutoff="1.0000000000000000"/>
      <sparseX i="903" alpha="-76177.627915288846" sparseCutoff="1.0000000000000000"/>
      <sparseX i="904" alpha="41291.895644834214" sparseCutoff="1.0000000000000000"/>
      <sparseX i="905" alpha="494766.46912840975" sparseCutoff="1.0000000000000000"/>
      <sparseX i="906" alpha="1406970.7650144645" sparseCutoff="1.0000000000000000"/>
      <sparseX i="907" alpha="29626.104552170662" sparseCutoff="1.0000000000000000"/>
      <sparseX i="908" alpha="-326102.05906849442" sparseCutoff="1.0000000000000000"/>
      <sparseX i="909" alpha="196039.03730617531" sparseCutoff="1.0000000000000000"/>
      <sparseX i="910" alpha="-1411.4700260575796" sparseCutoff="1.0000000000000000"/>
      <sparseX i="911" alpha="-293557.81323379395" sparseCutoff="1.0000000000000000"/>
      <sparseX i="912" alpha="461686.71590437932" sparseCutoff="1.0000000000000000"/>
      <sparseX i="913" alpha="130822.44649105445" sparseCutoff="1.0000000000000000"/>
      <sparseX i="914" alpha="-264963.31526499847" sparseCutoff="1.0000000000000000"/>
      <sparseX i="915" alpha="124230.26055057651" sparseCutoff="1.0000000000000000"/>
      <sparseX i="916" alpha="30889.050258009000" sparseCutoff="1.0000000000000000"/>
      <sparseX i="917" alpha="-18344.371395610691" sparseCutoff="1.0000000000000000"/>
      <sparseX i="918" alpha="-205980.13530174657" sparseCutoff="1.0000000000000000"/>
      <sparseX i="919" alpha="61790.092075786080" sparseCutoff="1.0000000000000000"/>
      <sparseX i="920" alpha="-36149.230456720688" sparseCutoff="1.0000000000000000"/>
      <sparseX i="921" alpha="-11590.570825845047" sparseCutoff="1.0000000000000000"/>
      <sparseX i="922" alpha="-319377.84312225017" sparseCutoff="1.0000000000000000"/>
      <sparseX i="923" alpha="-15278.474994876173" sparseCutoff="1.0000000000000000"/>
      <sparseX i="924" alpha="-95594.136871369177" sparseCutoff="1.0000000000000000"/>
      <sparseX i="925" alpha="-102565.20068804505" sparseCutoff="1.0000000000000000"/>
      <sparseX i="926" alpha="-211848.11686835636" sparseCutoff="1.0000000000000000"/>
      <sparseX i="927" alpha="85510.089638353951" sparseCutoff="1.0000000000000000"/>
      <sparseX i="928" alpha="35181.421728052526" sparseCutoff="1.0000000000000000"/>
      <sparseX i="929" alpha="11432.719591776837" sparseCutoff="1.0000000000000000"/>
      <sparseX i="930" alpha="-36634.627979158591" sparseCutoff="1.0000000000000000"/>
      <sparseX i="931" alpha="-106874.17585306714" sparseCutoff="1.0000000000000000"/>
      <sparseX i="932" alpha="11289.557507566411" sparseCutoff="1.0000000000000000"/>
      <sparseX i="933" alpha="-117689.93252827728" sparseCutoff="1.0000000000000000"/>
      <sparseX i="934" alpha="2592.4389659605190" sparseCutoff="1.0000000000000000"/>
      <sparseX i="935" alpha="105249.27871599751" sparseCutoff="1.0000000000000000"/>
      <sparseX i="936" alpha="-101944.98550246880" sparseCutoff="1.0000000000000000"/>
      <sparseX i="937" alpha="-1108.2408044797328" sparseCutoff="1.0000000000000000"/>
      <sparseX i="938" alpha="-527032.66583192465" sparseCutoff="1.0000000000000000"/>
      <sparseX i="939" alpha="121442.87806127949" sparseCutoff="1.0000000000000000"/>
      <sparseX i="940" alpha="359613.88325592020" sparseCutoff="1.0000000000000000"/>
      <sparseX i="941" alpha="121052.91923759520" sparseCutoff="1.0000000000000000"/>
      <sparseX i="942" alpha="-376926.59726340068" sparseCutoff="1.0000000000000000"/>
      <sparseX i="943" alpha="-88641.764632947481" sparseCutoff="1.0000000000000000"/>
      <sparseX i="944" alpha="-55568.570337572906" sparseCutoff="1.0000000000000000"/>
      <sparseX i="945" alpha="-168379.19244145599" sparseCutoff="1.0000000000000000"/>
      <sparseX i="946" alpha="236209.65355568813" sparseCutoff="1.0000000000000000"/>
      <sparseX i="947" alpha="-72431.486294114933" sparseCutoff="1.0000000000000000"/>
      <sparseX i="948" alpha="1114.1083839653422" sparseCutoff="1.0000000000000000"/>
      <sparseX i="949" alpha="-71485.907946959589" sparseCutoff="1.0000000000000000"/>
      <sparseX i="950" alpha="-19899.065821081560" sparseCutoff="1.0000000000000000"/>
      <sparseX i="951" alpha="143595.45258940605" sparseCutoff="1.0000000000000000"/>
      <sparseX i="952" alpha="17440.411955118670" sparseCutoff="1.0000000000000000"/>
      <sparseX i="953" alpha="-590297.96817613742" sparseCutoff="1.0000000000000000"/>
      <sparseX i="954" alpha="-189121.84016413300" sparseCutoff="1.0000000000000000"/>
      <sparseX i="955" alpha="1004330.4860413204" sparseCutoff="1.0000000000000000"/>
      <sparseX i="956" alpha="20661.622278074112" sparseCutoff="1.0000000000000000"/>
      <sparseX i="957" alpha="-14671.268072109924" sparseCutoff="1.0000000000000000"/>
      <sparseX i="958" alpha="151637.08835485845" sparseCutoff="1.0000000000000000"/>
      <sparseX i="959" alpha="-1314697.8312184750" sparseCutoff="1.0000000000000000"/>
      <sparseX i="960" alpha="24064.987514047887" sparseCutoff="1.0000000000000000"/>
      <sparseX i="961" alpha="-801995.53830008628" sparseCutoff="1.0000000000000000"/>
      <sparseX i="962" alpha="-58781.522121595626" sparseCutoff="1.0000000000000000"/>
      <sparseX i="963" alpha="10802.639235686238" sparseCutoff="1.0000000000000000"/>
      <sparseX i="964" alpha="4745.1522729974131" sparseCutoff="1.0000000000000000"/>
      <sparseX i="965" alpha="-48966.489482075136" sparseCutoff="1.0000000000000000"/>
      <sparseX i="966" alpha="68147.333582068299" sparseCutoff="1.0000000000000000"/>
      <sparseX i="967" alpha="-146177.13453103212" sparseCutoff="1.0000000000000000"/>
      <sparseX i="968" alpha="-37018.940988830014" sparseCutoff="1.0000000000000000"/>
      <sparseX i="969" alpha="-96104.848238487539" sparseCutoff="1.0000000000000000"/>
      <sparseX i="970" alpha="26484.787575895240" sparseCutoff="1.0000000000000000"/>
      <sparseX i="971" alpha="520616.43588536832" sparseCutoff="1.0000000000000000"/>
      <sparseX i="972" alpha="221022.88605829288" sparseCutoff="1.0000000000000000"/>
      <sparseX i="973" alpha="-200268.12714668739" sparseCutoff="1.0000000000000000"/>
      <sparseX i="974" alpha="145987.35824533700" sparseCutoff="1.0000000000000000"/>
      <sparseX i="975" alpha="-250146.37488555731" sparseCutoff="1.0000000000000000"/>
      <sparseX i="976" alpha="84882.067753612049" sparseCutoff="1.0000000000000000"/>
      <sparseX i="977" alpha="440851.12582586595" sparseCutoff="1.0000000000000000"/>
      <sparseX i="978" alpha="-347082.05129032105" sparseCutoff="1.0000000000000000"/>
      <sparseX i="979" alpha="-82075.234260362398" sparseCutoff="1.0000000000000000"/>
      <sparseX i="980" alpha="61489.390465895282" sparseCutoff="1.0000000000000000"/>
      <sparseX i="981" alpha="-146359.15787168781" sparseCutoff="1.0000000000000000"/>
      <sparseX i="982" alpha="125309.83726246972" sparseCutoff="1.0000000000000000"/>
      <sparseX i="983" alpha="523748.52019849507" sparseCutoff="1.0000000000000000"/>
      <sparseX i="984" alpha="-250621.59462958548" sparseCutoff="1.0000000000000000"/>
      <sparseX i="985" alpha="776088.53884601628" sparseCutoff="1.0000000000000000"/>
      <sparseX i="986" alpha="-269989.63156768796" sparseCutoff="1.0000000000000000"/>
      <sparseX i="987" alpha="87100.614459217730" sparseCutoff="1.0000000000000000"/>
      <sparseX i="988" alpha="75095.296513925292" sparseCutoff="1.0000000000000000"/>
      <sparseX i="989" alpha="-338990.55422742385" sparseCutoff="1.0000000000000000"/>
      <sparseX i="990" alpha="-139774.36023271913" sparseCutoff="1.0000000000000000"/>
      <sparseX i="991" alpha="94529.166755532249" sparseCutoff="1.0000000000000000"/>
      <sparseX i="992" alpha="-32347.755773831745" sparseCutoff="1.0000000000000000"/>
      <sparseX i="993" alpha="160493.48850066480" sparseCutoff="1.0000000000000000"/>
      <sparseX i="994" alpha="50653.675951699690" sparseCutoff="1.0000000000000000"/>
      <sparseX i="995" alpha="19490.389239380733" sparseCutoff="1.0000000000000000"/>
      <sparseX i="996" alpha="-146083.65898406602" sparseCutoff="1.0000000000000000"/>
      <sparseX i="997" alpha="-16620.104252672201" sparseCutoff="1.0000000000000000"/>
      <sparseX i="998" alpha="661909.52980641159" sparseCutoff="1.0000000000000000"/>
      <sparseX i="999" alpha="-109805.99302848945" sparseCutoff="1.0000000000000000"/>
      <sparseX i="1000" alpha="713014.98805348610" sparseCutoff="1.0000000000000000"/>
      <sparseX i="1001" alpha="28047.649654717112" sparseCutoff="1.0000000000000000"/>
      <sparseX i="1002" alpha="-303485.60344268981" sparseCutoff="1.0000000000000000"/>
      <sparseX i="1003" alpha="22248.217966584569" sparseCutoff="1.0000000000000000"/>
      <sparseX i="1004" alpha="510729.90373421332" sparseCutoff="1.0000000000000000"/>
      <sparseX i="1005" alpha="-608704.26277580927" sparseCutoff="1.0000000000000000"/>
      <sparseX i="1006" alpha="-5135.3833086559398" sparseCutoff="1.0000000000000000"/>
      <sparseX i="1007" alpha="-359087.40574939246" sparseCutoff="1.0000000000000000"/>
      <sparseX i="1008" alpha="1523569.5061800845" sparseCutoff="1.0000000000000000"/>
      <sparseX i="1009" alpha="-159476.86386813823" sparseCutoff="1.0000000000000000"/>
      <sparseX i="1010" alpha="-534660.02595677308" sparseCutoff="1.0000000000000000"/>
      <sparseX i="1011" alpha="-27086.649919706393" sparseCutoff="1.0000000000000000"/>
      <sparseX i="1012" alpha="447.86267122777770" sparseCutoff="1.0000000000000000"/>
      <sparseX i="1013" alpha="-754771.83718062972" sparseCutoff="1.0000000000000000"/>
      <sparseX i="1014" alpha="-420045.18041226891" sparseCutoff="1.0000000000000000"/>
      <sparseX i="1015" alpha="-801935.00866044173" sparseCutoff="1.0000000000000000"/>
      <sparseX i="1016" alpha="-21807.273143115333" sparseCutoff="1.0000000000000000"/>
      <sparseX i="1017" alpha="-326845.92507944972" sparseCutoff="1.0000000000000000"/>
      <sparseX i="1018" alpha="-6528.0560011302223" sparseCutoff="1.0000000000000000"/>
      <sparseX i="1019" alpha="-640927.98708720296" sparseCutoff="1.0000000000000000"/>
      <sparseX i="1020" alpha="-14814.361469992602" sparseCutoff="1.0000000000000000"/>
      <sparseX i="1021" alpha="12801.584428046335" sparseCutoff="1.0000000000000000"/>
      <sparseX i="1022" alpha="-788459.24184642441" sparseCutoff="1.0000000000000000"/>
      <sparseX i="1023" alpha="52053.396086364533" sparseCutoff="1.0000000000000000"/>
      <sparseX i="1024" alpha="77919.576212965927" sparseCutoff="1.0000000000000000"/>
      <sparseX i="1025" alpha="340858.89688921522" sparseCutoff="1.0000000000000000"/>
      <sparseX i="1026" alpha="1582891.7433311322" sparseCutoff="1.0000000000000000"/>
      <sparseX i="1027" alpha="-275505.65183771920" sparseCutoff="1.0000000000000000"/>
      <sparseX i="1028" alpha="-15807.268742995526" sparseCutoff="1.0000000000000000"/>
      <sparseX i="1029" alpha="-6434.1679909016884" sparseCutoff="1.0000000000000000"/>
      <sparseX i="1030" alpha="29090.334183896732" sparseCutoff="1.0000000000000000"/>
      <sparseX i="1031" alpha="9613.1556959981808" sparseCutoff="1.0000000000000000"/>
      <sparseX i="1032" alpha="-32683.949519806189" sparseCutoff="1.0000000000000000"/>
      <sparseX i="1033" alpha="-159928.58695187466" sparseCutoff="1.0000000000000000"/>
      <sparseX i="1034" alpha="115869.82422675189" sparseCutoff="1.0000000000000000"/>
      <sparseX i="1035" alpha="-119809.52475822634" sparseCutoff="1.0000000000000000"/>
      <sparseX i="1036" alpha="-29849.836155210825" sparseCutoff="1.0000000000000000"/>
      <sparseX i="1037" alpha="-210648.98950842564" sparseCutoff="1.0000000000000000"/>
      <sparseX i="1038" alpha="101866.84187445509" sparseCutoff="1.0000000000000000"/>
      <sparseX i="1039" alpha="-3950.6926125210211" sparseCutoff="1.0000000000000000"/>
      <sparseX i="1040" alpha="4808.7607419574988" sparseCutoff="1.0000000000000000"/>
      <sparseX i="1041" alpha="-80218.131657531965" sparseCutoff="1.0000000000000000"/>
      <sparseX i="1042" alpha="93878.544978845122" sparseCutoff="1.0000000000000000"/>
      <sparseX i="1043" alpha="160725.23285085213" sparseCutoff="1.0000000000000000"/>
      <sparseX i="1044" alpha="-47255.278081097546" sparseCutoff="1.0000000000000000"/>
      <sparseX i="1045" alpha="-496024.82101848087" sparseCutoff="1.0000000000000000"/>
