<GAP_2022_4_12_120_23_4_14_731>
<Potential label="GAP_2022_4_12_120_23_4_14_731" init_args="IP GAP label=GAP_2022_4_12_120_23_4_14_731"/>
<GAP_params label="GAP_2022_4_12_120_23_4_14_731" gap_version="1645177290">
  <GAP_data do_core="F">
    <e0 Z="1" value=".00000000000000000E+000"/>
    <e0 Z="2" value=".00000000000000000E+000"/>
    <e0 Z="3" value=".00000000000000000E+000"/>
    <e0 Z="4" value=".00000000000000000E+000"/>
    <e0 Z="5" value=".00000000000000000E+000"/>
    <e0 Z="6" value=".00000000000000000E+000"/>
    <e0 Z="7" value=".00000000000000000E+000"/>
    <e0 Z="8" value=".00000000000000000E+000"/>
    <e0 Z="9" value=".00000000000000000E+000"/>
    <e0 Z="10" value=".00000000000000000E+000"/>
    <e0 Z="11" value=".00000000000000000E+000"/>
    <e0 Z="12" value=".00000000000000000E+000"/>
    <e0 Z="13" value=".00000000000000000E+000"/>
    <e0 Z="14" value=".00000000000000000E+000"/>
    <e0 Z="15" value=".00000000000000000E+000"/>
    <e0 Z="16" value=".00000000000000000E+000"/>
    <e0 Z="17" value=".00000000000000000E+000"/>
    <e0 Z="18" value=".00000000000000000E+000"/>
    <e0 Z="19" value=".00000000000000000E+000"/>
    <e0 Z="20" value=".00000000000000000E+000"/>
    <e0 Z="21" value=".00000000000000000E+000"/>
    <e0 Z="22" value=".00000000000000000E+000"/>
    <e0 Z="23" value=".00000000000000000E+000"/>
    <e0 Z="24" value=".00000000000000000E+000"/>
    <e0 Z="25" value=".00000000000000000E+000"/>
    <e0 Z="26" value="-3455.6995339000000"/>
    <e0 Z="27" value=".00000000000000000E+000"/>
    <e0 Z="28" value=".00000000000000000E+000"/>
    <e0 Z="29" value=".00000000000000000E+000"/>
    <e0 Z="30" value=".00000000000000000E+000"/>
    <e0 Z="31" value=".00000000000000000E+000"/>
    <e0 Z="32" value=".00000000000000000E+000"/>
    <e0 Z="33" value=".00000000000000000E+000"/>
    <e0 Z="34" value=".00000000000000000E+000"/>
    <e0 Z="35" value=".00000000000000000E+000"/>
    <e0 Z="36" value=".00000000000000000E+000"/>
    <e0 Z="37" value=".00000000000000000E+000"/>
    <e0 Z="38" value=".00000000000000000E+000"/>
    <e0 Z="39" value=".00000000000000000E+000"/>
    <e0 Z="40" value=".00000000000000000E+000"/>
    <e0 Z="41" value=".00000000000000000E+000"/>
    <e0 Z="42" value=".00000000000000000E+000"/>
    <e0 Z="43" value=".00000000000000000E+000"/>
    <e0 Z="44" value=".00000000000000000E+000"/>
    <e0 Z="45" value=".00000000000000000E+000"/>
    <e0 Z="46" value=".00000000000000000E+000"/>
    <e0 Z="47" value=".00000000000000000E+000"/>
    <e0 Z="48" value=".00000000000000000E+000"/>
    <e0 Z="49" value=".00000000000000000E+000"/>
    <e0 Z="50" value=".00000000000000000E+000"/>
    <e0 Z="51" value=".00000000000000000E+000"/>
    <e0 Z="52" value=".00000000000000000E+000"/>
    <e0 Z="53" value=".00000000000000000E+000"/>
    <e0 Z="54" value=".00000000000000000E+000"/>
    <e0 Z="55" value=".00000000000000000E+000"/>
    <e0 Z="56" value=".00000000000000000E+000"/>
    <e0 Z="57" value=".00000000000000000E+000"/>
    <e0 Z="58" value=".00000000000000000E+000"/>
    <e0 Z="59" value=".00000000000000000E+000"/>
    <e0 Z="60" value=".00000000000000000E+000"/>
    <e0 Z="61" value=".00000000000000000E+000"/>
    <e0 Z="62" value=".00000000000000000E+000"/>
    <e0 Z="63" value=".00000000000000000E+000"/>
    <e0 Z="64" value=".00000000000000000E+000"/>
    <e0 Z="65" value=".00000000000000000E+000"/>
    <e0 Z="66" value=".00000000000000000E+000"/>
    <e0 Z="67" value=".00000000000000000E+000"/>
    <e0 Z="68" value=".00000000000000000E+000"/>
    <e0 Z="69" value=".00000000000000000E+000"/>
    <e0 Z="70" value=".00000000000000000E+000"/>
    <e0 Z="71" value=".00000000000000000E+000"/>
    <e0 Z="72" value=".00000000000000000E+000"/>
    <e0 Z="73" value=".00000000000000000E+000"/>
    <e0 Z="74" value=".00000000000000000E+000"/>
    <e0 Z="75" value=".00000000000000000E+000"/>
    <e0 Z="76" value=".00000000000000000E+000"/>
    <e0 Z="77" value=".00000000000000000E+000"/>
    <e0 Z="78" value=".00000000000000000E+000"/>
    <e0 Z="79" value=".00000000000000000E+000"/>
    <e0 Z="80" value=".00000000000000000E+000"/>
    <e0 Z="81" value=".00000000000000000E+000"/>
    <e0 Z="82" value=".00000000000000000E+000"/>
    <e0 Z="83" value=".00000000000000000E+000"/>
    <e0 Z="84" value=".00000000000000000E+000"/>
    <e0 Z="85" value=".00000000000000000E+000"/>
    <e0 Z="86" value=".00000000000000000E+000"/>
    <e0 Z="87" value=".00000000000000000E+000"/>
    <e0 Z="88" value=".00000000000000000E+000"/>
    <e0 Z="89" value=".00000000000000000E+000"/>
    <e0 Z="90" value=".00000000000000000E+000"/>
    <e0 Z="91" value=".00000000000000000E+000"/>
    <e0 Z="92" value=".00000000000000000E+000"/>
    <e0 Z="93" value=".00000000000000000E+000"/>
    <e0 Z="94" value=".00000000000000000E+000"/>
    <e0 Z="95" value=".00000000000000000E+000"/>
    <e0 Z="96" value=".00000000000000000E+000"/>
    <e0 Z="97" value=".00000000000000000E+000"/>
    <e0 Z="98" value=".00000000000000000E+000"/>
    <e0 Z="99" value=".00000000000000000E+000"/>
    <e0 Z="100" value=".00000000000000000E+000"/>
    <e0 Z="101" value=".00000000000000000E+000"/>
    <e0 Z="102" value=".00000000000000000E+000"/>
    <e0 Z="103" value=".00000000000000000E+000"/>
    <e0 Z="104" value=".00000000000000000E+000"/>
    <e0 Z="105" value=".00000000000000000E+000"/>
    <e0 Z="106" value=".00000000000000000E+000"/>
    <e0 Z="107" value=".00000000000000000E+000"/>
    <e0 Z="108" value=".00000000000000000E+000"/>
    <e0 Z="109" value=".00000000000000000E+000"/>
    <e0 Z="110" value=".00000000000000000E+000"/>
    <e0 Z="111" value=".00000000000000000E+000"/>
    <e0 Z="112" value=".00000000000000000E+000"/>
    <e0 Z="113" value=".00000000000000000E+000"/>
    <e0 Z="114" value=".00000000000000000E+000"/>
    <e0 Z="115" value=".00000000000000000E+000"/>
    <e0 Z="116" value=".00000000000000000E+000"/>
    <e0 Z="117" value=".00000000000000000E+000"/>
    <e0 Z="118" value=".00000000000000000E+000"/>
  </GAP_data>
  <gpSparse label="GAP_2022_4_12_120_23_4_14_731" n_coordinate="3" fitted="T">
    <gpCoordinates label="GAP_2022_4_12_120_23_4_14_7311" dimensions="1" signal_variance="1.0000000000000000" signal_mean=".00000000000000000E+000" sparsified="T" n_permutations="2" covariance_type="1" n_sparseX="25" sparseX_filename="gap_Fe_test.xml.sparseX.GAP_2022_4_12_120_23_4_14_7311" sparseX_md5sum="203f91a10d6e4e79adab8b267ed9c60f">
      <theta>  0.25000000000000000E+001 </theta>
      <descriptor> distance_Nb order=2 cutoff=5.0 n_sparse=25 covariance_type=ard_se delta=1.0 theta_uniform=2.5 sparse_method=uniform compact_clusters=True Z={26 26 }</descriptor>
      <permutation i="1">1  </permutation>
      <permutation i="2">1  </permutation>
      <sparseX i="1" alpha="370518.89624390489" sparseCutoff=".60589070852613081"/>
      <sparseX i="2" alpha="-192237.83289973217" sparseCutoff="1.0000000000000000"/>
      <sparseX i="3" alpha="-5839.4057167907040" sparseCutoff="1.0000000000000000"/>
      <sparseX i="4" alpha="909852.16224153794" sparseCutoff=".53446494464095273E-001"/>
      <sparseX i="5" alpha="-134420.77535866646" sparseCutoff="1.0000000000000000"/>
      <sparseX i="6" alpha="363141.31576935580" sparseCutoff="1.0000000000000000"/>
      <sparseX i="7" alpha="-131329.96903614746" sparseCutoff="1.0000000000000000"/>
      <sparseX i="8" alpha="223994.24478843369" sparseCutoff="1.0000000000000000"/>
      <sparseX i="9" alpha="148066.45576280667" sparseCutoff=".54391676900119590E-002"/>
      <sparseX i="10" alpha="-638335.40675823740" sparseCutoff=".84957732336093439"/>
      <sparseX i="11" alpha="342325.81285778148" sparseCutoff="1.0000000000000000"/>
      <sparseX i="12" alpha="179192.66868292983" sparseCutoff="1.0000000000000000"/>
      <sparseX i="13" alpha="-148563.39164680714" sparseCutoff="1.0000000000000000"/>
      <sparseX i="14" alpha="21836.430842884642" sparseCutoff="1.0000000000000000"/>
      <sparseX i="15" alpha="-56675.201779278628" sparseCutoff="1.0000000000000000"/>
      <sparseX i="16" alpha="48099.674362541511" sparseCutoff="1.0000000000000000"/>
      <sparseX i="17" alpha="-436210.60947528592" sparseCutoff="1.0000000000000000"/>
      <sparseX i="18" alpha="278798.23637788330" sparseCutoff="1.0000000000000000"/>
      <sparseX i="19" alpha="131491.83128624823" sparseCutoff="1.0000000000000000"/>
      <sparseX i="20" alpha="-331583.77273369121" sparseCutoff="1.0000000000000000"/>
      <sparseX i="21" alpha="157028.70235692180" sparseCutoff="1.0000000000000000"/>
      <sparseX i="22" alpha="123576.88577913355" sparseCutoff="1.0000000000000000"/>
      <sparseX i="23" alpha="-91936.443194335516" sparseCutoff="1.0000000000000000"/>
      <sparseX i="24" alpha="149813.06866690965" sparseCutoff="1.0000000000000000"/>
      <sparseX i="25" alpha="-222105.92731771609" sparseCutoff="1.0000000000000000"/>
    </gpCoordinates>
    <gpCoordinates label="GAP_2022_4_12_120_23_4_14_7312" dimensions="72" signal_variance="1.0000000000000000" signal_mean=".00000000000000000E+000" sparsified="T" n_permutations="1" covariance_type="2" zeta="4.0000000000000000" n_sparseX="2350" sparseX_filename="gap_Fe_test.xml.sparseX.GAP_2022_4_12_120_23_4_14_7312" sparseX_md5sum="8662e8fe54a0c294b324575eba01a3cf">
      <descriptor>soap_turbo l_max=8 alpha_max={8} atom_sigma_r={0.25} atom_sigma_t={0.25} atom_sigma_r_scaling={ 0.0} atom_sigma_t_scaling={0.0} zeta=4 rcut_hard=3.0 rcut_soft=2.5 delta=1.0 basis=poly3 scaling_mode=polynomial amplitude_scaling={1.0} n_species=1 species_Z=26 add_species=F compress_mode=trivial radial_enhancement=1 central_weight={1.0} covariance_type=dot_product config_type_n_sparse=slice_sample_high:250:phonons_54_high:250:phonons_128_high:250:prim_random:100:default:1500 sparse_method=cur_points</descriptor>
      <permutation i="1">1  </permutation>
      <sparseX i="1" alpha="418664.45841725316" sparseCutoff="1.0000000000000000"/>
      <sparseX i="2" alpha="899881.30362205417" sparseCutoff="1.0000000000000000"/>
      <sparseX i="3" alpha="-439788.80162546987" sparseCutoff="1.0000000000000000"/>
      <sparseX i="4" alpha="-828924.88409058936" sparseCutoff="1.0000000000000000"/>
      <sparseX i="5" alpha="-2402049.5331497509" sparseCutoff="1.0000000000000000"/>
      <sparseX i="6" alpha="1017326.2980272206" sparseCutoff="1.0000000000000000"/>
      <sparseX i="7" alpha="3641434.5224123490" sparseCutoff="1.0000000000000000"/>
      <sparseX i="8" alpha="-2727821.7355219075" sparseCutoff="1.0000000000000000"/>
      <sparseX i="9" alpha="2636485.3150893226" sparseCutoff="1.0000000000000000"/>
      <sparseX i="10" alpha="5391708.4718142692" sparseCutoff="1.0000000000000000"/>
      <sparseX i="11" alpha="-2668646.6346525061" sparseCutoff="1.0000000000000000"/>
      <sparseX i="12" alpha="-919168.98496815877" sparseCutoff="1.0000000000000000"/>
      <sparseX i="13" alpha="-2312445.4259349564" sparseCutoff="1.0000000000000000"/>
      <sparseX i="14" alpha="-3039354.6401931457" sparseCutoff="1.0000000000000000"/>
      <sparseX i="15" alpha="-3358358.0974733266" sparseCutoff="1.0000000000000000"/>
      <sparseX i="16" alpha="-128173.58077072314" sparseCutoff="1.0000000000000000"/>
      <sparseX i="17" alpha="-9226621.5522609167" sparseCutoff="1.0000000000000000"/>
      <sparseX i="18" alpha="-4269755.7630364783" sparseCutoff="1.0000000000000000"/>
      <sparseX i="19" alpha="-4478388.9522174513" sparseCutoff="1.0000000000000000"/>
      <sparseX i="20" alpha="2351167.1470894637" sparseCutoff="1.0000000000000000"/>
      <sparseX i="21" alpha="-4268120.3098019660" sparseCutoff="1.0000000000000000"/>
      <sparseX i="22" alpha="2504649.1792082922" sparseCutoff="1.0000000000000000"/>
      <sparseX i="23" alpha="-4022436.3160242648" sparseCutoff="1.0000000000000000"/>
      <sparseX i="24" alpha="-2224328.4077746556" sparseCutoff="1.0000000000000000"/>
      <sparseX i="25" alpha="-1916051.5476624223" sparseCutoff="1.0000000000000000"/>
      <sparseX i="26" alpha="-3599919.4882772323" sparseCutoff="1.0000000000000000"/>
      <sparseX i="27" alpha="3342281.6963118240" sparseCutoff="1.0000000000000000"/>
      <sparseX i="28" alpha="-2256366.9285804704" sparseCutoff="1.0000000000000000"/>
      <sparseX i="29" alpha="246194.53515494789" sparseCutoff="1.0000000000000000"/>
      <sparseX i="30" alpha="7558985.6817137916" sparseCutoff="1.0000000000000000"/>
      <sparseX i="31" alpha="-1407049.4678321565" sparseCutoff="1.0000000000000000"/>
      <sparseX i="32" alpha="9212028.1547601856" sparseCutoff="1.0000000000000000"/>
      <sparseX i="33" alpha="-2002404.2757829567" sparseCutoff="1.0000000000000000"/>
      <sparseX i="34" alpha="-736898.49038423237" sparseCutoff="1.0000000000000000"/>
      <sparseX i="35" alpha="2360037.8197901458" sparseCutoff="1.0000000000000000"/>
      <sparseX i="36" alpha="-455208.17850473576" sparseCutoff="1.0000000000000000"/>
      <sparseX i="37" alpha="3798464.3103306349" sparseCutoff="1.0000000000000000"/>
      <sparseX i="38" alpha="-3114024.5623555966" sparseCutoff="1.0000000000000000"/>
      <sparseX i="39" alpha="-3158279.2812865521" sparseCutoff="1.0000000000000000"/>
      <sparseX i="40" alpha="16064.961462636089" sparseCutoff="1.0000000000000000"/>
      <sparseX i="41" alpha="-948255.69989009597" sparseCutoff="1.0000000000000000"/>
      <sparseX i="42" alpha="2470430.6326095862" sparseCutoff="1.0000000000000000"/>
      <sparseX i="43" alpha="4944186.2643933650" sparseCutoff="1.0000000000000000"/>
      <sparseX i="44" alpha="540004.00739665073" sparseCutoff="1.0000000000000000"/>
      <sparseX i="45" alpha="-2617945.5292264526" sparseCutoff="1.0000000000000000"/>
      <sparseX i="46" alpha="52850.517501651448" sparseCutoff="1.0000000000000000"/>
      <sparseX i="47" alpha="-2967518.3881693068" sparseCutoff="1.0000000000000000"/>
      <sparseX i="48" alpha="-515988.51340128033" sparseCutoff="1.0000000000000000"/>
      <sparseX i="49" alpha="-4228635.6616724869" sparseCutoff="1.0000000000000000"/>
      <sparseX i="50" alpha="910502.79627924389" sparseCutoff="1.0000000000000000"/>
      <sparseX i="51" alpha="1079346.9638773606" sparseCutoff="1.0000000000000000"/>
      <sparseX i="52" alpha="-1851196.2358012667" sparseCutoff="1.0000000000000000"/>
      <sparseX i="53" alpha="-2123456.2349945838" sparseCutoff="1.0000000000000000"/>
      <sparseX i="54" alpha="-653508.24468754930" sparseCutoff="1.0000000000000000"/>
      <sparseX i="55" alpha="-764136.46675540355" sparseCutoff="1.0000000000000000"/>
      <sparseX i="56" alpha="-1825099.5809316509" sparseCutoff="1.0000000000000000"/>
      <sparseX i="57" alpha="129078.09093410973" sparseCutoff="1.0000000000000000"/>
      <sparseX i="58" alpha="-1349700.7139343915" sparseCutoff="1.0000000000000000"/>
      <sparseX i="59" alpha="1156626.1358989656" sparseCutoff="1.0000000000000000"/>
      <sparseX i="60" alpha="-1109008.5133178043" sparseCutoff="1.0000000000000000"/>
      <sparseX i="61" alpha="603577.78489258455" sparseCutoff="1.0000000000000000"/>
      <sparseX i="62" alpha="-90215.541889572094" sparseCutoff="1.0000000000000000"/>
      <sparseX i="63" alpha="220459.82486153679" sparseCutoff="1.0000000000000000"/>
      <sparseX i="64" alpha="8048438.7317349622" sparseCutoff="1.0000000000000000"/>
      <sparseX i="65" alpha="-1809871.7929050163" sparseCutoff="1.0000000000000000"/>
      <sparseX i="66" alpha="-6313615.3992832787" sparseCutoff="1.0000000000000000"/>
      <sparseX i="67" alpha="-166971.04773682237" sparseCutoff="1.0000000000000000"/>
      <sparseX i="68" alpha="1862865.3219695610" sparseCutoff="1.0000000000000000"/>
      <sparseX i="69" alpha="-787616.05478788959" sparseCutoff="1.0000000000000000"/>
      <sparseX i="70" alpha="2434661.3619046053" sparseCutoff="1.0000000000000000"/>
      <sparseX i="71" alpha="-44570.084099994325" sparseCutoff="1.0000000000000000"/>
      <sparseX i="72" alpha="1576701.5072950046" sparseCutoff="1.0000000000000000"/>
      <sparseX i="73" alpha="30896.388753144944" sparseCutoff="1.0000000000000000"/>
      <sparseX i="74" alpha="288131.97007550468" sparseCutoff="1.0000000000000000"/>
      <sparseX i="75" alpha="-2073745.9837322352" sparseCutoff="1.0000000000000000"/>
      <sparseX i="76" alpha="287772.38161774253" sparseCutoff="1.0000000000000000"/>
      <sparseX i="77" alpha="-710037.70179180906" sparseCutoff="1.0000000000000000"/>
      <sparseX i="78" alpha="-82915.596623087171" sparseCutoff="1.0000000000000000"/>
      <sparseX i="79" alpha="-2514675.0073937727" sparseCutoff="1.0000000000000000"/>
      <sparseX i="80" alpha="1200744.4229874727" sparseCutoff="1.0000000000000000"/>
      <sparseX i="81" alpha="-2534074.0980026932" sparseCutoff="1.0000000000000000"/>
      <sparseX i="82" alpha="-848532.42136610951" sparseCutoff="1.0000000000000000"/>
      <sparseX i="83" alpha="-2406347.6468516057" sparseCutoff="1.0000000000000000"/>
      <sparseX i="84" alpha="-1093158.1600599817" sparseCutoff="1.0000000000000000"/>
      <sparseX i="85" alpha="1259789.3743845804" sparseCutoff="1.0000000000000000"/>
      <sparseX i="86" alpha="749312.52574614831" sparseCutoff="1.0000000000000000"/>
      <sparseX i="87" alpha="-2064909.1339967654" sparseCutoff="1.0000000000000000"/>
      <sparseX i="88" alpha="-445029.83695638925" sparseCutoff="1.0000000000000000"/>
      <sparseX i="89" alpha="1237374.3663201663" sparseCutoff="1.0000000000000000"/>
      <sparseX i="90" alpha="1493316.9319973902" sparseCutoff="1.0000000000000000"/>
      <sparseX i="91" alpha="5456722.3890295746" sparseCutoff="1.0000000000000000"/>
      <sparseX i="92" alpha="5511628.9984953171" sparseCutoff="1.0000000000000000"/>
      <sparseX i="93" alpha="-2188449.4881146844" sparseCutoff="1.0000000000000000"/>
      <sparseX i="94" alpha="-1748629.2841277935" sparseCutoff="1.0000000000000000"/>
      <sparseX i="95" alpha="-7501719.7003225666" sparseCutoff="1.0000000000000000"/>
      <sparseX i="96" alpha="5827290.0812109718" sparseCutoff="1.0000000000000000"/>
      <sparseX i="97" alpha="-2037923.0676241671" sparseCutoff="1.0000000000000000"/>
      <sparseX i="98" alpha="1542936.7316528482" sparseCutoff="1.0000000000000000"/>
      <sparseX i="99" alpha="-176001.36173245462" sparseCutoff="1.0000000000000000"/>
      <sparseX i="100" alpha="2911776.6770265047" sparseCutoff="1.0000000000000000"/>
      <sparseX i="101" alpha="-4873600.6320650550" sparseCutoff="1.0000000000000000"/>
      <sparseX i="102" alpha="-653791.09810001217" sparseCutoff="1.0000000000000000"/>
      <sparseX i="103" alpha="8975732.6380094904" sparseCutoff="1.0000000000000000"/>
      <sparseX i="104" alpha="923973.30611525767" sparseCutoff="1.0000000000000000"/>
      <sparseX i="105" alpha="5635179.0700647719" sparseCutoff="1.0000000000000000"/>
      <sparseX i="106" alpha="2934021.4522999777" sparseCutoff="1.0000000000000000"/>
      <sparseX i="107" alpha="-6148755.1115061613" sparseCutoff="1.0000000000000000"/>
      <sparseX i="108" alpha="3128582.4763150034" sparseCutoff="1.0000000000000000"/>
      <sparseX i="109" alpha="-1681153.0535392545" sparseCutoff="1.0000000000000000"/>
      <sparseX i="110" alpha="1121417.4391774661" sparseCutoff="1.0000000000000000"/>
      <sparseX i="111" alpha="16091156.479939828" sparseCutoff="1.0000000000000000"/>
      <sparseX i="112" alpha="1464335.7443439397" sparseCutoff="1.0000000000000000"/>
      <sparseX i="113" alpha="4448760.6920913551" sparseCutoff="1.0000000000000000"/>
      <sparseX i="114" alpha="-3460709.3195242900" sparseCutoff="1.0000000000000000"/>
      <sparseX i="115" alpha="-10014265.954918660" sparseCutoff="1.0000000000000000"/>
      <sparseX i="116" alpha="7414597.4626877503" sparseCutoff="1.0000000000000000"/>
      <sparseX i="117" alpha="-9907721.0390188042" sparseCutoff="1.0000000000000000"/>
      <sparseX i="118" alpha="15877.075206820175" sparseCutoff="1.0000000000000000"/>
      <sparseX i="119" alpha="3713562.6800532183" sparseCutoff="1.0000000000000000"/>
      <sparseX i="120" alpha="-7665758.2973708892" sparseCutoff="1.0000000000000000"/>
      <sparseX i="121" alpha="-4200216.9400971001" sparseCutoff="1.0000000000000000"/>
      <sparseX i="122" alpha="12721227.542922767" sparseCutoff="1.0000000000000000"/>
      <sparseX i="123" alpha="13368146.665145082" sparseCutoff="1.0000000000000000"/>
      <sparseX i="124" alpha="321068.91596482880" sparseCutoff="1.0000000000000000"/>
      <sparseX i="125" alpha="-5397928.6401837841" sparseCutoff="1.0000000000000000"/>
      <sparseX i="126" alpha="3587226.6320365202" sparseCutoff="1.0000000000000000"/>
      <sparseX i="127" alpha="-271906.43100864172" sparseCutoff="1.0000000000000000"/>
      <sparseX i="128" alpha="-12884.084740528964" sparseCutoff="1.0000000000000000"/>
      <sparseX i="129" alpha="-3240725.1814470063" sparseCutoff="1.0000000000000000"/>
      <sparseX i="130" alpha="5751748.0943926219" sparseCutoff="1.0000000000000000"/>
      <sparseX i="131" alpha="6850112.2066682028" sparseCutoff="1.0000000000000000"/>
      <sparseX i="132" alpha="5827436.4482382666" sparseCutoff="1.0000000000000000"/>
      <sparseX i="133" alpha="-13226526.135331588" sparseCutoff="1.0000000000000000"/>
      <sparseX i="134" alpha="-4996542.6888007987" sparseCutoff="1.0000000000000000"/>
      <sparseX i="135" alpha="6186494.8504700735" sparseCutoff="1.0000000000000000"/>
      <sparseX i="136" alpha="-740292.53098010900" sparseCutoff="1.0000000000000000"/>
      <sparseX i="137" alpha="-1125088.3573383980" sparseCutoff="1.0000000000000000"/>
      <sparseX i="138" alpha="1830680.5866245853" sparseCutoff="1.0000000000000000"/>
      <sparseX i="139" alpha="-1641257.4443374218" sparseCutoff="1.0000000000000000"/>
      <sparseX i="140" alpha="-1090064.1052846741" sparseCutoff="1.0000000000000000"/>
      <sparseX i="141" alpha="-1326481.0416948413" sparseCutoff="1.0000000000000000"/>
      <sparseX i="142" alpha="830788.26073544892" sparseCutoff="1.0000000000000000"/>
      <sparseX i="143" alpha="-1512916.7281842011" sparseCutoff="1.0000000000000000"/>
      <sparseX i="144" alpha="-2207543.4468432418" sparseCutoff="1.0000000000000000"/>
      <sparseX i="145" alpha="1543533.1537640679" sparseCutoff="1.0000000000000000"/>
      <sparseX i="146" alpha="-685724.05286419974" sparseCutoff="1.0000000000000000"/>
      <sparseX i="147" alpha="-695694.37356707640" sparseCutoff="1.0000000000000000"/>
      <sparseX i="148" alpha="1978911.3940715289" sparseCutoff="1.0000000000000000"/>
      <sparseX i="149" alpha="1346066.0364126838" sparseCutoff="1.0000000000000000"/>
      <sparseX i="150" alpha="3038748.1070502303" sparseCutoff="1.0000000000000000"/>
      <sparseX i="151" alpha="-391241.23540577135" sparseCutoff="1.0000000000000000"/>
      <sparseX i="152" alpha="-2942852.6218064139" sparseCutoff="1.0000000000000000"/>
      <sparseX i="153" alpha="3072433.1409389814" sparseCutoff="1.0000000000000000"/>
      <sparseX i="154" alpha="-2353833.9830067651" sparseCutoff="1.0000000000000000"/>
      <sparseX i="155" alpha="-1103722.6658128286" sparseCutoff="1.0000000000000000"/>
      <sparseX i="156" alpha="-1243605.3133971954" sparseCutoff="1.0000000000000000"/>
      <sparseX i="157" alpha="-45345.793125908909" sparseCutoff="1.0000000000000000"/>
      <sparseX i="158" alpha="-5061439.0991683342" sparseCutoff="1.0000000000000000"/>
      <sparseX i="159" alpha="-2879804.8429358169" sparseCutoff="1.0000000000000000"/>
      <sparseX i="160" alpha="906019.85693289677" sparseCutoff="1.0000000000000000"/>
      <sparseX i="161" alpha="335788.91689208342" sparseCutoff="1.0000000000000000"/>
      <sparseX i="162" alpha="-816056.08815853659" sparseCutoff="1.0000000000000000"/>
      <sparseX i="163" alpha="5342915.0000216356" sparseCutoff="1.0000000000000000"/>
      <sparseX i="164" alpha="-3837363.6851547770" sparseCutoff="1.0000000000000000"/>
      <sparseX i="165" alpha="11576.917654198049" sparseCutoff="1.0000000000000000"/>
      <sparseX i="166" alpha="4266434.7128490442" sparseCutoff="1.0000000000000000"/>
      <sparseX i="167" alpha="-1697993.6512413288" sparseCutoff="1.0000000000000000"/>
      <sparseX i="168" alpha="48697.360581282890" sparseCutoff="1.0000000000000000"/>
      <sparseX i="169" alpha="-129033.86037947462" sparseCutoff="1.0000000000000000"/>
      <sparseX i="170" alpha="3187923.7976969522" sparseCutoff="1.0000000000000000"/>
      <sparseX i="171" alpha="-5085715.8316399259" sparseCutoff="1.0000000000000000"/>
      <sparseX i="172" alpha="158355.02470746051" sparseCutoff="1.0000000000000000"/>
      <sparseX i="173" alpha="-2047074.6712187026" sparseCutoff="1.0000000000000000"/>
      <sparseX i="174" alpha="1838938.2040613138" sparseCutoff="1.0000000000000000"/>
      <sparseX i="175" alpha="-487168.48567702400" sparseCutoff="1.0000000000000000"/>
      <sparseX i="176" alpha="-35842.640803299349" sparseCutoff="1.0000000000000000"/>
      <sparseX i="177" alpha="1287012.6461513981" sparseCutoff="1.0000000000000000"/>
      <sparseX i="178" alpha="-9694118.1735214498" sparseCutoff="1.0000000000000000"/>
      <sparseX i="179" alpha="-238745.35191948313" sparseCutoff="1.0000000000000000"/>
      <sparseX i="180" alpha="7348717.1215964900" sparseCutoff="1.0000000000000000"/>
      <sparseX i="181" alpha="103883.45769950653" sparseCutoff="1.0000000000000000"/>
      <sparseX i="182" alpha="-2934564.0513103520" sparseCutoff="1.0000000000000000"/>
      <sparseX i="183" alpha="-393958.99551532400" sparseCutoff="1.0000000000000000"/>
      <sparseX i="184" alpha="1137048.5533888794" sparseCutoff="1.0000000000000000"/>
      <sparseX i="185" alpha="957012.80517661339" sparseCutoff="1.0000000000000000"/>
      <sparseX i="186" alpha="-3002342.5251525161" sparseCutoff="1.0000000000000000"/>
      <sparseX i="187" alpha="-2662944.4672444263" sparseCutoff="1.0000000000000000"/>
      <sparseX i="188" alpha="-7277535.3790526772" sparseCutoff="1.0000000000000000"/>
      <sparseX i="189" alpha="2918607.2873265110" sparseCutoff="1.0000000000000000"/>
      <sparseX i="190" alpha="1934920.8295140634" sparseCutoff="1.0000000000000000"/>
      <sparseX i="191" alpha="-194773.14847705371" sparseCutoff="1.0000000000000000"/>
      <sparseX i="192" alpha="2535077.1906577721" sparseCutoff="1.0000000000000000"/>
      <sparseX i="193" alpha="630686.77767319756" sparseCutoff="1.0000000000000000"/>
      <sparseX i="194" alpha="186281.21414307872" sparseCutoff="1.0000000000000000"/>
      <sparseX i="195" alpha="-516091.80461868976" sparseCutoff="1.0000000000000000"/>
      <sparseX i="196" alpha="3515708.5892846673" sparseCutoff="1.0000000000000000"/>
      <sparseX i="197" alpha="-3372094.3398818797" sparseCutoff="1.0000000000000000"/>
      <sparseX i="198" alpha="3242780.3976600450" sparseCutoff="1.0000000000000000"/>
      <sparseX i="199" alpha="-10561316.901878929" sparseCutoff="1.0000000000000000"/>
      <sparseX i="200" alpha="-10283920.321081936" sparseCutoff="1.0000000000000000"/>
      <sparseX i="201" alpha="-652124.26758172212" sparseCutoff="1.0000000000000000"/>
      <sparseX i="202" alpha="12258284.187857490" sparseCutoff="1.0000000000000000"/>
      <sparseX i="203" alpha="-4137661.8567289840" sparseCutoff="1.0000000000000000"/>
      <sparseX i="204" alpha="-2478341.1786058242" sparseCutoff="1.0000000000000000"/>
      <sparseX i="205" alpha="-11455136.046818646" sparseCutoff="1.0000000000000000"/>
      <sparseX i="206" alpha="266756.29557555111" sparseCutoff="1.0000000000000000"/>
      <sparseX i="207" alpha="15761204.149559423" sparseCutoff="1.0000000000000000"/>
      <sparseX i="208" alpha="-15280777.808768870" sparseCutoff="1.0000000000000000"/>
      <sparseX i="209" alpha="4823717.7328076260" sparseCutoff="1.0000000000000000"/>
      <sparseX i="210" alpha="-542109.98574913829" sparseCutoff="1.0000000000000000"/>
      <sparseX i="211" alpha="11617850.527648520" sparseCutoff="1.0000000000000000"/>
      <sparseX i="212" alpha="-4130861.1062093591" sparseCutoff="1.0000000000000000"/>
      <sparseX i="213" alpha="1036573.9434965851" sparseCutoff="1.0000000000000000"/>
      <sparseX i="214" alpha="-729093.75421909068" sparseCutoff="1.0000000000000000"/>
      <sparseX i="215" alpha="584776.98632224649" sparseCutoff="1.0000000000000000"/>
      <sparseX i="216" alpha="-4624178.3917471962" sparseCutoff="1.0000000000000000"/>
      <sparseX i="217" alpha="854750.80958068103" sparseCutoff="1.0000000000000000"/>
      <sparseX i="218" alpha="2535716.3669242086" sparseCutoff="1.0000000000000000"/>
      <sparseX i="219" alpha="-1049817.2102866506" sparseCutoff="1.0000000000000000"/>
      <sparseX i="220" alpha="-291687.96631577669" sparseCutoff="1.0000000000000000"/>
      <sparseX i="221" alpha="356040.93542662705" sparseCutoff="1.0000000000000000"/>
      <sparseX i="222" alpha="-4083766.2379934937" sparseCutoff="1.0000000000000000"/>
      <sparseX i="223" alpha="-4708625.7905604672" sparseCutoff="1.0000000000000000"/>
      <sparseX i="224" alpha="1291808.7792849713" sparseCutoff="1.0000000000000000"/>
      <sparseX i="225" alpha="1974616.5025051811" sparseCutoff="1.0000000000000000"/>
      <sparseX i="226" alpha="-555265.59632040304" sparseCutoff="1.0000000000000000"/>
      <sparseX i="227" alpha="340740.04889704532" sparseCutoff="1.0000000000000000"/>
      <sparseX i="228" alpha="145390.53051694942" sparseCutoff="1.0000000000000000"/>
      <sparseX i="229" alpha="-1145290.2532861854" sparseCutoff="1.0000000000000000"/>
      <sparseX i="230" alpha="-725499.65477828367" sparseCutoff="1.0000000000000000"/>
      <sparseX i="231" alpha="-1108896.3309522320" sparseCutoff="1.0000000000000000"/>
      <sparseX i="232" alpha="594974.54654764279" sparseCutoff="1.0000000000000000"/>
      <sparseX i="233" alpha="-2293696.7375081745" sparseCutoff="1.0000000000000000"/>
      <sparseX i="234" alpha="1862914.8623108908" sparseCutoff="1.0000000000000000"/>
      <sparseX i="235" alpha="4583217.4660881888" sparseCutoff="1.0000000000000000"/>
      <sparseX i="236" alpha="89617.736081687006" sparseCutoff="1.0000000000000000"/>
      <sparseX i="237" alpha="-770990.51787910273" sparseCutoff="1.0000000000000000"/>
      <sparseX i="238" alpha="1181187.1008801747" sparseCutoff="1.0000000000000000"/>
      <sparseX i="239" alpha="816521.57149149408" sparseCutoff="1.0000000000000000"/>
      <sparseX i="240" alpha="848028.68909040652" sparseCutoff="1.0000000000000000"/>
      <sparseX i="241" alpha="1191194.6546623264" sparseCutoff="1.0000000000000000"/>
      <sparseX i="242" alpha="2277925.2929852805" sparseCutoff="1.0000000000000000"/>
      <sparseX i="243" alpha="456594.42872742040" sparseCutoff="1.0000000000000000"/>
      <sparseX i="244" alpha="-1169995.4394974222" sparseCutoff="1.0000000000000000"/>
      <sparseX i="245" alpha="646574.74236780428" sparseCutoff="1.0000000000000000"/>
      <sparseX i="246" alpha="-166852.33851574329" sparseCutoff="1.0000000000000000"/>
      <sparseX i="247" alpha="-847359.70083389152" sparseCutoff="1.0000000000000000"/>
      <sparseX i="248" alpha="-1282503.9200035357" sparseCutoff="1.0000000000000000"/>
      <sparseX i="249" alpha="3597451.7394783995" sparseCutoff="1.0000000000000000"/>
      <sparseX i="250" alpha="-315842.30121482542" sparseCutoff="1.0000000000000000"/>
      <sparseX i="251" alpha="486593.18322262837" sparseCutoff="1.0000000000000000"/>
      <sparseX i="252" alpha="-476016.27690169110" sparseCutoff="1.0000000000000000"/>
      <sparseX i="253" alpha="-15160.807866472327" sparseCutoff="1.0000000000000000"/>
      <sparseX i="254" alpha="398314.27348191361" sparseCutoff="1.0000000000000000"/>
      <sparseX i="255" alpha="507880.52919947071" sparseCutoff="1.0000000000000000"/>
      <sparseX i="256" alpha="-910090.75296867650" sparseCutoff="1.0000000000000000"/>
      <sparseX i="257" alpha="-5349267.3573095575" sparseCutoff="1.0000000000000000"/>
      <sparseX i="258" alpha="-922802.41870321357" sparseCutoff="1.0000000000000000"/>
      <sparseX i="259" alpha="-339028.51277430711" sparseCutoff="1.0000000000000000"/>
      <sparseX i="260" alpha="2997750.7452650643" sparseCutoff="1.0000000000000000"/>
      <sparseX i="261" alpha="-493333.78113490163" sparseCutoff="1.0000000000000000"/>
      <sparseX i="262" alpha="1851639.9775877986" sparseCutoff="1.0000000000000000"/>
      <sparseX i="263" alpha="2807674.7835507328" sparseCutoff="1.0000000000000000"/>
      <sparseX i="264" alpha="-517967.66371394572" sparseCutoff="1.0000000000000000"/>
      <sparseX i="265" alpha="3352471.6673744610" sparseCutoff="1.0000000000000000"/>
      <sparseX i="266" alpha="-814239.41566015349" sparseCutoff="1.0000000000000000"/>
      <sparseX i="267" alpha="686865.94903581531" sparseCutoff="1.0000000000000000"/>
      <sparseX i="268" alpha="2236351.9528240394" sparseCutoff="1.0000000000000000"/>
      <sparseX i="269" alpha="1461794.2596341362" sparseCutoff="1.0000000000000000"/>
      <sparseX i="270" alpha="377697.31834798038" sparseCutoff="1.0000000000000000"/>
      <sparseX i="271" alpha="1777736.2105129908" sparseCutoff="1.0000000000000000"/>
      <sparseX i="272" alpha="455515.32085192588" sparseCutoff="1.0000000000000000"/>
      <sparseX i="273" alpha="-1072882.2815549474" sparseCutoff="1.0000000000000000"/>
      <sparseX i="274" alpha="1256326.7558496078" sparseCutoff="1.0000000000000000"/>
      <sparseX i="275" alpha="2169712.3335619471" sparseCutoff="1.0000000000000000"/>
      <sparseX i="276" alpha="1695115.3027846862" sparseCutoff="1.0000000000000000"/>
      <sparseX i="277" alpha="2471385.0543978112" sparseCutoff="1.0000000000000000"/>
      <sparseX i="278" alpha="7261.8094697814277" sparseCutoff="1.0000000000000000"/>
      <sparseX i="279" alpha="-1320963.1501762248" sparseCutoff="1.0000000000000000"/>
      <sparseX i="280" alpha="-582785.14157271932" sparseCutoff="1.0000000000000000"/>
      <sparseX i="281" alpha="569629.60096132837" sparseCutoff="1.0000000000000000"/>
      <sparseX i="282" alpha="-1929184.6888053340" sparseCutoff="1.0000000000000000"/>
      <sparseX i="283" alpha="-2956935.3965210929" sparseCutoff="1.0000000000000000"/>
      <sparseX i="284" alpha="-2182365.5970084192" sparseCutoff="1.0000000000000000"/>
      <sparseX i="285" alpha="-4788710.9422542807" sparseCutoff="1.0000000000000000"/>
      <sparseX i="286" alpha="3383012.2526118634" sparseCutoff="1.0000000000000000"/>
      <sparseX i="287" alpha="748.99209314720190" sparseCutoff="1.0000000000000000"/>
      <sparseX i="288" alpha="1893578.2817935143" sparseCutoff="1.0000000000000000"/>
      <sparseX i="289" alpha="-1336440.1351878622" sparseCutoff="1.0000000000000000"/>
      <sparseX i="290" alpha="-2407899.3188534831" sparseCutoff="1.0000000000000000"/>
      <sparseX i="291" alpha="1212944.5431978356" sparseCutoff="1.0000000000000000"/>
      <sparseX i="292" alpha="-836384.30348532705" sparseCutoff="1.0000000000000000"/>
      <sparseX i="293" alpha="-339119.96517275181" sparseCutoff="1.0000000000000000"/>
      <sparseX i="294" alpha="-1261554.6697511869" sparseCutoff="1.0000000000000000"/>
      <sparseX i="295" alpha="-479917.45821094286" sparseCutoff="1.0000000000000000"/>
      <sparseX i="296" alpha="145331.59064709937" sparseCutoff="1.0000000000000000"/>
      <sparseX i="297" alpha="784469.32804631547" sparseCutoff="1.0000000000000000"/>
      <sparseX i="298" alpha="1075224.8418943689" sparseCutoff="1.0000000000000000"/>
      <sparseX i="299" alpha="-926682.13507942541" sparseCutoff="1.0000000000000000"/>
      <sparseX i="300" alpha="-2479453.0097884629" sparseCutoff="1.0000000000000000"/>
      <sparseX i="301" alpha="-694853.46504061413" sparseCutoff="1.0000000000000000"/>
      <sparseX i="302" alpha="2381555.1179527333" sparseCutoff="1.0000000000000000"/>
      <sparseX i="303" alpha="1459853.6004591205" sparseCutoff="1.0000000000000000"/>
      <sparseX i="304" alpha="366510.60185266304" sparseCutoff="1.0000000000000000"/>
      <sparseX i="305" alpha="1878833.6165232104" sparseCutoff="1.0000000000000000"/>
      <sparseX i="306" alpha="327148.86155469267" sparseCutoff="1.0000000000000000"/>
      <sparseX i="307" alpha="-2727760.2192369630" sparseCutoff="1.0000000000000000"/>
      <sparseX i="308" alpha="-2362005.5388702108" sparseCutoff="1.0000000000000000"/>
      <sparseX i="309" alpha="-3347442.1158058327" sparseCutoff="1.0000000000000000"/>
      <sparseX i="310" alpha="-1002326.1613633141" sparseCutoff="1.0000000000000000"/>
      <sparseX i="311" alpha="10706.590709479105" sparseCutoff="1.0000000000000000"/>
      <sparseX i="312" alpha="-583930.09836603410" sparseCutoff="1.0000000000000000"/>
      <sparseX i="313" alpha="-255048.62894646206" sparseCutoff="1.0000000000000000"/>
      <sparseX i="314" alpha="2738097.0996817225" sparseCutoff="1.0000000000000000"/>
      <sparseX i="315" alpha="-99296.504184359394" sparseCutoff="1.0000000000000000"/>
      <sparseX i="316" alpha="91108.498646526321" sparseCutoff="1.0000000000000000"/>
      <sparseX i="317" alpha="-182303.14056754249" sparseCutoff="1.0000000000000000"/>
      <sparseX i="318" alpha="409900.86947460979" sparseCutoff="1.0000000000000000"/>
      <sparseX i="319" alpha="111781.94740038627" sparseCutoff="1.0000000000000000"/>
      <sparseX i="320" alpha="1041001.5022423983" sparseCutoff="1.0000000000000000"/>
      <sparseX i="321" alpha="83358.345508910046" sparseCutoff="1.0000000000000000"/>
      <sparseX i="322" alpha="-231969.86275262633" sparseCutoff="1.0000000000000000"/>
      <sparseX i="323" alpha="2015258.8375317354" sparseCutoff="1.0000000000000000"/>
      <sparseX i="324" alpha="1380026.7128719550" sparseCutoff="1.0000000000000000"/>
      <sparseX i="325" alpha="-91861.144914460601" sparseCutoff="1.0000000000000000"/>
      <sparseX i="326" alpha="144114.27252747631" sparseCutoff="1.0000000000000000"/>
      <sparseX i="327" alpha="628399.96346130711" sparseCutoff="1.0000000000000000"/>
      <sparseX i="328" alpha="-25847.672793041427" sparseCutoff="1.0000000000000000"/>
      <sparseX i="329" alpha="2496796.6879630312" sparseCutoff="1.0000000000000000"/>
      <sparseX i="330" alpha="-685349.81475917611" sparseCutoff="1.0000000000000000"/>
      <sparseX i="331" alpha="-1175619.7369258706" sparseCutoff="1.0000000000000000"/>
      <sparseX i="332" alpha="-1506946.2205174190" sparseCutoff="1.0000000000000000"/>
      <sparseX i="333" alpha="-1118530.0579431339" sparseCutoff="1.0000000000000000"/>
      <sparseX i="334" alpha="2088693.0140503231" sparseCutoff="1.0000000000000000"/>
      <sparseX i="335" alpha="-410315.29885626957" sparseCutoff="1.0000000000000000"/>
      <sparseX i="336" alpha="71515.684995492877" sparseCutoff="1.0000000000000000"/>
      <sparseX i="337" alpha="1220237.7850779700" sparseCutoff="1.0000000000000000"/>
      <sparseX i="338" alpha="652031.94870565808" sparseCutoff="1.0000000000000000"/>
      <sparseX i="339" alpha="-42887.308015024959" sparseCutoff="1.0000000000000000"/>
      <sparseX i="340" alpha="2606707.5777413817" sparseCutoff="1.0000000000000000"/>
      <sparseX i="341" alpha="-1307877.4036017298" sparseCutoff="1.0000000000000000"/>
      <sparseX i="342" alpha="898658.86790725193" sparseCutoff="1.0000000000000000"/>
      <sparseX i="343" alpha="-82185.367166288881" sparseCutoff="1.0000000000000000"/>
      <sparseX i="344" alpha="-743887.51936082554" sparseCutoff="1.0000000000000000"/>
      <sparseX i="345" alpha="303896.20953725377" sparseCutoff="1.0000000000000000"/>
      <sparseX i="346" alpha="-134209.14633505023" sparseCutoff="1.0000000000000000"/>
      <sparseX i="347" alpha="-699358.66784484114" sparseCutoff="1.0000000000000000"/>
      <sparseX i="348" alpha="2983331.9865170950" sparseCutoff="1.0000000000000000"/>
      <sparseX i="349" alpha="-766425.50567309430" sparseCutoff="1.0000000000000000"/>
      <sparseX i="350" alpha="-177151.44555090790" sparseCutoff="1.0000000000000000"/>
      <sparseX i="351" alpha="774136.85040780541" sparseCutoff="1.0000000000000000"/>
      <sparseX i="352" alpha="-924148.18326097727" sparseCutoff="1.0000000000000000"/>
      <sparseX i="353" alpha="724092.93396809301" sparseCutoff="1.0000000000000000"/>
      <sparseX i="354" alpha="-291303.70338437770" sparseCutoff="1.0000000000000000"/>
      <sparseX i="355" alpha="-4210073.5923995189" sparseCutoff="1.0000000000000000"/>
      <sparseX i="356" alpha="-301913.80931119691" sparseCutoff="1.0000000000000000"/>
      <sparseX i="357" alpha="-2718600.2019439945" sparseCutoff="1.0000000000000000"/>
      <sparseX i="358" alpha="757764.72367972543" sparseCutoff="1.0000000000000000"/>
      <sparseX i="359" alpha="438949.35366762133" sparseCutoff="1.0000000000000000"/>
      <sparseX i="360" alpha="-3268322.3462378448" sparseCutoff="1.0000000000000000"/>
      <sparseX i="361" alpha="1071544.7331589339" sparseCutoff="1.0000000000000000"/>
      <sparseX i="362" alpha="-3816465.7361746975" sparseCutoff="1.0000000000000000"/>
      <sparseX i="363" alpha="-127592.09835779572" sparseCutoff="1.0000000000000000"/>
      <sparseX i="364" alpha="-303353.30285755923" sparseCutoff="1.0000000000000000"/>
      <sparseX i="365" alpha="72684.951020138789" sparseCutoff="1.0000000000000000"/>
      <sparseX i="366" alpha="16426.711135982983" sparseCutoff="1.0000000000000000"/>
      <sparseX i="367" alpha="-622792.27348611108" sparseCutoff="1.0000000000000000"/>
      <sparseX i="368" alpha="-821609.02781374101" sparseCutoff="1.0000000000000000"/>
      <sparseX i="369" alpha="2948897.1767220940" sparseCutoff="1.0000000000000000"/>
      <sparseX i="370" alpha="-133660.12759670819" sparseCutoff="1.0000000000000000"/>
      <sparseX i="371" alpha="-1024865.7926269638" sparseCutoff="1.0000000000000000"/>
      <sparseX i="372" alpha="601873.71911982261" sparseCutoff="1.0000000000000000"/>
      <sparseX i="373" alpha="215881.53444122814" sparseCutoff="1.0000000000000000"/>
      <sparseX i="374" alpha="1401539.7663081498" sparseCutoff="1.0000000000000000"/>
      <sparseX i="375" alpha="617000.07591685338" sparseCutoff="1.0000000000000000"/>
      <sparseX i="376" alpha="-2282472.6979033714" sparseCutoff="1.0000000000000000"/>
      <sparseX i="377" alpha="62423.797615625066" sparseCutoff="1.0000000000000000"/>
      <sparseX i="378" alpha="5012271.9188134409" sparseCutoff="1.0000000000000000"/>
      <sparseX i="379" alpha="1339518.9441009585" sparseCutoff="1.0000000000000000"/>
      <sparseX i="380" alpha="4555884.8386815814" sparseCutoff="1.0000000000000000"/>
      <sparseX i="381" alpha="1325463.4039606322" sparseCutoff="1.0000000000000000"/>
      <sparseX i="382" alpha="974359.73236084683" sparseCutoff="1.0000000000000000"/>
      <sparseX i="383" alpha="1272716.7797542575" sparseCutoff="1.0000000000000000"/>
      <sparseX i="384" alpha="409007.80774750066" sparseCutoff="1.0000000000000000"/>
      <sparseX i="385" alpha="626503.34031608317" sparseCutoff="1.0000000000000000"/>
      <sparseX i="386" alpha="2475903.6960175205" sparseCutoff="1.0000000000000000"/>
      <sparseX i="387" alpha="-521820.87295983278" sparseCutoff="1.0000000000000000"/>
      <sparseX i="388" alpha="711048.47385542886" sparseCutoff="1.0000000000000000"/>
      <sparseX i="389" alpha="-1528495.0051732252" sparseCutoff="1.0000000000000000"/>
      <sparseX i="390" alpha="-1921197.1706925461" sparseCutoff="1.0000000000000000"/>
      <sparseX i="391" alpha="925092.51965745830" sparseCutoff="1.0000000000000000"/>
      <sparseX i="392" alpha="-1280553.9024054233" sparseCutoff="1.0000000000000000"/>
      <sparseX i="393" alpha="4028936.1972487257" sparseCutoff="1.0000000000000000"/>
      <sparseX i="394" alpha="477035.77397481829" sparseCutoff="1.0000000000000000"/>
      <sparseX i="395" alpha="-1926396.4299843768" sparseCutoff="1.0000000000000000"/>
      <sparseX i="396" alpha="-2077025.5682306541" sparseCutoff="1.0000000000000000"/>
      <sparseX i="397" alpha="4425261.6334489360" sparseCutoff="1.0000000000000000"/>
      <sparseX i="398" alpha="-728466.37258675299" sparseCutoff="1.0000000000000000"/>
      <sparseX i="399" alpha="514035.09427281574" sparseCutoff="1.0000000000000000"/>
      <sparseX i="400" alpha="-6256466.6437583575" sparseCutoff="1.0000000000000000"/>
      <sparseX i="401" alpha="-2887972.9878362468" sparseCutoff="1.0000000000000000"/>
      <sparseX i="402" alpha="-974590.73124993301" sparseCutoff="1.0000000000000000"/>
      <sparseX i="403" alpha="-17318.857931281011" sparseCutoff="1.0000000000000000"/>
      <sparseX i="404" alpha="254519.67406898955" sparseCutoff="1.0000000000000000"/>
      <sparseX i="405" alpha="-242896.07916372208" sparseCutoff="1.0000000000000000"/>
      <sparseX i="406" alpha="-3809795.2478848542" sparseCutoff="1.0000000000000000"/>
      <sparseX i="407" alpha="-1411794.5664645780" sparseCutoff="1.0000000000000000"/>
      <sparseX i="408" alpha="-205021.97961918064" sparseCutoff="1.0000000000000000"/>
      <sparseX i="409" alpha="-1574714.4194492490" sparseCutoff="1.0000000000000000"/>
      <sparseX i="410" alpha="368249.99517240439" sparseCutoff="1.0000000000000000"/>
      <sparseX i="411" alpha="1177588.1814655026" sparseCutoff="1.0000000000000000"/>
      <sparseX i="412" alpha="3877191.6127568181" sparseCutoff="1.0000000000000000"/>
      <sparseX i="413" alpha="865474.20586108661" sparseCutoff="1.0000000000000000"/>
      <sparseX i="414" alpha="2331531.7206212264" sparseCutoff="1.0000000000000000"/>
      <sparseX i="415" alpha="483217.77140128019" sparseCutoff="1.0000000000000000"/>
      <sparseX i="416" alpha="-361525.17459258460" sparseCutoff="1.0000000000000000"/>
      <sparseX i="417" alpha="53609.744221527457" sparseCutoff="1.0000000000000000"/>
      <sparseX i="418" alpha="-2507937.5674873581" sparseCutoff="1.0000000000000000"/>
      <sparseX i="419" alpha="-2622973.1633193060" sparseCutoff="1.0000000000000000"/>
      <sparseX i="420" alpha="330850.20100055804" sparseCutoff="1.0000000000000000"/>
      <sparseX i="421" alpha="3588019.6216282658" sparseCutoff="1.0000000000000000"/>
      <sparseX i="422" alpha="-102925.02957488850" sparseCutoff="1.0000000000000000"/>
      <sparseX i="423" alpha="-1868490.8208619177" sparseCutoff="1.0000000000000000"/>
      <sparseX i="424" alpha="5607314.0210263878" sparseCutoff="1.0000000000000000"/>
      <sparseX i="425" alpha="-1438256.0800271230" sparseCutoff="1.0000000000000000"/>
      <sparseX i="426" alpha="-1137316.7995985383" sparseCutoff="1.0000000000000000"/>
      <sparseX i="427" alpha="-542520.20035627100" sparseCutoff="1.0000000000000000"/>
      <sparseX i="428" alpha="-2292758.3539970489" sparseCutoff="1.0000000000000000"/>
      <sparseX i="429" alpha="-715631.48892344697" sparseCutoff="1.0000000000000000"/>
      <sparseX i="430" alpha="-1462251.2506529496" sparseCutoff="1.0000000000000000"/>
      <sparseX i="431" alpha="1987916.6499228051" sparseCutoff="1.0000000000000000"/>
      <sparseX i="432" alpha="3767215.1517251460" sparseCutoff="1.0000000000000000"/>
      <sparseX i="433" alpha="-1739809.9268749596" sparseCutoff="1.0000000000000000"/>
      <sparseX i="434" alpha="692484.53539460246" sparseCutoff="1.0000000000000000"/>
      <sparseX i="435" alpha="89690.705296465079" sparseCutoff="1.0000000000000000"/>
      <sparseX i="436" alpha="-254678.06572001250" sparseCutoff="1.0000000000000000"/>
      <sparseX i="437" alpha="-7051626.3742497573" sparseCutoff="1.0000000000000000"/>
      <sparseX i="438" alpha="-125583.76465636666" sparseCutoff="1.0000000000000000"/>
      <sparseX i="439" alpha="-2493380.8297365457" sparseCutoff="1.0000000000000000"/>
      <sparseX i="440" alpha="742983.98654128867" sparseCutoff="1.0000000000000000"/>
      <sparseX i="441" alpha="-748982.18547027989" sparseCutoff="1.0000000000000000"/>
      <sparseX i="442" alpha="1336060.7432346942" sparseCutoff="1.0000000000000000"/>
      <sparseX i="443" alpha="1496414.2403392445" sparseCutoff="1.0000000000000000"/>
      <sparseX i="444" alpha="1009225.0936226369" sparseCutoff="1.0000000000000000"/>
      <sparseX i="445" alpha="-472964.29265126347" sparseCutoff="1.0000000000000000"/>
      <sparseX i="446" alpha="-859466.59362717648" sparseCutoff="1.0000000000000000"/>
      <sparseX i="447" alpha="2008159.2410683639" sparseCutoff="1.0000000000000000"/>
      <sparseX i="448" alpha="-2189820.2165289661" sparseCutoff="1.0000000000000000"/>
      <sparseX i="449" alpha="-614892.41136458237" sparseCutoff="1.0000000000000000"/>
      <sparseX i="450" alpha="-1040948.1681227232" sparseCutoff="1.0000000000000000"/>
      <sparseX i="451" alpha="-744398.09732422128" sparseCutoff="1.0000000000000000"/>
      <sparseX i="452" alpha="-584604.32068246685" sparseCutoff="1.0000000000000000"/>
      <sparseX i="453" alpha="406439.42374438565" sparseCutoff="1.0000000000000000"/>
      <sparseX i="454" alpha="230549.75554446268" sparseCutoff="1.0000000000000000"/>
      <sparseX i="455" alpha="-658347.89676512894" sparseCutoff="1.0000000000000000"/>
      <sparseX i="456" alpha="458474.35878747352" sparseCutoff="1.0000000000000000"/>
      <sparseX i="457" alpha="682833.53460994735" sparseCutoff="1.0000000000000000"/>
      <sparseX i="458" alpha="1002646.3388450156" sparseCutoff="1.0000000000000000"/>
      <sparseX i="459" alpha="-1004333.8574421182" sparseCutoff="1.0000000000000000"/>
      <sparseX i="460" alpha="-327330.27182753070" sparseCutoff="1.0000000000000000"/>
      <sparseX i="461" alpha="-344098.22085939092" sparseCutoff="1.0000000000000000"/>
      <sparseX i="462" alpha="-314326.04821518011" sparseCutoff="1.0000000000000000"/>
      <sparseX i="463" alpha="-253324.58918556367" sparseCutoff="1.0000000000000000"/>
      <sparseX i="464" alpha="531748.66237344302" sparseCutoff="1.0000000000000000"/>
      <sparseX i="465" alpha="395736.49326146219" sparseCutoff="1.0000000000000000"/>
      <sparseX i="466" alpha="1984827.8731954906" sparseCutoff="1.0000000000000000"/>
      <sparseX i="467" alpha="-3745372.1134136450" sparseCutoff="1.0000000000000000"/>
      <sparseX i="468" alpha="-2306205.7299738573" sparseCutoff="1.0000000000000000"/>
      <sparseX i="469" alpha="792678.02308892237" sparseCutoff="1.0000000000000000"/>
      <sparseX i="470" alpha="-138647.69874427139" sparseCutoff="1.0000000000000000"/>
      <sparseX i="471" alpha="1015333.4970323890" sparseCutoff="1.0000000000000000"/>
      <sparseX i="472" alpha="65305.872842698882" sparseCutoff="1.0000000000000000"/>
      <sparseX i="473" alpha="-1293449.8304980677" sparseCutoff="1.0000000000000000"/>
      <sparseX i="474" alpha="241452.26688387219" sparseCutoff="1.0000000000000000"/>
      <sparseX i="475" alpha="926624.11016684258" sparseCutoff="1.0000000000000000"/>
      <sparseX i="476" alpha="-433292.85915662930" sparseCutoff="1.0000000000000000"/>
      <sparseX i="477" alpha="913322.00431766373" sparseCutoff="1.0000000000000000"/>
      <sparseX i="478" alpha="4142874.4232489611" sparseCutoff="1.0000000000000000"/>
      <sparseX i="479" alpha="2269512.4076541364" sparseCutoff="1.0000000000000000"/>
      <sparseX i="480" alpha="-586354.25050550699" sparseCutoff="1.0000000000000000"/>
      <sparseX i="481" alpha="348474.85899537586" sparseCutoff="1.0000000000000000"/>
      <sparseX i="482" alpha="1573059.1584593214" sparseCutoff="1.0000000000000000"/>
      <sparseX i="483" alpha="-396297.42234943557" sparseCutoff="1.0000000000000000"/>
      <sparseX i="484" alpha="43239.228843339522" sparseCutoff="1.0000000000000000"/>
      <sparseX i="485" alpha="-662541.07171605469" sparseCutoff="1.0000000000000000"/>
      <sparseX i="486" alpha="2092300.1244945452" sparseCutoff="1.0000000000000000"/>
      <sparseX i="487" alpha="906662.31708226353" sparseCutoff="1.0000000000000000"/>
      <sparseX i="488" alpha="-1931299.8272906994" sparseCutoff="1.0000000000000000"/>
      <sparseX i="489" alpha="-160427.40921215594" sparseCutoff="1.0000000000000000"/>
      <sparseX i="490" alpha="-1854290.5397554440" sparseCutoff="1.0000000000000000"/>
      <sparseX i="491" alpha="450837.04960778769" sparseCutoff="1.0000000000000000"/>
      <sparseX i="492" alpha="955176.04099512321" sparseCutoff="1.0000000000000000"/>
      <sparseX i="493" alpha="1224961.9195589831" sparseCutoff="1.0000000000000000"/>
      <sparseX i="494" alpha="-1849710.0992436516" sparseCutoff="1.0000000000000000"/>
      <sparseX i="495" alpha="1172043.1623049905" sparseCutoff="1.0000000000000000"/>
      <sparseX i="496" alpha="2688814.6365954294" sparseCutoff="1.0000000000000000"/>
      <sparseX i="497" alpha="-198107.00225349079" sparseCutoff="1.0000000000000000"/>
      <sparseX i="498" alpha="1825544.0223708896" sparseCutoff="1.0000000000000000"/>
      <sparseX i="499" alpha="804140.59253989044" sparseCutoff="1.0000000000000000"/>
      <sparseX i="500" alpha="2682186.9620734788" sparseCutoff="1.0000000000000000"/>
      <sparseX i="501" alpha="-267732.42680125183" sparseCutoff="1.0000000000000000"/>
      <sparseX i="502" alpha="1428910.1205553790" sparseCutoff="1.0000000000000000"/>
      <sparseX i="503" alpha="2584100.7778759818" sparseCutoff="1.0000000000000000"/>
      <sparseX i="504" alpha="251410.75322979971" sparseCutoff="1.0000000000000000"/>
      <sparseX i="505" alpha="26272.507673904809" sparseCutoff="1.0000000000000000"/>
      <sparseX i="506" alpha="-1410252.8285757171" sparseCutoff="1.0000000000000000"/>
      <sparseX i="507" alpha="-203663.61695843443" sparseCutoff="1.0000000000000000"/>
      <sparseX i="508" alpha="-576225.16632860876" sparseCutoff="1.0000000000000000"/>
      <sparseX i="509" alpha="1624669.5167518985" sparseCutoff="1.0000000000000000"/>
      <sparseX i="510" alpha="-683928.85084114561" sparseCutoff="1.0000000000000000"/>
      <sparseX i="511" alpha="239962.85556259891" sparseCutoff="1.0000000000000000"/>
      <sparseX i="512" alpha="-145904.97973816912" sparseCutoff="1.0000000000000000"/>
      <sparseX i="513" alpha="-762016.24235622841" sparseCutoff="1.0000000000000000"/>
      <sparseX i="514" alpha="-392007.29979874176" sparseCutoff="1.0000000000000000"/>
      <sparseX i="515" alpha="1018524.0623075435" sparseCutoff="1.0000000000000000"/>
      <sparseX i="516" alpha="50250.179309843719" sparseCutoff="1.0000000000000000"/>
      <sparseX i="517" alpha="-142548.93524467279" sparseCutoff="1.0000000000000000"/>
      <sparseX i="518" alpha="386310.17719309533" sparseCutoff="1.0000000000000000"/>
      <sparseX i="519" alpha="1612395.3905538458" sparseCutoff="1.0000000000000000"/>
      <sparseX i="520" alpha="-1126000.9063004295" sparseCutoff="1.0000000000000000"/>
      <sparseX i="521" alpha="1919438.1536774368" sparseCutoff="1.0000000000000000"/>
      <sparseX i="522" alpha="-1014981.2324213916" sparseCutoff="1.0000000000000000"/>
      <sparseX i="523" alpha="-1590279.8447502255" sparseCutoff="1.0000000000000000"/>
      <sparseX i="524" alpha="634951.25445808750" sparseCutoff="1.0000000000000000"/>
      <sparseX i="525" alpha="319556.26763596130" sparseCutoff="1.0000000000000000"/>
      <sparseX i="526" alpha="612666.69961344881" sparseCutoff="1.0000000000000000"/>
      <sparseX i="527" alpha="1656061.2985587115" sparseCutoff="1.0000000000000000"/>
      <sparseX i="528" alpha="-341142.04791341687" sparseCutoff="1.0000000000000000"/>
      <sparseX i="529" alpha="610902.60383355606" sparseCutoff="1.0000000000000000"/>
      <sparseX i="530" alpha="2312454.4154405175" sparseCutoff="1.0000000000000000"/>
      <sparseX i="531" alpha="-1200270.9937991842" sparseCutoff="1.0000000000000000"/>
      <sparseX i="532" alpha="948259.92656782910" sparseCutoff="1.0000000000000000"/>
      <sparseX i="533" alpha="-564313.50347774313" sparseCutoff="1.0000000000000000"/>
      <sparseX i="534" alpha="1294954.5532885820" sparseCutoff="1.0000000000000000"/>
      <sparseX i="535" alpha="1360746.6384118698" sparseCutoff="1.0000000000000000"/>
      <sparseX i="536" alpha="755187.67577284679" sparseCutoff="1.0000000000000000"/>
      <sparseX i="537" alpha="256767.36104930876" sparseCutoff="1.0000000000000000"/>
      <sparseX i="538" alpha="-1062861.3079518324" sparseCutoff="1.0000000000000000"/>
      <sparseX i="539" alpha="805810.93252452649" sparseCutoff="1.0000000000000000"/>
      <sparseX i="540" alpha="734555.42934682022" sparseCutoff="1.0000000000000000"/>
      <sparseX i="541" alpha="1329129.1721965715" sparseCutoff="1.0000000000000000"/>
      <sparseX i="542" alpha="110163.84470323256" sparseCutoff="1.0000000000000000"/>
      <sparseX i="543" alpha="-2687786.7818293404" sparseCutoff="1.0000000000000000"/>
      <sparseX i="544" alpha="-204039.50338069646" sparseCutoff="1.0000000000000000"/>
      <sparseX i="545" alpha="857101.93858996499" sparseCutoff="1.0000000000000000"/>
      <sparseX i="546" alpha="-343510.90791749087" sparseCutoff="1.0000000000000000"/>
      <sparseX i="547" alpha="-439574.94415262644" sparseCutoff="1.0000000000000000"/>
      <sparseX i="548" alpha="-559319.55478539411" sparseCutoff="1.0000000000000000"/>
      <sparseX i="549" alpha="1069748.0904771306" sparseCutoff="1.0000000000000000"/>
      <sparseX i="550" alpha="-1249321.4197686529" sparseCutoff="1.0000000000000000"/>
      <sparseX i="551" alpha="-805759.05103740678" sparseCutoff="1.0000000000000000"/>
      <sparseX i="552" alpha="208355.01377589020" sparseCutoff="1.0000000000000000"/>
      <sparseX i="553" alpha="-345307.15546850889" sparseCutoff="1.0000000000000000"/>
      <sparseX i="554" alpha="606487.10919574520" sparseCutoff="1.0000000000000000"/>
      <sparseX i="555" alpha="-586408.88721330569" sparseCutoff="1.0000000000000000"/>
      <sparseX i="556" alpha="-229004.96112042735" sparseCutoff="1.0000000000000000"/>
      <sparseX i="557" alpha="-2899252.2106229798" sparseCutoff="1.0000000000000000"/>
      <sparseX i="558" alpha="205863.64129168348" sparseCutoff="1.0000000000000000"/>
      <sparseX i="559" alpha="-758726.99678356876" sparseCutoff="1.0000000000000000"/>
      <sparseX i="560" alpha="-619199.57396653225" sparseCutoff="1.0000000000000000"/>
      <sparseX i="561" alpha="547071.90861729463" sparseCutoff="1.0000000000000000"/>
      <sparseX i="562" alpha="358582.06351214182" sparseCutoff="1.0000000000000000"/>
      <sparseX i="563" alpha="411329.92771023751" sparseCutoff="1.0000000000000000"/>
      <sparseX i="564" alpha="-96067.202710793368" sparseCutoff="1.0000000000000000"/>
      <sparseX i="565" alpha="-970285.15873335127" sparseCutoff="1.0000000000000000"/>
      <sparseX i="566" alpha="1657837.8662829825" sparseCutoff="1.0000000000000000"/>
      <sparseX i="567" alpha="1007108.2801973438" sparseCutoff="1.0000000000000000"/>
      <sparseX i="568" alpha="870848.49383195501" sparseCutoff="1.0000000000000000"/>
      <sparseX i="569" alpha="1712618.9855281352" sparseCutoff="1.0000000000000000"/>
      <sparseX i="570" alpha="-96332.277554931090" sparseCutoff="1.0000000000000000"/>
      <sparseX i="571" alpha="-1010423.4021823043" sparseCutoff="1.0000000000000000"/>
      <sparseX i="572" alpha="-269368.94173907576" sparseCutoff="1.0000000000000000"/>
      <sparseX i="573" alpha="-466323.03024128306" sparseCutoff="1.0000000000000000"/>
      <sparseX i="574" alpha="-1774059.1369182784" sparseCutoff="1.0000000000000000"/>
      <sparseX i="575" alpha="405369.81162116048" sparseCutoff="1.0000000000000000"/>
      <sparseX i="576" alpha="217268.65573755838" sparseCutoff="1.0000000000000000"/>
      <sparseX i="577" alpha="-376212.23458613042" sparseCutoff="1.0000000000000000"/>
      <sparseX i="578" alpha="918434.11316161207" sparseCutoff="1.0000000000000000"/>
      <sparseX i="579" alpha="-324485.99147827062" sparseCutoff="1.0000000000000000"/>
      <sparseX i="580" alpha="-654279.66095566470" sparseCutoff="1.0000000000000000"/>
      <sparseX i="581" alpha="987881.70060293144" sparseCutoff="1.0000000000000000"/>
      <sparseX i="582" alpha="-1265098.5535753747" sparseCutoff="1.0000000000000000"/>
      <sparseX i="583" alpha="-1974787.0737432793" sparseCutoff="1.0000000000000000"/>
      <sparseX i="584" alpha="565901.18121163233" sparseCutoff="1.0000000000000000"/>
      <sparseX i="585" alpha="-859242.27961352537" sparseCutoff="1.0000000000000000"/>
      <sparseX i="586" alpha="602854.93501271389" sparseCutoff="1.0000000000000000"/>
      <sparseX i="587" alpha="777882.89767753426" sparseCutoff="1.0000000000000000"/>
      <sparseX i="588" alpha="3944746.8343761447" sparseCutoff="1.0000000000000000"/>
      <sparseX i="589" alpha="610331.33711339813" sparseCutoff="1.0000000000000000"/>
      <sparseX i="590" alpha="-1105504.0853335406" sparseCutoff="1.0000000000000000"/>
      <sparseX i="591" alpha="-285468.53879291692" sparseCutoff="1.0000000000000000"/>
      <sparseX i="592" alpha="2250932.2993292124" sparseCutoff="1.0000000000000000"/>
      <sparseX i="593" alpha="139466.53870205316" sparseCutoff="1.0000000000000000"/>
      <sparseX i="594" alpha="-2228940.3020390328" sparseCutoff="1.0000000000000000"/>
      <sparseX i="595" alpha="1443664.2140774326" sparseCutoff="1.0000000000000000"/>
      <sparseX i="596" alpha="645005.97763285879" sparseCutoff="1.0000000000000000"/>
      <sparseX i="597" alpha="1444719.0161745483" sparseCutoff="1.0000000000000000"/>
      <sparseX i="598" alpha="-288203.25175462011" sparseCutoff="1.0000000000000000"/>
      <sparseX i="599" alpha="-181525.26947868758" sparseCutoff="1.0000000000000000"/>
      <sparseX i="600" alpha="856292.28971082845" sparseCutoff="1.0000000000000000"/>
      <sparseX i="601" alpha="246375.92760932373" sparseCutoff="1.0000000000000000"/>
      <sparseX i="602" alpha="691855.79440757784" sparseCutoff="1.0000000000000000"/>
      <sparseX i="603" alpha="802867.52775622986" sparseCutoff="1.0000000000000000"/>
      <sparseX i="604" alpha="-3199760.7868996458" sparseCutoff="1.0000000000000000"/>
      <sparseX i="605" alpha="-1804935.9785290866" sparseCutoff="1.0000000000000000"/>
      <sparseX i="606" alpha="1070422.3688596529" sparseCutoff="1.0000000000000000"/>
      <sparseX i="607" alpha="-129494.48458095970" sparseCutoff="1.0000000000000000"/>
      <sparseX i="608" alpha="-1469465.2048722664" sparseCutoff="1.0000000000000000"/>
      <sparseX i="609" alpha="1876028.6701095977" sparseCutoff="1.0000000000000000"/>
      <sparseX i="610" alpha="577237.97074913071" sparseCutoff="1.0000000000000000"/>
      <sparseX i="611" alpha="-3168120.2319147955" sparseCutoff="1.0000000000000000"/>
      <sparseX i="612" alpha="1015446.8016237220" sparseCutoff="1.0000000000000000"/>
      <sparseX i="613" alpha="501153.69217233837" sparseCutoff="1.0000000000000000"/>
      <sparseX i="614" alpha="-362018.70737447875" sparseCutoff="1.0000000000000000"/>
      <sparseX i="615" alpha="1247016.7244126743" sparseCutoff="1.0000000000000000"/>
      <sparseX i="616" alpha="-2443216.7120868610" sparseCutoff="1.0000000000000000"/>
      <sparseX i="617" alpha="1884037.1364323534" sparseCutoff="1.0000000000000000"/>
      <sparseX i="618" alpha="3103158.2872187486" sparseCutoff="1.0000000000000000"/>
      <sparseX i="619" alpha="757013.35166289564" sparseCutoff="1.0000000000000000"/>
      <sparseX i="620" alpha="-420257.93619794073" sparseCutoff="1.0000000000000000"/>
      <sparseX i="621" alpha="454853.70427817345" sparseCutoff="1.0000000000000000"/>
      <sparseX i="622" alpha="-589017.24784466077" sparseCutoff="1.0000000000000000"/>
      <sparseX i="623" alpha="502077.49524327565" sparseCutoff="1.0000000000000000"/>
      <sparseX i="624" alpha="1065085.2166888746" sparseCutoff="1.0000000000000000"/>
      <sparseX i="625" alpha="-619962.64669639617" sparseCutoff="1.0000000000000000"/>
      <sparseX i="626" alpha="-1015827.1876713133" sparseCutoff="1.0000000000000000"/>
      <sparseX i="627" alpha="1021200.0334771343" sparseCutoff="1.0000000000000000"/>
      <sparseX i="628" alpha="973276.52180704137" sparseCutoff="1.0000000000000000"/>
      <sparseX i="629" alpha="-1378335.5921315872" sparseCutoff="1.0000000000000000"/>
      <sparseX i="630" alpha="72025.353157350401" sparseCutoff="1.0000000000000000"/>
      <sparseX i="631" alpha="936141.71031204017" sparseCutoff="1.0000000000000000"/>
      <sparseX i="632" alpha="-1840405.0904165520" sparseCutoff="1.0000000000000000"/>
      <sparseX i="633" alpha="-498333.38433653646" sparseCutoff="1.0000000000000000"/>
      <sparseX i="634" alpha="-362535.95592976216" sparseCutoff="1.0000000000000000"/>
      <sparseX i="635" alpha="-490705.93058473751" sparseCutoff="1.0000000000000000"/>
      <sparseX i="636" alpha="-716485.17501372774" sparseCutoff="1.0000000000000000"/>
      <sparseX i="637" alpha="-2015004.5492291697" sparseCutoff="1.0000000000000000"/>
      <sparseX i="638" alpha="-1745211.7200834432" sparseCutoff="1.0000000000000000"/>
      <sparseX i="639" alpha="1163758.9214742342" sparseCutoff="1.0000000000000000"/>
      <sparseX i="640" alpha="-1206585.3657735304" sparseCutoff="1.0000000000000000"/>
      <sparseX i="641" alpha="-2155463.8221355639" sparseCutoff="1.0000000000000000"/>
      <sparseX i="642" alpha="985587.04746097454" sparseCutoff="1.0000000000000000"/>
      <sparseX i="643" alpha="-627414.12961671257" sparseCutoff="1.0000000000000000"/>
      <sparseX i="644" alpha="-568731.83035580884" sparseCutoff="1.0000000000000000"/>
      <sparseX i="645" alpha="-1114828.3714602028" sparseCutoff="1.0000000000000000"/>
      <sparseX i="646" alpha="-42897.175390660916" sparseCutoff="1.0000000000000000"/>
      <sparseX i="647" alpha="812423.30696492118" sparseCutoff="1.0000000000000000"/>
      <sparseX i="648" alpha="-1067501.0676392512" sparseCutoff="1.0000000000000000"/>
      <sparseX i="649" alpha="63230.649932090259" sparseCutoff="1.0000000000000000"/>
      <sparseX i="650" alpha="803802.18237101054" sparseCutoff="1.0000000000000000"/>
      <sparseX i="651" alpha="570098.64940800553" sparseCutoff="1.0000000000000000"/>
      <sparseX i="652" alpha="370014.91361793474" sparseCutoff="1.0000000000000000"/>
      <sparseX i="653" alpha="-2933942.8832732700" sparseCutoff="1.0000000000000000"/>
      <sparseX i="654" alpha="-138299.61095470388" sparseCutoff="1.0000000000000000"/>
      <sparseX i="655" alpha="-328425.56393260870" sparseCutoff="1.0000000000000000"/>
      <sparseX i="656" alpha="573028.39294358878" sparseCutoff="1.0000000000000000"/>
      <sparseX i="657" alpha="545319.24332815455" sparseCutoff="1.0000000000000000"/>
      <sparseX i="658" alpha="3347044.6458414029" sparseCutoff="1.0000000000000000"/>
      <sparseX i="659" alpha="2618131.5801642272" sparseCutoff="1.0000000000000000"/>
      <sparseX i="660" alpha="-2077881.5266587124" sparseCutoff="1.0000000000000000"/>
      <sparseX i="661" alpha="266433.38239044219" sparseCutoff="1.0000000000000000"/>
      <sparseX i="662" alpha="467208.88365837606" sparseCutoff="1.0000000000000000"/>
      <sparseX i="663" alpha="-1841374.9258523041" sparseCutoff="1.0000000000000000"/>
      <sparseX i="664" alpha="407719.95219678083" sparseCutoff="1.0000000000000000"/>
      <sparseX i="665" alpha="-111453.11476843400" sparseCutoff="1.0000000000000000"/>
      <sparseX i="666" alpha="-708045.55522889039" sparseCutoff="1.0000000000000000"/>
      <sparseX i="667" alpha="-1742514.0317342433" sparseCutoff="1.0000000000000000"/>
      <sparseX i="668" alpha="-344699.35596877779" sparseCutoff="1.0000000000000000"/>
      <sparseX i="669" alpha="-295659.55799137783" sparseCutoff="1.0000000000000000"/>
      <sparseX i="670" alpha="1550417.2657877570" sparseCutoff="1.0000000000000000"/>
      <sparseX i="671" alpha="280642.81286662153" sparseCutoff="1.0000000000000000"/>
      <sparseX i="672" alpha="-2922327.2093270835" sparseCutoff="1.0000000000000000"/>
      <sparseX i="673" alpha="-2591452.5610378142" sparseCutoff="1.0000000000000000"/>
      <sparseX i="674" alpha="422886.31892003870" sparseCutoff="1.0000000000000000"/>
      <sparseX i="675" alpha="-399815.40444749233" sparseCutoff="1.0000000000000000"/>
      <sparseX i="676" alpha="-288679.25504278310" sparseCutoff="1.0000000000000000"/>
      <sparseX i="677" alpha="588673.42612591607" sparseCutoff="1.0000000000000000"/>
      <sparseX i="678" alpha="-1079887.2109801322" sparseCutoff="1.0000000000000000"/>
      <sparseX i="679" alpha="1395502.7346713170" sparseCutoff="1.0000000000000000"/>
      <sparseX i="680" alpha="723141.21633613855" sparseCutoff="1.0000000000000000"/>
      <sparseX i="681" alpha="-789054.49189179135" sparseCutoff="1.0000000000000000"/>
      <sparseX i="682" alpha="229177.69041991379" sparseCutoff="1.0000000000000000"/>
      <sparseX i="683" alpha="509706.01833145641" sparseCutoff="1.0000000000000000"/>
      <sparseX i="684" alpha="-2265907.4865712570" sparseCutoff="1.0000000000000000"/>
      <sparseX i="685" alpha="-69419.702856445059" sparseCutoff="1.0000000000000000"/>
      <sparseX i="686" alpha="181230.15049899006" sparseCutoff="1.0000000000000000"/>
      <sparseX i="687" alpha="444502.97283112200" sparseCutoff="1.0000000000000000"/>
      <sparseX i="688" alpha="582779.95450523193" sparseCutoff="1.0000000000000000"/>
      <sparseX i="689" alpha="-999908.46463765146" sparseCutoff="1.0000000000000000"/>
      <sparseX i="690" alpha="168824.24509313094" sparseCutoff="1.0000000000000000"/>
      <sparseX i="691" alpha="-3507700.0540641039" sparseCutoff="1.0000000000000000"/>
      <sparseX i="692" alpha="1047000.3789818595" sparseCutoff="1.0000000000000000"/>
      <sparseX i="693" alpha="175698.60613850696" sparseCutoff="1.0000000000000000"/>
      <sparseX i="694" alpha="-104050.09945064940" sparseCutoff="1.0000000000000000"/>
      <sparseX i="695" alpha="-1687653.9334844316" sparseCutoff="1.0000000000000000"/>
      <sparseX i="696" alpha="699243.06479982543" sparseCutoff="1.0000000000000000"/>
      <sparseX i="697" alpha="-89228.518479757564" sparseCutoff="1.0000000000000000"/>
      <sparseX i="698" alpha="-208409.01474264488" sparseCutoff="1.0000000000000000"/>
      <sparseX i="699" alpha="2487812.4177950257" sparseCutoff="1.0000000000000000"/>
      <sparseX i="700" alpha="-1533510.8817415826" sparseCutoff="1.0000000000000000"/>
      <sparseX i="701" alpha="935001.52411749167" sparseCutoff="1.0000000000000000"/>
      <sparseX i="702" alpha="-1334530.6590031269" sparseCutoff="1.0000000000000000"/>
      <sparseX i="703" alpha="936301.30275153683" sparseCutoff="1.0000000000000000"/>
      <sparseX i="704" alpha="-1856674.9336363534" sparseCutoff="1.0000000000000000"/>
      <sparseX i="705" alpha="-1189160.4222978086" sparseCutoff="1.0000000000000000"/>
      <sparseX i="706" alpha="-781330.63466096984" sparseCutoff="1.0000000000000000"/>
      <sparseX i="707" alpha="-1318118.7597467660" sparseCutoff="1.0000000000000000"/>
      <sparseX i="708" alpha="565170.47815463529" sparseCutoff="1.0000000000000000"/>
      <sparseX i="709" alpha="-575076.71341445495" sparseCutoff="1.0000000000000000"/>
      <sparseX i="710" alpha="2945472.3051272873" sparseCutoff="1.0000000000000000"/>
      <sparseX i="711" alpha="10665.240191850511" sparseCutoff="1.0000000000000000"/>
      <sparseX i="712" alpha="-449337.14930082933" sparseCutoff="1.0000000000000000"/>
      <sparseX i="713" alpha="-182476.53702301378" sparseCutoff="1.0000000000000000"/>
      <sparseX i="714" alpha="-585128.90211737691" sparseCutoff="1.0000000000000000"/>
      <sparseX i="715" alpha="-1020800.5788222492" sparseCutoff="1.0000000000000000"/>
      <sparseX i="716" alpha="1180313.7553286918" sparseCutoff="1.0000000000000000"/>
      <sparseX i="717" alpha="1352857.0542705059" sparseCutoff="1.0000000000000000"/>
      <sparseX i="718" alpha="609413.61764918931" sparseCutoff="1.0000000000000000"/>
      <sparseX i="719" alpha="-13701.496855373762" sparseCutoff="1.0000000000000000"/>
      <sparseX i="720" alpha="-1668426.0580324130" sparseCutoff="1.0000000000000000"/>
      <sparseX i="721" alpha="2527580.1145891924" sparseCutoff="1.0000000000000000"/>
      <sparseX i="722" alpha="130518.08656293157" sparseCutoff="1.0000000000000000"/>
      <sparseX i="723" alpha="3121299.4592705821" sparseCutoff="1.0000000000000000"/>
      <sparseX i="724" alpha="-264455.39564458217" sparseCutoff="1.0000000000000000"/>
      <sparseX i="725" alpha="-335301.01350877708" sparseCutoff="1.0000000000000000"/>
      <sparseX i="726" alpha="-3001838.6972545637" sparseCutoff="1.0000000000000000"/>
      <sparseX i="727" alpha="-1953703.0917422085" sparseCutoff="1.0000000000000000"/>
      <sparseX i="728" alpha="-799762.49022772477" sparseCutoff="1.0000000000000000"/>
      <sparseX i="729" alpha="-87452.975939859927" sparseCutoff="1.0000000000000000"/>
      <sparseX i="730" alpha="76100.379251811493" sparseCutoff="1.0000000000000000"/>
      <sparseX i="731" alpha="1752978.7530032813" sparseCutoff="1.0000000000000000"/>
      <sparseX i="732" alpha="872983.74564942380" sparseCutoff="1.0000000000000000"/>
      <sparseX i="733" alpha="1843429.3133444800" sparseCutoff="1.0000000000000000"/>
      <sparseX i="734" alpha="2688096.6319861757" sparseCutoff="1.0000000000000000"/>
      <sparseX i="735" alpha="-624745.96321604261" sparseCutoff="1.0000000000000000"/>
      <sparseX i="736" alpha="-596631.05997816043" sparseCutoff="1.0000000000000000"/>
      <sparseX i="737" alpha="-461961.13872350706" sparseCutoff="1.0000000000000000"/>
      <sparseX i="738" alpha="-3723700.5301423855" sparseCutoff="1.0000000000000000"/>
      <sparseX i="739" alpha="1591413.1462254131" sparseCutoff="1.0000000000000000"/>
      <sparseX i="740" alpha="1799759.2984849368" sparseCutoff="1.0000000000000000"/>
      <sparseX i="741" alpha="302186.69844772213" sparseCutoff="1.0000000000000000"/>
      <sparseX i="742" alpha="541406.88159897912" sparseCutoff="1.0000000000000000"/>
      <sparseX i="743" alpha="-1157454.4761235300" sparseCutoff="1.0000000000000000"/>
      <sparseX i="744" alpha="93552.324394157375" sparseCutoff="1.0000000000000000"/>
      <sparseX i="745" alpha="-741499.59519201284" sparseCutoff="1.0000000000000000"/>
      <sparseX i="746" alpha="-314848.51950120914" sparseCutoff="1.0000000000000000"/>
      <sparseX i="747" alpha="415094.77676120610" sparseCutoff="1.0000000000000000"/>
      <sparseX i="748" alpha="1960713.7845028630" sparseCutoff="1.0000000000000000"/>
      <sparseX i="749" alpha="-122479.68774844104" sparseCutoff="1.0000000000000000"/>
      <sparseX i="750" alpha="2620782.7397401375" sparseCutoff="1.0000000000000000"/>
      <sparseX i="751" alpha="-146085.46539844995" sparseCutoff="1.0000000000000000"/>
      <sparseX i="752" alpha="333168.55662960868" sparseCutoff="1.0000000000000000"/>
      <sparseX i="753" alpha="1416264.9264692676" sparseCutoff="1.0000000000000000"/>
      <sparseX i="754" alpha="431105.25494476559" sparseCutoff="1.0000000000000000"/>
      <sparseX i="755" alpha="2045176.7479656970" sparseCutoff="1.0000000000000000"/>
      <sparseX i="756" alpha="174794.33449669657" sparseCutoff="1.0000000000000000"/>
      <sparseX i="757" alpha="1886206.5145321661" sparseCutoff="1.0000000000000000"/>
      <sparseX i="758" alpha="-1036087.3288347587" sparseCutoff="1.0000000000000000"/>
      <sparseX i="759" alpha="-468690.49052678695" sparseCutoff="1.0000000000000000"/>
      <sparseX i="760" alpha="-390057.15081068838" sparseCutoff="1.0000000000000000"/>
      <sparseX i="761" alpha="203444.69494944994" sparseCutoff="1.0000000000000000"/>
      <sparseX i="762" alpha="-35087.866610644196" sparseCutoff="1.0000000000000000"/>
      <sparseX i="763" alpha="-1013235.2796962275" sparseCutoff="1.0000000000000000"/>
      <sparseX i="764" alpha="-6392.0639101600373" sparseCutoff="1.0000000000000000"/>
      <sparseX i="765" alpha="185026.48441746357" sparseCutoff="1.0000000000000000"/>
      <sparseX i="766" alpha="-240024.99484476092" sparseCutoff="1.0000000000000000"/>
      <sparseX i="767" alpha="1050147.5964587824" sparseCutoff="1.0000000000000000"/>
      <sparseX i="768" alpha="-622207.61688377359" sparseCutoff="1.0000000000000000"/>
      <sparseX i="769" alpha="266778.03458472952" sparseCutoff="1.0000000000000000"/>
      <sparseX i="770" alpha="2148193.2020470672" sparseCutoff="1.0000000000000000"/>
      <sparseX i="771" alpha="831742.13187005534" sparseCutoff="1.0000000000000000"/>
      <sparseX i="772" alpha="-866961.84782661067" sparseCutoff="1.0000000000000000"/>
      <sparseX i="773" alpha="871225.42034329858" sparseCutoff="1.0000000000000000"/>
      <sparseX i="774" alpha="237921.26610448866" sparseCutoff="1.0000000000000000"/>
      <sparseX i="775" alpha="-1219878.8292618934" sparseCutoff="1.0000000000000000"/>
      <sparseX i="776" alpha="2692226.7766970973" sparseCutoff="1.0000000000000000"/>
      <sparseX i="777" alpha="70933.650321956782" sparseCutoff="1.0000000000000000"/>
      <sparseX i="778" alpha="-2729400.8342382940" sparseCutoff="1.0000000000000000"/>
      <sparseX i="779" alpha="-406427.77364177833" sparseCutoff="1.0000000000000000"/>
      <sparseX i="780" alpha="633058.96607549267" sparseCutoff="1.0000000000000000"/>
      <sparseX i="781" alpha="644803.81062285951" sparseCutoff="1.0000000000000000"/>
      <sparseX i="782" alpha="891685.58173127461" sparseCutoff="1.0000000000000000"/>
      <sparseX i="783" alpha="-389745.93232036970" sparseCutoff="1.0000000000000000"/>
      <sparseX i="784" alpha="611878.15221447311" sparseCutoff="1.0000000000000000"/>
      <sparseX i="785" alpha="-1018645.2566765475" sparseCutoff="1.0000000000000000"/>
      <sparseX i="786" alpha="304904.35456920619" sparseCutoff="1.0000000000000000"/>
      <sparseX i="787" alpha="726488.59511199640" sparseCutoff="1.0000000000000000"/>
      <sparseX i="788" alpha="1976159.0701445930" sparseCutoff="1.0000000000000000"/>
      <sparseX i="789" alpha="-1210310.1946782377" sparseCutoff="1.0000000000000000"/>
      <sparseX i="790" alpha="230174.87924813328" sparseCutoff="1.0000000000000000"/>
      <sparseX i="791" alpha="-49109.157434950102" sparseCutoff="1.0000000000000000"/>
      <sparseX i="792" alpha="89809.938041832793" sparseCutoff="1.0000000000000000"/>
      <sparseX i="793" alpha="1064025.3850289886" sparseCutoff="1.0000000000000000"/>
      <sparseX i="794" alpha="-699598.64366517426" sparseCutoff="1.0000000000000000"/>
      <sparseX i="795" alpha="1677572.5659322108" sparseCutoff="1.0000000000000000"/>
      <sparseX i="796" alpha="-3226930.5249684434" sparseCutoff="1.0000000000000000"/>
      <sparseX i="797" alpha="-968600.85168274376" sparseCutoff="1.0000000000000000"/>
      <sparseX i="798" alpha="2691301.9131698739" sparseCutoff="1.0000000000000000"/>
      <sparseX i="799" alpha="-2687239.0961281750" sparseCutoff="1.0000000000000000"/>
      <sparseX i="800" alpha="-276823.09257183631" sparseCutoff="1.0000000000000000"/>
      <sparseX i="801" alpha="-1056629.5281662995" sparseCutoff="1.0000000000000000"/>
      <sparseX i="802" alpha="-1417217.5956459392" sparseCutoff="1.0000000000000000"/>
      <sparseX i="803" alpha="-3244856.9885594198" sparseCutoff="1.0000000000000000"/>
      <sparseX i="804" alpha="-1338042.4722068817" sparseCutoff="1.0000000000000000"/>
      <sparseX i="805" alpha="60685.309487774117" sparseCutoff="1.0000000000000000"/>
      <sparseX i="806" alpha="-1993984.8853983483" sparseCutoff="1.0000000000000000"/>
      <sparseX i="807" alpha="632062.36862656602" sparseCutoff="1.0000000000000000"/>
      <sparseX i="808" alpha="-605080.07248508744" sparseCutoff="1.0000000000000000"/>
      <sparseX i="809" alpha="-33664.025022193993" sparseCutoff="1.0000000000000000"/>
      <sparseX i="810" alpha="59847.825292640744" sparseCutoff="1.0000000000000000"/>
      <sparseX i="811" alpha="-1975218.7407015522" sparseCutoff="1.0000000000000000"/>
      <sparseX i="812" alpha="3242478.8332316945" sparseCutoff="1.0000000000000000"/>
      <sparseX i="813" alpha="796609.20934606902" sparseCutoff="1.0000000000000000"/>
      <sparseX i="814" alpha="-3406359.9816592233" sparseCutoff="1.0000000000000000"/>
      <sparseX i="815" alpha="2881001.2516495790" sparseCutoff="1.0000000000000000"/>
      <sparseX i="816" alpha="-4099602.8250702862" sparseCutoff="1.0000000000000000"/>
      <sparseX i="817" alpha="5297635.7727439767" sparseCutoff="1.0000000000000000"/>
      <sparseX i="818" alpha="237266.58003659351" sparseCutoff="1.0000000000000000"/>
      <sparseX i="819" alpha="2708766.8737490280" sparseCutoff="1.0000000000000000"/>
      <sparseX i="820" alpha="4356310.4531031698" sparseCutoff="1.0000000000000000"/>
      <sparseX i="821" alpha="282040.39861745422" sparseCutoff="1.0000000000000000"/>
      <sparseX i="822" alpha="1218419.3044282491" sparseCutoff="1.0000000000000000"/>
      <sparseX i="823" alpha="-223664.28575425071" sparseCutoff="1.0000000000000000"/>
      <sparseX i="824" alpha="-243216.40033715210" sparseCutoff="1.0000000000000000"/>
      <sparseX i="825" alpha="-1065.8653471367620" sparseCutoff="1.0000000000000000"/>
      <sparseX i="826" alpha="-120764.94578511307" sparseCutoff="1.0000000000000000"/>
      <sparseX i="827" alpha="318339.21218688897" sparseCutoff="1.0000000000000000"/>
      <sparseX i="828" alpha="1148736.6608508227" sparseCutoff="1.0000000000000000"/>
      <sparseX i="829" alpha="726389.45016509923" sparseCutoff="1.0000000000000000"/>
      <sparseX i="830" alpha="128241.67588599333" sparseCutoff="1.0000000000000000"/>
      <sparseX i="831" alpha="329553.65611302847" sparseCutoff="1.0000000000000000"/>
      <sparseX i="832" alpha="304803.97550433059" sparseCutoff="1.0000000000000000"/>
      <sparseX i="833" alpha="-300017.64022898121" sparseCutoff="1.0000000000000000"/>
      <sparseX i="834" alpha="-714488.78715245053" sparseCutoff="1.0000000000000000"/>
      <sparseX i="835" alpha="-427043.16576390143" sparseCutoff="1.0000000000000000"/>
      <sparseX i="836" alpha="501180.98653804074" sparseCutoff="1.0000000000000000"/>
      <sparseX i="837" alpha="61281.691842767228" sparseCutoff="1.0000000000000000"/>
      <sparseX i="838" alpha="-529301.66458185099" sparseCutoff="1.0000000000000000"/>
      <sparseX i="839" alpha="-246904.16730973369" sparseCutoff="1.0000000000000000"/>
      <sparseX i="840" alpha="-127662.72228597701" sparseCutoff="1.0000000000000000"/>
      <sparseX i="841" alpha="1201042.4436860525" sparseCutoff="1.0000000000000000"/>
      <sparseX i="842" alpha="176583.05738431524" sparseCutoff="1.0000000000000000"/>
      <sparseX i="843" alpha="-595922.42161074141" sparseCutoff="1.0000000000000000"/>
      <sparseX i="844" alpha="-551605.37696385279" sparseCutoff="1.0000000000000000"/>
      <sparseX i="845" alpha="763335.37163628149" sparseCutoff="1.0000000000000000"/>
      <sparseX i="846" alpha="-682818.84541981074" sparseCutoff="1.0000000000000000"/>
      <sparseX i="847" alpha="2767517.9031703728" sparseCutoff="1.0000000000000000"/>
      <sparseX i="848" alpha="682323.20896067133" sparseCutoff="1.0000000000000000"/>
      <sparseX i="849" alpha="604512.34827074455" sparseCutoff="1.0000000000000000"/>
      <sparseX i="850" alpha="4105936.2589454437" sparseCutoff="1.0000000000000000"/>
      <sparseX i="851" alpha="-946554.28651575209" sparseCutoff="1.0000000000000000"/>
      <sparseX i="852" alpha="-703980.84928889060" sparseCutoff="1.0000000000000000"/>
      <sparseX i="853" alpha="-25525.225790416240" sparseCutoff="1.0000000000000000"/>
      <sparseX i="854" alpha="437318.08656641486" sparseCutoff="1.0000000000000000"/>
      <sparseX i="855" alpha="759755.92948301497" sparseCutoff="1.0000000000000000"/>
      <sparseX i="856" alpha="754153.22314663522" sparseCutoff="1.0000000000000000"/>
      <sparseX i="857" alpha="-399568.84676113306" sparseCutoff="1.0000000000000000"/>
      <sparseX i="858" alpha="-748675.43769622804" sparseCutoff="1.0000000000000000"/>
      <sparseX i="859" alpha="500499.80248177930" sparseCutoff="1.0000000000000000"/>
      <sparseX i="860" alpha="1196450.1679821440" sparseCutoff="1.0000000000000000"/>
      <sparseX i="861" alpha="-398343.30047837034" sparseCutoff="1.0000000000000000"/>
      <sparseX i="862" alpha="-1058965.0876735763" sparseCutoff="1.0000000000000000"/>
      <sparseX i="863" alpha="1866598.2705483702" sparseCutoff="1.0000000000000000"/>
      <sparseX i="864" alpha="-1016408.6285863103" sparseCutoff="1.0000000000000000"/>
      <sparseX i="865" alpha="66847.089344947686" sparseCutoff="1.0000000000000000"/>
      <sparseX i="866" alpha="-954400.09749426250" sparseCutoff="1.0000000000000000"/>
      <sparseX i="867" alpha="-1248665.2213410714" sparseCutoff="1.0000000000000000"/>
      <sparseX i="868" alpha="76117.647970926846" sparseCutoff="1.0000000000000000"/>
      <sparseX i="869" alpha="-1220568.5705536457" sparseCutoff="1.0000000000000000"/>
      <sparseX i="870" alpha="-575258.73140060098" sparseCutoff="1.0000000000000000"/>
      <sparseX i="871" alpha="-2907929.8345147055" sparseCutoff="1.0000000000000000"/>
      <sparseX i="872" alpha="-876370.78391211596" sparseCutoff="1.0000000000000000"/>
      <sparseX i="873" alpha="2735935.6347817066" sparseCutoff="1.0000000000000000"/>
      <sparseX i="874" alpha="482901.77746903029" sparseCutoff="1.0000000000000000"/>
      <sparseX i="875" alpha="-3807535.9981702636" sparseCutoff="1.0000000000000000"/>
      <sparseX i="876" alpha="-3309602.8794356375" sparseCutoff="1.0000000000000000"/>
      <sparseX i="877" alpha="927713.28609140078" sparseCutoff="1.0000000000000000"/>
      <sparseX i="878" alpha="695904.95464731962" sparseCutoff="1.0000000000000000"/>
      <sparseX i="879" alpha="2454958.2406057282" sparseCutoff="1.0000000000000000"/>
      <sparseX i="880" alpha="781254.13961443712" sparseCutoff="1.0000000000000000"/>
      <sparseX i="881" alpha="-855815.18280587369" sparseCutoff="1.0000000000000000"/>
      <sparseX i="882" alpha="-263848.01847685804" sparseCutoff="1.0000000000000000"/>
      <sparseX i="883" alpha="224480.26821586266" sparseCutoff="1.0000000000000000"/>
      <sparseX i="884" alpha="-684171.04589733586" sparseCutoff="1.0000000000000000"/>
      <sparseX i="885" alpha="-709933.63642316614" sparseCutoff="1.0000000000000000"/>
      <sparseX i="886" alpha="359031.92598799866" sparseCutoff="1.0000000000000000"/>
      <sparseX i="887" alpha="-321007.80635949655" sparseCutoff="1.0000000000000000"/>
      <sparseX i="888" alpha="-60169.624635602479" sparseCutoff="1.0000000000000000"/>
      <sparseX i="889" alpha="-568009.81508693239" sparseCutoff="1.0000000000000000"/>
      <sparseX i="890" alpha="559644.23710569995" sparseCutoff="1.0000000000000000"/>
      <sparseX i="891" alpha="-588777.71740479779" sparseCutoff="1.0000000000000000"/>
      <sparseX i="892" alpha="-607268.83362505806" sparseCutoff="1.0000000000000000"/>
      <sparseX i="893" alpha="738447.98097119003" sparseCutoff="1.0000000000000000"/>
      <sparseX i="894" alpha="1024867.3377618279" sparseCutoff="1.0000000000000000"/>
      <sparseX i="895" alpha="598901.11750011006" sparseCutoff="1.0000000000000000"/>
      <sparseX i="896" alpha="-864425.94667011616" sparseCutoff="1.0000000000000000"/>
      <sparseX i="897" alpha="-383991.41871958534" sparseCutoff="1.0000000000000000"/>
      <sparseX i="898" alpha="-487262.28168203193" sparseCutoff="1.0000000000000000"/>
      <sparseX i="899" alpha="149159.64693497567" sparseCutoff="1.0000000000000000"/>
      <sparseX i="900" alpha="242544.92219559738" sparseCutoff="1.0000000000000000"/>
      <sparseX i="901" alpha="221374.34163385964" sparseCutoff="1.0000000000000000"/>
      <sparseX i="902" alpha="-520243.60044427717" sparseCutoff="1.0000000000000000"/>
      <sparseX i="903" alpha="568784.76113146602" sparseCutoff="1.0000000000000000"/>
      <sparseX i="904" alpha="-410166.55281549442" sparseCutoff="1.0000000000000000"/>
      <sparseX i="905" alpha="-352947.06130487542" sparseCutoff="1.0000000000000000"/>
      <sparseX i="906" alpha="-329876.48943798366" sparseCutoff="1.0000000000000000"/>
      <sparseX i="907" alpha="551774.47851741291" sparseCutoff="1.0000000000000000"/>
      <sparseX i="908" alpha="944047.90557485900" sparseCutoff="1.0000000000000000"/>
      <sparseX i="909" alpha="-453761.08763476543" sparseCutoff="1.0000000000000000"/>
      <sparseX i="910" alpha="2413383.3642857648" sparseCutoff="1.0000000000000000"/>
      <sparseX i="911" alpha="-2120166.0271174624" sparseCutoff="1.0000000000000000"/>
      <sparseX i="912" alpha="830099.19721799612" sparseCutoff="1.0000000000000000"/>
      <sparseX i="913" alpha="-1889492.2997703059" sparseCutoff="1.0000000000000000"/>
      <sparseX i="914" alpha="349562.58720984583" sparseCutoff="1.0000000000000000"/>
      <sparseX i="915" alpha="2131548.9377558180" sparseCutoff="1.0000000000000000"/>
      <sparseX i="916" alpha="1812887.0209524212" sparseCutoff="1.0000000000000000"/>
      <sparseX i="917" alpha="-1615914.9952433954" sparseCutoff="1.0000000000000000"/>
      <sparseX i="918" alpha="1933061.8747045966" sparseCutoff="1.0000000000000000"/>
      <sparseX i="919" alpha="-274543.83631057059" sparseCutoff="1.0000000000000000"/>
      <sparseX i="920" alpha="4055421.6382533549" sparseCutoff="1.0000000000000000"/>
      <sparseX i="921" alpha="-3821437.1715546926" sparseCutoff="1.0000000000000000"/>
      <sparseX i="922" alpha="2650357.6014896636" sparseCutoff="1.0000000000000000"/>
      <sparseX i="923" alpha="2312559.3575575980" sparseCutoff="1.0000000000000000"/>
      <sparseX i="924" alpha="-3698335.8165557175" sparseCutoff="1.0000000000000000"/>
      <sparseX i="925" alpha="-3248926.9465015619" sparseCutoff="1.0000000000000000"/>
      <sparseX i="926" alpha="133003.76675041072" sparseCutoff="1.0000000000000000"/>
      <sparseX i="927" alpha="94150.842005364728" sparseCutoff="1.0000000000000000"/>
      <sparseX i="928" alpha="682602.35616509337" sparseCutoff="1.0000000000000000"/>
      <sparseX i="929" alpha="-2217085.0854611988" sparseCutoff="1.0000000000000000"/>
      <sparseX i="930" alpha="1932860.5431575228" sparseCutoff="1.0000000000000000"/>
      <sparseX i="931" alpha="-348668.83605730889" sparseCutoff="1.0000000000000000"/>
      <sparseX i="932" alpha="1566648.4465182060" sparseCutoff="1.0000000000000000"/>
      <sparseX i="933" alpha="-2329572.9734084294" sparseCutoff="1.0000000000000000"/>
      <sparseX i="934" alpha="5180944.6231767097" sparseCutoff="1.0000000000000000"/>
      <sparseX i="935" alpha="-1953056.8517663300" sparseCutoff="1.0000000000000000"/>
      <sparseX i="936" alpha="936710.86122273654" sparseCutoff="1.0000000000000000"/>
      <sparseX i="937" alpha="320747.50175880734" sparseCutoff="1.0000000000000000"/>
      <sparseX i="938" alpha="-687601.57462117262" sparseCutoff="1.0000000000000000"/>
      <sparseX i="939" alpha="3286517.3264280544" sparseCutoff="1.0000000000000000"/>
      <sparseX i="940" alpha="2162534.6977801854" sparseCutoff="1.0000000000000000"/>
      <sparseX i="941" alpha="-145149.46525866012" sparseCutoff="1.0000000000000000"/>
      <sparseX i="942" alpha="1892305.9184810102" sparseCutoff="1.0000000000000000"/>
      <sparseX i="943" alpha="-207593.20665472074" sparseCutoff="1.0000000000000000"/>
      <sparseX i="944" alpha="2828624.1517542992" sparseCutoff="1.0000000000000000"/>
      <sparseX i="945" alpha="-360832.80987397442" sparseCutoff="1.0000000000000000"/>
      <sparseX i="946" alpha="-176502.31351581987" sparseCutoff="1.0000000000000000"/>
      <sparseX i="947" alpha="-495624.68469305587" sparseCutoff="1.0000000000000000"/>
      <sparseX i="948" alpha="426319.28872972896" sparseCutoff="1.0000000000000000"/>
      <sparseX i="949" alpha="921359.22332694707" sparseCutoff="1.0000000000000000"/>
      <sparseX i="950" alpha="630336.81859407679" sparseCutoff="1.0000000000000000"/>
      <sparseX i="951" alpha="-254449.28476245658" sparseCutoff="1.0000000000000000"/>
      <sparseX i="952" alpha="-885055.67750751867" sparseCutoff="1.0000000000000000"/>
      <sparseX i="953" alpha="995665.46681793989" sparseCutoff="1.0000000000000000"/>
      <sparseX i="954" alpha="550796.56278848078" sparseCutoff="1.0000000000000000"/>
      <sparseX i="955" alpha="127438.94892678803" sparseCutoff="1.0000000000000000"/>
      <sparseX i="956" alpha="-1439649.1097984044" sparseCutoff="1.0000000000000000"/>
      <sparseX i="957" alpha="-1023331.0713900973" sparseCutoff="1.0000000000000000"/>
      <sparseX i="958" alpha="930647.27784722357" sparseCutoff="1.0000000000000000"/>
      <sparseX i="959" alpha="-1209263.1328631851" sparseCutoff="1.0000000000000000"/>
      <sparseX i="960" alpha="-957822.49572089931" sparseCutoff="1.0000000000000000"/>
      <sparseX i="961" alpha="-261468.76051453737" sparseCutoff="1.0000000000000000"/>
      <sparseX i="962" alpha="79951.411396611118" sparseCutoff="1.0000000000000000"/>
      <sparseX i="963" alpha="-217835.20031556356" sparseCutoff="1.0000000000000000"/>
      <sparseX i="964" alpha="-171349.64118802216" sparseCutoff="1.0000000000000000"/>
      <sparseX i="965" alpha="-75830.345284177747" sparseCutoff="1.0000000000000000"/>
      <sparseX i="966" alpha="313215.26423376409" sparseCutoff="1.0000000000000000"/>
      <sparseX i="967" alpha="1429441.4568893726" sparseCutoff="1.0000000000000000"/>
      <sparseX i="968" alpha="-926838.19605830370" sparseCutoff="1.0000000000000000"/>
      <sparseX i="969" alpha="-2755808.6535502775" sparseCutoff="1.0000000000000000"/>
      <sparseX i="970" alpha="-5287832.2850821828" sparseCutoff="1.0000000000000000"/>
      <sparseX i="971" alpha="-1040445.7709895200" sparseCutoff="1.0000000000000000"/>
      <sparseX i="972" alpha="-1074834.9817715972" sparseCutoff="1.0000000000000000"/>
      <sparseX i="973" alpha="-294542.78051082784" sparseCutoff="1.0000000000000000"/>
      <sparseX i="974" alpha="653136.72103740240" sparseCutoff="1.0000000000000000"/>
      <sparseX i="975" alpha="-1139036.9406821351" sparseCutoff="1.0000000000000000"/>
      <sparseX i="976" alpha="646811.25974922383" sparseCutoff="1.0000000000000000"/>
      <sparseX i="977" alpha="-286027.69958168926" sparseCutoff="1.0000000000000000"/>
      <sparseX i="978" alpha="422575.84711929661" sparseCutoff="1.0000000000000000"/>
      <sparseX i="979" alpha="117523.68675028613" sparseCutoff="1.0000000000000000"/>
      <sparseX i="980" alpha="-203848.36466425861" sparseCutoff="1.0000000000000000"/>
      <sparseX i="981" alpha="1425640.7986413413" sparseCutoff="1.0000000000000000"/>
      <sparseX i="982" alpha="-198356.10310043363" sparseCutoff="1.0000000000000000"/>
      <sparseX i="983" alpha="1098002.9905569642" sparseCutoff="1.0000000000000000"/>
      <sparseX i="984" alpha="2180281.4249828844" sparseCutoff="1.0000000000000000"/>
      <sparseX i="985" alpha="-256999.47149377872" sparseCutoff="1.0000000000000000"/>
      <sparseX i="986" alpha="-184283.04828839595" sparseCutoff="1.0000000000000000"/>
      <sparseX i="987" alpha="-5459763.1079563946" sparseCutoff="1.0000000000000000"/>
      <sparseX i="988" alpha="-518599.74104244128" sparseCutoff="1.0000000000000000"/>
      <sparseX i="989" alpha="-72099.129894101890" sparseCutoff="1.0000000000000000"/>
      <sparseX i="990" alpha="-1901158.7022232995" sparseCutoff="1.0000000000000000"/>
      <sparseX i="991" alpha="658535.25354921876" sparseCutoff="1.0000000000000000"/>
      <sparseX i="992" alpha="76417.036927577486" sparseCutoff="1.0000000000000000"/>
      <sparseX i="993" alpha="240334.76799163088" sparseCutoff="1.0000000000000000"/>
      <sparseX i="994" alpha="844149.94771183759" sparseCutoff="1.0000000000000000"/>
      <sparseX i="995" alpha="-285924.87103086000" sparseCutoff="1.0000000000000000"/>
      <sparseX i="996" alpha="1412247.2287019573" sparseCutoff="1.0000000000000000"/>
      <sparseX i="997" alpha="988325.93066110951" sparseCutoff="1.0000000000000000"/>
      <sparseX i="998" alpha="201732.72613262042" sparseCutoff="1.0000000000000000"/>
      <sparseX i="999" alpha="-1194726.4005060790" sparseCutoff="1.0000000000000000"/>
      <sparseX i="1000" alpha="-1028585.5608363608" sparseCutoff="1.0000000000000000"/>
      <sparseX i="1001" alpha="462613.52232992544" sparseCutoff="1.0000000000000000"/>
      <sparseX i="1002" alpha="-938287.57761328213" sparseCutoff="1.0000000000000000"/>
      <sparseX i="1003" alpha="-385453.30202900223" sparseCutoff="1.0000000000000000"/>
      <sparseX i="1004" alpha="-2312491.3188387859" sparseCutoff="1.0000000000000000"/>
      <sparseX i="1005" alpha="-1277836.2156572191" sparseCutoff="1.0000000000000000"/>
      <sparseX i="1006" alpha="-1888215.5498600719" sparseCutoff="1.0000000000000000"/>
      <sparseX i="1007" alpha="1397337.1686562249" sparseCutoff="1.0000000000000000"/>
      <sparseX i="1008" alpha="1401970.5959925393" sparseCutoff="1.0000000000000000"/>
      <sparseX i="1009" alpha="-397835.13685931463" sparseCutoff="1.0000000000000000"/>
      <sparseX i="1010" alpha="540250.68152430782" sparseCutoff="1.0000000000000000"/>
      <sparseX i="1011" alpha="2009363.2051016912" sparseCutoff="1.0000000000000000"/>
      <sparseX i="1012" alpha="2411314.2469051178" sparseCutoff="1.0000000000000000"/>
      <sparseX i="1013" alpha="4704832.6557876840" sparseCutoff="1.0000000000000000"/>
      <sparseX i="1014" alpha="-338707.27903967822" sparseCutoff="1.0000000000000000"/>
      <sparseX i="1015" alpha="2631264.5969964308" sparseCutoff="1.0000000000000000"/>
      <sparseX i="1016" alpha="873004.10589600005" sparseCutoff="1.0000000000000000"/>
      <sparseX i="1017" alpha="323887.39121224947" sparseCutoff="1.0000000000000000"/>
      <sparseX i="1018" alpha="220751.27020404031" sparseCutoff="1.0000000000000000"/>
      <sparseX i="1019" alpha="-870444.19179669989" sparseCutoff="1.0000000000000000"/>
      <sparseX i="1020" alpha="-618801.80661596695" sparseCutoff="1.0000000000000000"/>
      <sparseX i="1021" alpha="-276834.96652982460" sparseCutoff="1.0000000000000000"/>
      <sparseX i="1022" alpha="197597.85086020554" sparseCutoff="1.0000000000000000"/>
      <sparseX i="1023" alpha="256929.12716550738" sparseCutoff="1.0000000000000000"/>
      <sparseX i="1024" alpha="-36429.910844557991" sparseCutoff="1.0000000000000000"/>
      <sparseX i="1025" alpha="-271510.04335996497" sparseCutoff="1.0000000000000000"/>
      <sparseX i="1026" alpha="-99977.111666662138" sparseCutoff="1.0000000000000000"/>
      <sparseX i="1027" alpha="401167.73476382333" sparseCutoff="1.0000000000000000"/>
      <sparseX i="1028" alpha="181651.86649183143" sparseCutoff="1.0000000000000000"/>
      <sparseX i="1029" alpha="57710.659034514734" sparseCutoff="1.0000000000000000"/>
      <sparseX i="1030" alpha="-490581.74141305470" sparseCutoff="1.0000000000000000"/>
      <sparseX i="1031" alpha="362722.61102106702" sparseCutoff="1.0000000000000000"/>
      <sparseX i="1032" alpha="370752.68743816396" sparseCutoff="1.0000000000000000"/>
      <sparseX i="1033" alpha="443577.36125992250" sparseCutoff="1.0000000000000000"/>
      <sparseX i="1034" alpha="-2026585.0681446493" sparseCutoff="1.0000000000000000"/>
      <sparseX i="1035" alpha="134690.65761824814" sparseCutoff="1.0000000000000000"/>
      <sparseX i="1036" alpha="1416912.3072424545" sparseCutoff="1.0000000000000000"/>
      <sparseX i="1037" alpha="-191107.03953703240" sparseCutoff="1.0000000000000000"/>
      <sparseX i="1038" alpha="-279816.00119068357" sparseCutoff="1.0000000000000000"/>
      <sparseX i="1039" alpha="-737464.78206508292" sparseCutoff="1.0000000000000000"/>
      <sparseX i="1040" alpha="94307.936327986274" sparseCutoff="1.0000000000000000"/>
      <sparseX i="1041" alpha="-12809.885183963168" sparseCutoff="1.0000000000000000"/>
      <sparseX i="1042" alpha="534775.65628646023" sparseCutoff="1.0000000000000000"/>
